<?xml version="1.0"?>
<opencv_storage>
<my_svm type_id="opencv-ml-svm">
  <svm_type>C_SVC</svm_type>
  <kernel><type>LINEAR</type></kernel>
  <C>1.0000000000000000e-02</C>
  <term_criteria><epsilon>1.1920928955078125e-07</epsilon>
    <iterations>1000</iterations></term_criteria>
  <var_all>1764</var_all>
  <var_count>1764</var_count>
  <class_count>2</class_count>
  <class_labels type_id="opencv-matrix">
    <rows>1</rows>
    <cols>2</cols>
    <dt>i</dt>
    <data>
      -1 1</data></class_labels>
  <sv_total>1</sv_total>
  <support_vectors>
    <_>
      4.59519960e-03 9.43975709e-03 1.07395584e-02 1.43893640e-02
      2.61890367e-02 1.63629698e-03 9.27657541e-03 4.44918452e-03
      6.81302743e-03 -1.20576853e-02 -1.69116724e-02 -9.23396088e-03
      -1.77115691e-03 6.62102271e-03 2.84710387e-03 6.67798240e-03
      2.36147735e-03 -1.37762097e-03 -1.90384109e-02 -2.71585658e-02
      -2.03804970e-02 3.84332612e-03 2.69432310e-02 5.02971467e-03
      9.42107663e-03 -4.89070779e-04 -5.94868558e-03 -3.05895302e-02
      -3.66017744e-02 -2.95988303e-02 -2.01913179e-03 1.25000803e-02
      -2.04311474e-03 2.22354569e-03 -6.85677817e-03 -2.12089214e-02
      -1.16635347e-02 -1.81047283e-02 -9.72522236e-03 -2.00016936e-03
      1.50230061e-02 4.89593437e-03 2.95123924e-03 1.12097990e-03
      1.02262758e-03 -1.30888810e-02 -3.05014551e-02 -2.40655951e-02
      -9.52485483e-03 1.33908540e-02 4.34086146e-03 6.94902427e-03
      5.04201371e-03 6.69089379e-03 -2.17807144e-02 -3.43974084e-02
      -2.60744784e-02 -4.55526460e-04 1.57111026e-02 -4.22278000e-03
      4.62862867e-04 -1.05732237e-03 -5.52442484e-03 -1.32684605e-02
      -2.57640425e-02 -1.83172151e-02 -6.91081583e-03 3.64382844e-03
      -1.42135844e-02 1.86216726e-03 2.07922328e-03 4.96589206e-03
      -2.30535120e-02 -3.73510644e-02 -2.86380183e-02 -1.00918720e-02
      8.96427780e-03 -4.08051396e-03 -8.71641445e-04 6.43519871e-03
      3.46415851e-04 -2.93419529e-02 -2.89243944e-02 -1.51990242e-02
      -6.51665125e-03 1.73819121e-02 -1.96039956e-03 -6.75008772e-03
      -5.50981425e-03 -1.75813250e-02 -9.54773370e-03 -1.83092616e-02
      -9.03867371e-03 -4.59617516e-03 5.53671131e-03 -1.20391566e-02
      -2.61643040e-03 -1.10081774e-05 1.00958638e-03 -9.97211970e-03
      -7.66668934e-03 2.78097484e-03 1.00051751e-03 1.61405075e-02
      9.30481008e-04 -5.82178449e-03 -1.33653171e-02 -1.10978382e-02
      -2.68279165e-02 -1.82036553e-02 -4.00773203e-03 2.39458037e-04
      2.22430620e-02 -2.47983518e-03 -8.80243909e-03 -1.29266623e-02
      -2.33187713e-02 -2.37149820e-02 -1.33215105e-02 -7.76108354e-04
      2.97030504e-03 1.56919342e-02 -1.19404625e-02 -1.42849786e-02
      -1.80612653e-02 -2.47808769e-02 -1.20702246e-02 -8.01628921e-03
      -3.18314321e-03 3.45564767e-04 1.78036224e-02 4.39834374e-04
      -8.77181347e-03 -1.65283941e-02 -1.63596682e-02 -1.14777843e-02
      -7.65523920e-03 -1.50612625e-03 1.06339401e-03 1.11684166e-02
      -5.00673568e-03 -1.02808801e-02 -1.37281325e-02 -1.59235839e-02
      -1.42680500e-02 -8.08779430e-03 2.05095462e-03 5.76396799e-03
      9.12346225e-03 -1.91722531e-02 -2.26205233e-02 -2.10622903e-02
      -1.94895994e-02 -1.27429683e-02 -4.16268129e-03 4.44104848e-03
      1.02728670e-02 1.48220193e-02 -1.68738104e-02 -1.69647802e-02
      -1.87802855e-02 -1.61533020e-02 -3.12577724e-03 -1.95123674e-03
      7.21901795e-03 4.12553223e-03 3.82108055e-03 -1.24551430e-02
      -1.24459071e-02 -1.55900270e-02 -7.30431546e-03 4.65501193e-03
      3.40269739e-03 1.37863792e-02 1.22400001e-02 2.68217898e-03
      -2.22650394e-02 -1.01180580e-02 -9.78226215e-03 6.05106913e-03
      -1.63153429e-02 -1.01393452e-02 1.08162395e-03 8.77150986e-03
      7.22648297e-03 -1.37305008e-02 -2.32804790e-02 -2.91954167e-02
      -2.29244251e-02 -1.42700560e-02 -6.74832426e-03 4.96919965e-03
      8.79502203e-03 8.61490984e-03 -1.35707287e-02 -2.07137764e-02
      -2.35942919e-02 -2.42812708e-02 -1.11961551e-03 3.66060855e-03
      1.13312798e-02 9.76355467e-03 -3.14520532e-03 -2.09450703e-02
      -8.57128669e-03 -1.08870771e-02 -1.08283455e-03 4.62024286e-03
      5.40743722e-03 1.26632908e-02 9.16300435e-03 6.82555418e-03
      -9.32121184e-03 -9.02534090e-03 -6.23124093e-03 2.94626830e-03
      -2.08782740e-02 -6.64640311e-03 6.40130555e-03 1.85694953e-03
      1.54613168e-03 -2.42658406e-02 -2.87017003e-02 -2.50233654e-02
      -2.65607312e-02 -1.92721821e-02 3.21146240e-03 1.56503599e-02
      2.29155626e-02 3.04658432e-02 5.14785806e-03 -9.62432195e-03
      -2.83171497e-02 -2.51006465e-02 -4.29022446e-04 -1.62545348e-05
      4.01217258e-03 -4.65830468e-04 -5.32779330e-03 -2.33022477e-02
      -1.37061700e-02 -7.19564967e-03 -5.12391049e-03 -2.64781737e-03
      1.48491876e-03 1.11665269e-02 1.62650794e-02 1.25287650e-02
      -2.99569871e-03 9.60332341e-04 -2.57731183e-03 -5.33488696e-04
      -2.01489031e-02 -3.25335935e-02 -2.97448281e-02 -1.37458444e-02
      2.05974206e-02 9.80928447e-03 8.92573316e-03 5.34471073e-05
      -6.25237823e-03 -2.76931338e-02 -3.09714116e-02 -2.45749131e-02
      2.89837550e-03 1.93848107e-02 7.37728598e-03 6.93466840e-03
      -1.51252316e-03 -1.54436613e-02 -8.97436123e-03 -1.65732447e-02
      -1.50458105e-02 -2.01004185e-02 6.52790582e-03 8.69796611e-03
      1.77736711e-02 1.10610612e-02 2.31112819e-03 -1.20101394e-02
      -1.26102539e-02 -1.04520738e-03 3.40487063e-03 9.97875631e-03
      1.00806011e-02 1.16412845e-02 5.22812549e-03 -4.41233721e-03
      -1.67137142e-02 -3.36759537e-02 -2.36234758e-02 -6.89853588e-03
      3.06754070e-03 -8.74458440e-03 2.84740166e-03 5.66772593e-04
      -7.14267604e-03 7.17644114e-03 -7.77057931e-03 -3.21725290e-03
      -8.85933265e-03 -1.25237675e-02 -2.23918799e-02 -1.92695926e-03
      2.96937185e-03 1.16366567e-02 3.51322419e-03 -4.41181287e-03
      3.54754762e-03 -2.37265276e-03 -2.73711933e-03 -5.14772860e-03
      6.48015877e-03 3.61797051e-03 3.66257713e-03 2.25794986e-02
      1.24068055e-02 1.16429226e-02 -6.35185745e-03 -8.74311943e-03
      -1.40322791e-02 3.23456572e-03 9.36643872e-03 2.06089020e-02
      8.41998379e-04 -8.81732814e-03 1.06565992e-03 -7.10347714e-03
      -1.62792001e-02 -1.81247462e-02 -7.64110871e-03 -3.16236680e-03
      3.88465286e-03 -8.97856615e-03 -5.05696377e-03 3.67734232e-04
      -3.88414739e-03 -3.00460774e-03 -3.28281638e-03 -6.61935285e-03
      -1.29937772e-02 -1.16125718e-02 1.08252121e-02 5.47107682e-03
      9.39034298e-03 -1.24121606e-02 -1.69693511e-02 -1.56656932e-02
      -2.55741482e-03 6.30529551e-03 1.32456133e-02 5.67003712e-03
      4.89563681e-03 1.22980410e-02 -5.34479413e-03 -1.30122108e-03
      -8.20988149e-04 6.02940051e-03 8.15092400e-03 6.13544695e-03
      -1.07452013e-02 -5.99362375e-03 -1.83599978e-03 -1.44829694e-03
      1.00555038e-02 -3.70305125e-03 -9.29896813e-03 -1.45142404e-02
      -1.48045309e-02 -1.35434223e-02 -6.33098837e-03 -5.71597076e-04
      -3.53289675e-03 5.70671447e-03 -4.26772796e-03 -8.54386203e-03
      -1.59306694e-02 -1.78874545e-02 2.35946936e-04 5.11338096e-03
      9.78232548e-03 -1.68852217e-04 5.76611608e-03 -4.80182841e-03
      2.57457676e-03 -1.29030156e-03 -1.21221854e-03 -1.02992253e-02
      4.16732300e-03 1.19236987e-02 -9.34902055e-04 2.19906634e-03
      -2.17894185e-03 -3.58467526e-03 -1.09981103e-02 -1.46717634e-02
      -3.94785125e-03 -1.69500487e-03 8.89542885e-03 3.13007017e-03
      5.71568031e-03 -1.36256742e-04 -4.07716027e-03 -1.25384890e-02
      -7.15192920e-03 2.19072076e-03 5.34092914e-03 1.60027444e-02
      1.08217113e-02 -8.54693726e-03 -2.05708109e-02 -5.36974287e-03
      -8.90950579e-03 -6.64845051e-04 -8.94002616e-03 5.20403124e-03
      1.66437346e-02 -3.26841167e-04 -2.85721151e-03 1.51953206e-03
      -9.77287418e-04 -1.12266932e-02 -1.17208315e-02 -1.24696887e-03
      1.25216153e-02 2.23804247e-02 5.48917660e-03 -7.57347653e-03
      -1.36647737e-02 -1.96817238e-03 -8.53541400e-03 -4.69447859e-03
      4.29765973e-03 4.61894972e-03 1.13644004e-02 3.65385809e-03
      -1.83653794e-02 -1.71948113e-02 -2.83117010e-03 -5.12669655e-03
      1.98386214e-03 6.70428947e-03 4.61802632e-03 9.48576909e-03
      1.26712779e-02 -8.41929298e-03 -8.52676854e-03 -2.71134474e-03
      1.56881055e-03 5.93462586e-03 -5.26908902e-04 8.27917457e-03
      1.25849629e-02 5.23092342e-04 -1.78550743e-02 -8.64023529e-03
      -4.21317806e-03 -8.76531005e-03 -3.91322840e-03 2.80592660e-03
      6.83856662e-03 1.51782297e-02 1.34910000e-02 -7.36872526e-03
      -8.38083308e-03 4.26824437e-04 3.41990730e-04 2.36706203e-03
      -1.63229392e-03 -4.24304046e-03 -7.47826009e-04 -4.28179605e-03
      -2.28518583e-02 -2.69250572e-02 -1.21555487e-02 -5.02876705e-03
      -4.37207893e-03 -1.88108883e-03 1.99214858e-03 6.83261780e-03
      6.96283393e-03 -5.39972773e-03 -1.03986282e-02 4.19076858e-03
      4.40999895e-04 7.51507003e-04 3.73311981e-04 1.20339566e-03
      4.98672388e-03 -1.82644406e-03 -1.47442333e-02 -2.04925761e-02
      -6.81408029e-03 -6.69956615e-04 3.95442126e-04 8.85561015e-03
      1.53733613e-02 2.42174026e-02 1.74055621e-02 -6.68116938e-03
      4.41250071e-04 9.60711949e-03 1.15862349e-02 7.09585333e-03
      -3.83280707e-03 -4.47289599e-03 1.86970356e-04 -3.58828865e-02
      -1.94787737e-02 -1.33273599e-04 1.09104337e-02 3.35324300e-03
      -6.47908822e-03 -4.26556775e-03 1.53750391e-03 7.17183901e-03
      -1.77456683e-03 -3.83804995e-03 5.72081553e-05 4.05603694e-03
      -4.87461779e-03 -6.76307781e-03 7.39074405e-03 9.95196868e-03
      1.14015955e-02 -3.04849781e-02 -2.00809389e-02 -3.30397626e-03
      4.97242529e-03 2.60023051e-03 -2.03094305e-03 9.17209312e-03
      1.71831604e-02 1.42960558e-02 -6.22610329e-03 -1.08278720e-02
      5.12795942e-03 8.57560895e-03 7.99733039e-04 1.29647076e-03
      1.01110041e-02 9.40027367e-03 1.04104411e-02 -3.39566777e-03
      -1.65680870e-02 -7.48477504e-03 2.96622561e-03 1.10807072e-03
      5.28768217e-03 2.45239288e-02 1.70099661e-02 1.56682264e-02
      -1.92620289e-02 -2.52985824e-02 -1.45203350e-02 2.07138201e-03
      7.86797237e-03 2.05281191e-02 1.64805874e-02 1.49754444e-02
      1.40638910e-02 -8.20828602e-03 -2.43937969e-02 -2.15490768e-03
      1.45684611e-02 8.56616069e-03 1.32983895e-02 2.21405290e-02
      1.67055856e-02 2.14063618e-02 -1.84878055e-02 -3.05987056e-02
      -1.52623095e-02 1.46354744e-02 1.34723196e-02 1.90748051e-02
      1.09506054e-02 1.01220654e-02 1.11838365e-02 -1.94057096e-02
      -3.03655751e-02 -1.08608138e-02 1.53682707e-03 8.02043546e-03
      1.20505104e-02 9.70392674e-03 4.50607715e-03 1.03758182e-02
      -1.03644775e-02 -1.23712644e-02 5.10092732e-03 1.12636769e-02
      9.66675114e-03 1.13321710e-02 1.88481472e-02 1.37689086e-02
      1.78969596e-02 -1.41844172e-02 -2.79951412e-02 -1.32036563e-02
      9.31349304e-03 1.20017575e-02 1.90683771e-02 1.48924934e-02
      1.13811949e-02 1.24892788e-02 -1.88749302e-02 -1.16379522e-02
      8.38249456e-03 1.75455473e-02 1.60661656e-02 1.68076959e-02
      5.79100335e-03 5.84018137e-03 1.31916450e-02 -1.17623562e-03
      -8.52201600e-03 3.46439355e-03 1.35086421e-02 4.34717583e-03
      5.52190002e-03 -1.01386812e-02 6.90383092e-03 1.68852545e-02
      -7.59698814e-05 -1.89864580e-02 -8.91602691e-03 5.03528118e-03
      -2.97721243e-03 -8.36421922e-03 6.95340615e-03 1.04875807e-02
      1.46745965e-02 -1.14047611e-02 -1.53956609e-02 6.97656581e-03
      1.80731937e-02 1.10099101e-02 7.08327442e-03 -6.21272344e-03
      7.56281056e-03 1.38955489e-02 -1.37907425e-02 -1.76332630e-02
      -7.64801446e-03 1.31161520e-02 6.47019409e-03 -7.02462206e-03
      -4.49852971e-03 7.92166684e-03 1.75029729e-02 6.43199962e-03
      -1.69564672e-02 -6.56969205e-04 3.94330034e-03 2.87600583e-03
      -5.41356392e-03 2.02104286e-03 1.14800241e-02 1.85252372e-02
      3.76603915e-03 -2.26218887e-02 -4.10558330e-03 1.05764596e-02
      7.07569066e-04 -6.20159728e-04 8.20629706e-04 4.39597573e-03
      1.26092052e-02 -1.52573769e-03 -2.04616133e-02 7.24427914e-03
      1.34825939e-02 9.25338827e-03 -5.68734431e-05 6.98706741e-03
      8.16941168e-03 1.70352943e-02 1.40024431e-03 -2.36882418e-02
      -2.33062380e-03 1.61196068e-02 9.57259908e-03 3.28449835e-03
      -1.56927831e-03 8.10499489e-03 1.25438850e-02 4.10621800e-03
      -3.15653309e-02 1.28623948e-03 6.65585464e-03 -3.76954512e-03
      -4.83135227e-03 7.64050172e-04 5.37227001e-03 1.51041755e-02
      1.73168033e-02 -1.92110650e-02 2.48356885e-03 7.80677842e-03
      6.93354814e-04 -4.80591645e-03 1.59704231e-03 7.38468347e-03
      1.45565616e-02 4.91280947e-03 -2.75967009e-02 -1.44289539e-03
      1.00356247e-02 2.55076191e-03 -2.21629604e-03 5.09309303e-03
      1.10846413e-02 1.77255627e-02 1.67124271e-02 -2.00328045e-02
      5.79496147e-03 1.31870350e-02 8.16191919e-03 -1.39408268e-03
      -5.30952914e-03 3.77248478e-04 8.15053843e-03 1.75866764e-03
      -2.80853380e-02 -1.60457212e-02 -9.07585563e-05 -6.91755326e-04
      -5.58135053e-03 8.84234626e-03 1.67228840e-02 2.75702216e-02
      2.06482727e-02 -1.92702617e-02 8.67598969e-03 1.99880823e-02
      1.77643653e-02 9.76551883e-03 -4.89008287e-03 6.10606233e-03
      7.34450482e-03 -8.75980780e-03 -3.32508422e-02 -8.77123978e-03
      5.12324180e-03 2.72164610e-03 -7.45400507e-03 4.79258550e-03
      1.69840902e-02 2.39355788e-02 2.11220626e-02 -2.48134341e-02
      1.10203596e-02 2.92853601e-02 1.72328055e-02 3.50893615e-03
      3.40621080e-03 7.89590366e-03 1.29496874e-02 -1.12113208e-02
      -3.08441110e-02 -6.75653107e-03 4.65525454e-03 7.34782603e-04
      -9.52747359e-04 6.92060543e-03 1.40851503e-02 1.94374006e-02
      -1.83585170e-03 -2.08833013e-02 2.79407972e-03 1.34819355e-02
      3.90069000e-03 6.05512783e-03 2.66241695e-04 1.07458094e-02
      1.44634200e-02 -6.90560276e-03 -2.50703078e-02 -1.19148353e-02
      7.90497009e-03 3.68268555e-03 1.33623974e-03 -1.95395225e-03
      7.35245179e-03 9.56500135e-03 -7.95821380e-03 -2.33984534e-02
      -8.60109366e-03 1.26236975e-02 7.14016752e-03 3.22366273e-03
      1.47639886e-02 1.41119966e-02 1.74924899e-02 -3.61134973e-03
      -3.21940780e-02 -9.30110633e-04 1.85012296e-02 1.12338178e-02
      1.41700236e-02 1.77475847e-02 1.20743094e-02 1.99310891e-02
      -4.33144672e-03 -3.64082046e-02 -1.11870887e-02 1.34770731e-02
      1.18146837e-02 1.39313014e-02 1.28001291e-02 1.40535459e-02
      1.33200632e-02 -6.03202078e-03 -3.07493638e-02 -1.84502415e-02
      1.81750469e-02 1.45620843e-02 1.40253343e-02 1.50035946e-02
      1.38626015e-02 1.70297995e-02 -5.13515947e-03 -3.25693190e-02
      -2.34032590e-02 1.67602059e-02 1.20548010e-02 1.57939922e-02
      1.45684006e-02 1.03227263e-02 1.51835708e-02 -4.53166617e-03
      -3.03980410e-02 -1.23085584e-02 8.65229592e-03 1.09561160e-02
      1.28444582e-02 1.28524620e-02 1.19050872e-02 1.20277964e-02
      -1.39736244e-02 -1.68345030e-02 2.68936902e-03 1.86010431e-02
      1.84004121e-02 1.38357393e-02 8.26775748e-03 9.14175343e-03
      1.44190919e-02 -5.20256395e-03 -2.91057639e-02 -1.81366820e-02
      1.26859741e-02 9.45820566e-03 9.10840183e-03 1.03499275e-02
      1.07104927e-02 1.58674195e-02 -1.23229558e-02 -1.87128913e-02
      -8.26794002e-03 1.70204043e-02 1.61474142e-02 9.55208857e-03
      4.05285554e-03 6.07666513e-03 8.65016133e-03 -1.03366105e-02
      -1.63632371e-02 9.29914881e-03 1.30098788e-02 1.17493728e-02
      6.65073888e-03 -6.22637104e-03 2.77230982e-03 5.80295315e-03
      -1.31781185e-02 -1.90464742e-02 4.40300955e-03 1.13915056e-02
      5.12758410e-03 -4.88568703e-03 4.51922836e-03 7.07969116e-03
      1.51051944e-02 -8.55215359e-03 -1.49756083e-02 1.04737123e-02
      1.45388125e-02 1.12995533e-02 2.65611196e-03 -4.34644474e-03
      2.05788482e-03 7.80454930e-03 -2.06971504e-02 -1.99686829e-02
      1.31173281e-03 1.24363909e-02 4.81402269e-03 -2.95609748e-03
      -9.39642370e-04 2.46329792e-03 7.85069447e-03 -4.31227079e-03
      -3.02182734e-02 1.43130021e-02 1.11045521e-02 3.68071604e-03
      -2.11183866e-03 7.72325741e-03 5.61635196e-03 1.36375185e-02
      4.94129630e-03 -2.91002225e-02 4.03747940e-03 1.53825330e-02
      6.70798915e-03 5.04817814e-03 9.89851658e-04 5.58117777e-03
      7.00083887e-03 -1.78266186e-02 -2.75641065e-02 2.99617345e-03
      8.27155448e-03 2.75962753e-03 -1.95392105e-03 1.45848235e-02
      1.42273158e-02 1.86756309e-02 -4.29208484e-03 -2.62660533e-02
      6.87554153e-03 1.40321972e-02 1.11363344e-02 9.84882656e-03
      5.71978325e-03 4.81491769e-03 1.08405491e-02 -2.18942715e-03
      -4.15151343e-02 7.58484588e-04 1.21100098e-02 6.00029901e-03
      4.14822204e-03 9.60201863e-03 1.04035120e-02 1.92448236e-02
      1.03895627e-02 -3.31556015e-02 7.04717124e-03 1.52312359e-02
      1.03102904e-02 7.60578550e-03 7.83558283e-03 1.01568177e-02
      1.58267580e-02 -1.18411733e-02 -4.11381386e-02 4.92922636e-03
      1.85898505e-02 9.79472976e-03 5.76170068e-03 1.37652932e-02
      1.85223967e-02 2.34996565e-02 -1.41638413e-03 -3.22777666e-02
      9.89422202e-03 1.66595355e-02 8.94195959e-03 9.48443357e-03
      8.29272531e-03 1.03264209e-02 1.20028332e-02 -3.59112956e-03
      -4.95196730e-02 -6.51088601e-04 8.60133767e-03 4.17476613e-03
      5.02323033e-03 1.52036902e-02 1.92291234e-02 2.38187909e-02
      1.99768841e-02 -3.72665972e-02 1.59462895e-02 2.03732103e-02
      1.00574642e-02 1.28436647e-02 9.74236429e-03 1.07102096e-02
      1.52706914e-02 -1.34803727e-02 -4.56351340e-02 1.43915694e-03
      4.18975670e-03 2.88894260e-03 5.52139152e-03 2.33956221e-02
      2.30858792e-02 2.03170124e-02 8.69870465e-03 -3.51090319e-02
      2.06425618e-02 1.66266486e-02 1.25401597e-02 2.10759547e-02
      -3.98803316e-03 4.30516666e-03 8.27920809e-03 -8.97708721e-03
      -1.36132883e-02 -1.85672771e-02 1.00759501e-02 8.94142687e-03
      -7.11483008e-04 -6.54643541e-03 -1.07140874e-03 -2.44053401e-04
      -1.32056344e-02 -1.40821701e-02 -1.16045391e-02 1.04260510e-02
      9.96092241e-03 7.61602889e-04 -2.59973924e-03 5.69072226e-03
      1.28190862e-02 -3.16339283e-04 -5.27745718e-03 -2.18297355e-02
      -5.28920535e-03 -4.93209204e-03 -5.55213634e-03 -2.67803809e-03
      4.82589751e-03 1.16976416e-02 -3.61664715e-04 -7.85229821e-03
      -1.41414320e-02 -4.94601438e-04 -3.08592594e-03 -3.66911408e-04
      3.72030027e-03 3.42277368e-03 6.88058732e-04 -9.43734404e-03
      -2.11350396e-02 -2.13068742e-02 1.23881474e-02 1.33630531e-02
      9.84040275e-03 1.28576420e-02 1.05812028e-02 1.11538051e-02
      -1.45886093e-03 -2.67143119e-02 -2.44187079e-02 1.19208405e-02
      1.03940666e-02 1.58416033e-02 7.65461195e-03 5.21514378e-03
      1.29515165e-02 2.10290076e-03 -6.12863665e-03 -2.10087374e-02
      8.35431367e-03 1.16527416e-02 1.29462471e-02 2.10435782e-02
      9.88843199e-03 1.00748157e-02 -5.09524439e-03 -2.54672598e-02
      -2.65407357e-02 1.05222650e-02 1.73279475e-02 1.97043810e-02
      1.35496128e-02 1.09569347e-02 1.37916617e-02 -2.84589594e-03
      -2.25622859e-02 -1.47778494e-02 1.11550502e-02 9.52249952e-03
      1.36207566e-02 1.53026460e-02 1.31131839e-02 1.60927661e-02
      -1.03658270e-02 -1.38823157e-02 -1.95927219e-03 1.55932335e-02
      1.55322682e-02 1.37784807e-02 1.82043985e-02 8.61587375e-03
      6.83385553e-03 -2.52693961e-03 -2.52028294e-02 -1.88507326e-02
      5.82023570e-03 1.02375848e-02 1.54676745e-02 1.41535001e-02
      1.02719981e-02 5.40637597e-03 -1.12094656e-02 -1.91631056e-02
      -9.57834814e-03 9.03551094e-03 7.25074532e-03 1.34419240e-02
      6.75108936e-03 8.32104590e-03 1.50240725e-02 -1.04410322e-02
      -1.37879346e-02 9.38477460e-03 1.24117527e-02 1.19669689e-02
      4.82628075e-03 -8.02264782e-04 6.78598555e-03 1.32377474e-02
      -1.75120458e-02 -2.03985926e-02 2.30461312e-03 1.39228078e-02
      7.32111977e-03 -2.70811521e-04 4.89973789e-03 5.64192049e-03
      7.41160754e-03 -1.11164153e-02 -1.40415784e-02 3.18364333e-03
      1.40726818e-02 8.21154378e-03 8.23685154e-03 -6.80765184e-03
      -1.32563364e-04 6.06476748e-03 -1.43781118e-02 -1.81003902e-02
      1.74596824e-03 1.42494012e-02 7.11012632e-03 -2.74967449e-03
      1.71734765e-03 5.66984201e-03 5.99884382e-03 -1.48243913e-02
      -2.29180437e-02 8.28844588e-03 1.01092281e-02 5.92180667e-03
      2.24659010e-03 8.07270315e-03 1.37467459e-02 1.63309183e-02
      -8.03883933e-03 -2.24066973e-02 1.67763531e-02 1.25910565e-02
      1.02541894e-02 7.61248870e-03 -6.12556795e-03 -3.61857074e-03
      4.27730301e-05 -1.02902818e-02 -1.89175177e-02 1.31118568e-02
      1.16753262e-02 3.91093735e-03 -2.27195001e-03 -1.28313364e-03
      2.56764074e-03 9.60180350e-03 -8.71950854e-03 -1.82439834e-02
      1.64784882e-02 1.67028643e-02 9.44042485e-03 -2.35201747e-04
      1.79120223e-03 9.95582156e-03 1.15450956e-02 -1.43713849e-02
      -3.30844261e-02 1.48958629e-02 1.29999816e-02 7.87762273e-03
      -6.93502170e-06 2.75540701e-03 1.45294564e-02 1.85400490e-02
      -1.05115050e-03 -2.64258962e-02 1.33549683e-02 1.32971006e-02
      5.03963884e-03 1.59729004e-03 -5.09021059e-03 2.28736596e-03
      8.69724341e-03 -2.10668202e-02 -2.85836589e-02 1.26680536e-02
      1.38893966e-02 6.06390182e-03 -2.76859314e-03 -2.26197764e-03
      5.33572864e-03 1.61803979e-02 -8.80141370e-03 -2.50311121e-02
      1.78656001e-02 1.25589529e-02 1.22609059e-03 -1.27850380e-03
      -4.59004659e-03 5.43428259e-03 1.16596529e-02 -1.20332623e-02
      -3.24458294e-02 1.38587062e-03 1.18320086e-03 -4.00049670e-04
      -6.38268422e-03 6.28065784e-03 1.24725224e-02 1.16144326e-02
      -2.96993507e-03 -2.27614101e-02 2.42005810e-02 1.65455714e-02
      1.38289928e-02 8.42285063e-03 -3.65864369e-03 6.59380399e-04
      6.79786177e-03 -1.98827777e-02 -2.85836104e-02 2.71202927e-03
      5.58158988e-03 -2.36975239e-03 -3.11375177e-03 9.92177054e-03
      1.48939108e-02 1.35720996e-02 -1.08524309e-02 -1.41349304e-02
      2.52770223e-02 2.04916000e-02 1.23432400e-02 1.01675745e-02
      -2.69173819e-04 7.43741961e-03 1.65790245e-02 1.06130177e-02
      2.12847888e-02 -8.19107238e-03 -2.26492137e-02 -2.61393487e-02
      -1.23627475e-02 2.29672436e-03 1.32767661e-02 2.14066133e-02
      1.70650836e-02 2.18046550e-02 1.17331487e-03 -6.20973669e-03
      -1.54991522e-02 -7.83187710e-03 -1.48635991e-02 2.77356035e-03
      1.16583109e-02 8.10175017e-03 2.55195033e-02 -5.12862066e-03
      -3.34529616e-02 -4.32924852e-02 -3.87351178e-02 -1.73211079e-02
      5.16205514e-03 1.02524767e-02 4.52610198e-03 1.86945684e-02
      -3.41575104e-03 -2.69346274e-02 -4.17651907e-02 -3.94217037e-02
      9.13760439e-03 9.95514821e-03 1.70463342e-02 1.15566347e-02
      1.55165438e-02 -8.25966895e-03 5.29075274e-03 -5.26051316e-03
      2.92566209e-03 1.51860369e-02 6.55060681e-03 8.44215322e-03
      -2.82727787e-03 -6.25874707e-03 -1.32897124e-02 7.12914905e-03
      8.54729861e-03 1.35472920e-02 -1.58631019e-02 -6.13617664e-03
      -2.25592568e-03 -4.41953260e-03 1.26908533e-02 -6.13982696e-03
      -1.68990456e-02 -4.04754728e-02 -2.91533470e-02 -5.46075404e-03
      -9.65215359e-03 -7.09856069e-03 -8.06642044e-03 -4.12743073e-03
      -1.36648649e-02 -7.75126135e-03 -1.36929434e-02 -1.33245662e-02
      1.01038786e-02 4.33505233e-03 2.62804795e-03 -3.97916744e-03
      -6.38317177e-03 -1.53871821e-02 9.80612007e-04 6.94916723e-03
      1.17221028e-02 7.81356916e-03 3.85926897e-03 1.93363044e-03
      -6.47820299e-03 2.40881345e-03 -2.40224297e-03 1.83663296e-03
      -1.22105423e-03 8.28217622e-03 -6.17418624e-03 -8.36625136e-03
      -4.75868210e-03 -6.72737416e-03 2.33894354e-03 -1.82917193e-02
      -8.12043529e-03 -6.86785020e-03 -6.56285230e-03 -1.28343534e-02
      -1.71518642e-02 -8.63603968e-03 -6.74906420e-03 1.24266380e-02
      -2.58220709e-03 -1.03618782e-02 -1.63417049e-02 -7.64250569e-03
      -1.30376848e-03 -7.34386407e-03 -4.62169759e-03 -9.68034286e-03
      2.80093658e-03 5.68034779e-03 7.48382043e-03 -1.38370064e-03
      -4.08534368e-04 -1.05669908e-02 -1.71532817e-02 -9.91621148e-03
      -9.79827438e-03 1.88211701e-03 5.65058598e-03 1.00625390e-02
      2.20838143e-03 -8.14829860e-03 -1.71611123e-02 -2.10458320e-02
      -9.78908595e-03 -2.56727263e-03 9.44227353e-03 1.26807690e-02
      -3.17407493e-03 -1.30149079e-02 -1.18674012e-02 -2.71078292e-02
      -2.40860526e-02 -1.08622499e-02 -7.77384965e-03 8.20428133e-03
      1.67604964e-02 1.99645781e-03 -4.89571225e-03 -1.95002742e-02
      -8.59345496e-03 -1.30570289e-02 -8.66579171e-03 -6.83664531e-03
      -1.01801788e-03 1.04640983e-02 7.07769673e-03 1.77651993e-04
      -5.10237925e-03 -5.08213649e-03 -4.59730206e-03 -2.03293841e-03
      -1.53032970e-02 -7.12345075e-03 1.24302264e-02 1.44831277e-02
      3.82287777e-03 -8.96600657e-04 -1.22654084e-02 -1.63601469e-02
      -1.16537586e-02 -1.37642594e-02 3.89485387e-03 1.81738213e-02
      5.76219754e-03 -2.82520964e-03 -8.85639060e-03 7.24357204e-04
      -7.94619787e-03 -8.31820536e-03 -2.42992193e-02 -7.12800678e-03
      2.03373320e-02 1.56890173e-02 3.46310344e-03 6.97732379e-04
      -6.12746459e-03 -1.27113471e-03 1.19421934e-03 -2.43713744e-02
      -1.91858355e-02 1.01804445e-02 1.20295566e-02 3.00326361e-03
      -1.20217993e-03 3.10930959e-03 1.47634512e-03 3.64736118e-03
      -1.62672177e-02 -1.74417105e-02 1.65258590e-02 8.49083718e-03
      2.77211238e-03 5.02912048e-03 3.30520840e-03 -2.71114381e-03
      -4.31197369e-03 -2.96559911e-02 -1.91650819e-02 1.43878749e-02
      9.48923361e-03 4.14302060e-03 1.79349526e-03 9.98913869e-03
      5.57311950e-03 -6.81043416e-03 -2.12728679e-02 -1.52149694e-02
      1.82345081e-02 1.27132377e-02 1.14167836e-02 1.11790160e-02
      8.19102116e-03 3.65495472e-03 -2.14231899e-03 -2.52371319e-02
      -1.89800952e-02 6.69501582e-03 1.98639650e-03 1.87728903e-04
      8.63899849e-03 1.34503115e-02 1.24661271e-02 9.54868086e-03
      -1.28952516e-02 -8.00605491e-03 1.85342059e-02 1.47609906e-02
      8.12180154e-03 1.35119203e-02 3.33748362e-03 -3.06208897e-03
      -1.88670810e-02 -4.17129248e-02 -2.20648646e-02 5.93181420e-03
      3.67558445e-03 -1.83884636e-03 5.40872978e-04 2.29636673e-03
      2.80738343e-03 -8.03641882e-03 -2.22576298e-02 -1.47945769e-02
      1.09457942e-02 1.05690397e-02 6.62192469e-04 -1.31072395e-03
      -7.99483713e-03 8.32980324e-04 6.41507655e-03 1.09202238e-02
      3.08189522e-02 5.75374253e-03 -1.70721859e-02 -2.97800526e-02
      -2.91117039e-02 -2.40473449e-02 -8.15777946e-03 -6.35277899e-03
      -7.17445137e-03 1.24413194e-02 -7.83199817e-03 -2.94698514e-02
      -3.85243557e-02 -3.72247063e-02 -2.80349352e-03 2.15525855e-03
      6.53293123e-03 1.56772677e-02 2.33312044e-02 7.85804261e-03
      5.71030052e-03 1.71071361e-03 -4.21682745e-03 -1.15308641e-02
      -5.81950368e-03 -7.21764052e-03 -3.34211206e-03 1.26744770e-02
      -6.82095997e-03 -6.05317391e-03 -1.85571089e-02 -1.42017454e-02
      -1.58565678e-02 -1.19549986e-02 -8.73702485e-03 -4.18382697e-03
      1.92518253e-02 1.81785529e-03 -1.64869484e-02 -3.10764946e-02
      -2.60624457e-02 -1.03205228e-02 -1.08080991e-02 -3.58986785e-03
      -1.71187683e-03 1.79464053e-02 -3.21556791e-03 -1.38707478e-02
      -2.49560792e-02 -1.63780749e-02 -1.09998938e-02 -6.40014978e-03
      -4.25940845e-03 -1.86159695e-03 1.10806674e-02 -3.99675127e-03
      -1.60017870e-02 -2.05495842e-02 -1.31093869e-02 -1.12507092e-02
      -7.43458420e-03 -1.65525195e-03 5.48177585e-03 1.65108964e-02
      -4.47169412e-03 -2.34501176e-02 -2.81796344e-02 -1.56388786e-02
      -9.60534625e-03 -1.00941230e-02 -8.42335261e-03 -1.50260481e-03
      2.23533437e-02 -3.88811924e-03 -7.79843330e-03 -1.87030789e-02
      -1.55438464e-02 -1.35297636e-02 -1.99613161e-02 -1.40530225e-02
      8.96200654e-04 2.65640765e-02 1.02050358e-03 -2.26263236e-03
      -1.67564284e-02 -1.17453188e-02 -1.08731631e-02 -1.01768179e-02
      -8.32271669e-03 -1.60204526e-03 1.71474013e-02 -4.32048505e-03
      -1.89803522e-02 -3.09353229e-02 -2.28335746e-02 -2.12380178e-02
      -1.65042877e-02 -1.34160090e-02 -2.08407943e-03 2.26820707e-02
      -2.61221942e-03 -1.57214887e-02 -3.21990699e-02 -2.27122232e-02
      -1.90927442e-02 -2.28883363e-02 -1.71215404e-02 -2.10375665e-03
      2.97715962e-02 6.99266139e-03 -7.06579443e-03 -1.58553440e-02
      -1.56007782e-02 -2.12864056e-02 -1.93967670e-02 -1.42459134e-02
      -6.59153238e-03 2.53929961e-02 1.56539530e-02 3.86906159e-03
      -3.59035633e-03 -1.84902586e-02 -3.23500745e-02 -1.76693182e-02
      -1.74602028e-02 -6.80009485e-04 2.86086909e-02 2.78099370e-03
      -1.19057260e-02 -2.42050607e-02 -2.76826154e-02 -3.12395636e-02
      -1.86588280e-02 -2.21129376e-02 -2.97121494e-03 2.42922157e-02
      1.46882553e-02 4.37414087e-03 -7.48402858e-03 -2.48384383e-02
      -1.55155212e-02 -1.59315038e-02 -1.96419172e-02 -2.23415364e-02
      1.57215968e-02 1.18884519e-02 2.89913756e-03 -4.74017998e-03
      -1.43881543e-02 -2.43207160e-03 -1.01727191e-02 -1.98904276e-02
      -2.47608293e-02 8.71809851e-03 1.36116492e-02 9.00195353e-03
      1.00180029e-03 -1.26809778e-03 -2.88587920e-02 -2.42272150e-02
      -2.66778879e-02 -1.74348112e-02 2.36993544e-02 1.55366370e-02
      5.34078013e-03 -6.89940434e-03 -2.50021759e-02 -2.89570894e-02
      -2.11707875e-02 -1.75652858e-02 -1.69639736e-02 2.42691953e-02
      2.18701940e-02 1.00840656e-02 -5.37056057e-03 -2.12718137e-02
      1.12060294e-03 -7.69760227e-03 -1.54909892e-02 -2.50683986e-02
      -1.94007205e-03 1.45998914e-02 5.59453713e-03 3.29090306e-03
      2.61760666e-03 6.77843858e-03 -2.45731580e-03 -1.79310888e-02
      -2.56780293e-02 -3.82010243e-03 1.77614931e-02 1.45602599e-02
      1.04500689e-02 6.62825257e-03 -2.93776281e-02 -2.47651916e-02
      -2.42341403e-02 -1.73497237e-02 1.06845750e-02 2.20542457e-02
      5.26059419e-03 -4.48812591e-03 -2.10480709e-02 -2.60575153e-02
      -2.28641089e-02 -2.37044208e-02 -1.75246615e-02 1.23847248e-02
      2.33696047e-02 1.54443076e-02 1.48836256e-03 -1.97999515e-02
      -3.14840836e-05 -1.18556712e-02 -2.43042447e-02 -3.10942288e-02
      6.70790160e-03 9.60499421e-03 1.17052924e-02 7.01085024e-04
      -2.63950787e-03 -2.66802614e-03 -1.35884304e-02 -2.00870540e-02
      -1.11553129e-02 9.96934902e-03 1.66637748e-02 1.61412526e-02
      1.82202156e-03 -6.02571154e-03 -3.79846245e-02 -3.56790796e-02
      -3.09670456e-02 -2.03919504e-02 2.28368994e-02 1.64364651e-02
      1.51520595e-02 -1.39524881e-03 -2.74692159e-02 -4.06023338e-02
      -4.25720513e-02 -2.62685772e-02 -8.71428987e-04 2.84425505e-02
      3.11614238e-02 2.17532888e-02 6.52638171e-03 -2.74221767e-02</_></support_vectors>
  <decision_functions>
    <_>
      <sv_count>1</sv_count>
      <rho>-1.4430316020529221e+00</rho>
      <alpha>
        1.</alpha>
      <index>
        0</index></_></decision_functions></my_svm>
</opencv_storage>
