<?xml version="1.0"?>
<opencv_storage>
<my_svm type_id="opencv-ml-svm">
  <svm_type>C_SVC</svm_type>
  <kernel><type>LINEAR</type></kernel>
  <C>1.0000000000000000e-02</C>
  <term_criteria><epsilon>1.1920928955078125e-07</epsilon>
    <iterations>1000</iterations></term_criteria>
  <var_all>8100</var_all>
  <var_count>8100</var_count>
  <class_count>2</class_count>
  <class_labels type_id="opencv-matrix">
    <rows>1</rows>
    <cols>2</cols>
    <dt>i</dt>
    <data>
      -1 1</data></class_labels>
  <sv_total>1</sv_total>
  <support_vectors>
    <_>
      -8.68671268e-05 9.25168861e-03 5.39589347e-03 -7.69935595e-03
      1.02869123e-02 -8.69429205e-03 -7.44938618e-03 -8.56234599e-03
      -1.49789518e-02 -1.39476191e-02 1.11709756e-03 6.23530196e-03
      4.13825363e-03 1.90780696e-03 -1.28058605e-02 -1.48362210e-02
      -3.88635322e-03 -1.47177819e-02 6.52454374e-03 -1.59611751e-03
      -1.38484524e-04 -7.40121258e-03 3.79399350e-03 -2.26790048e-02
      -9.33094509e-03 -1.50148869e-02 -1.10505642e-02 -1.89860538e-02
      -5.08079445e-03 1.12604415e-02 -1.31485024e-02 -1.31809805e-02
      -1.24111027e-02 -9.67048574e-03 -3.04606799e-02 -3.11157051e-02
      1.66540942e-03 1.24031082e-02 1.53062902e-02 4.86453995e-03
      -7.81437103e-03 -1.67391896e-02 -1.25172893e-02 6.67059701e-03
      -4.96836472e-03 7.72125693e-03 1.11707533e-02 1.75725892e-02
      1.29588889e-02 -1.57807302e-02 -9.61282384e-03 1.12108246e-03
      1.63385794e-02 -8.18791054e-03 1.38455741e-02 3.47830425e-03
      1.20819528e-02 -1.67681091e-02 -2.43588742e-02 -2.01021340e-02
      -1.19261732e-02 -1.70975942e-02 -7.49107741e-04 1.08349612e-02
      -7.82965217e-03 -8.56437348e-03 -2.49357708e-02 -3.20160873e-02
      -2.85465810e-02 -1.45917181e-02 7.55662913e-04 -1.86979063e-02
      9.05735418e-03 1.25314044e-02 2.20218673e-02 2.09125988e-02
      -3.74460639e-03 7.10057467e-03 1.14071583e-02 1.33450003e-02
      -4.54122806e-03 -1.16714174e-02 3.75806191e-03 1.86901423e-04
      1.57364982e-03 -1.08619907e-03 -6.00029074e-04 1.64096821e-02
      6.50253519e-03 -1.22524090e-02 8.90641008e-03 -8.79281014e-03
      -1.82034895e-02 -1.25679607e-02 -2.13277843e-02 -2.03910507e-02
      -5.50385378e-03 6.64037094e-03 -8.85064527e-03 -2.65675155e-03
      -2.06190068e-02 -2.25849599e-02 -1.76364332e-02 -2.01671664e-02
      -1.69200692e-02 -3.11954389e-03 -1.10865086e-02 -2.60667447e-02
      -1.26107438e-02 4.24465863e-03 7.24320242e-04 -6.86037028e-03
      1.67759508e-02 -7.78062036e-03 4.24031354e-03 -5.34777646e-04
      -8.75541009e-03 -2.68419571e-02 -1.54111963e-02 -7.22657377e-03
      -1.71350669e-02 2.41510966e-03 -1.16418768e-02 -1.74073875e-02
      -1.69404522e-02 -3.39167677e-02 9.29837953e-03 1.40097065e-04
      -1.32127451e-02 -1.54000297e-02 1.52421100e-02 -1.01869814e-02
      -2.91616796e-03 -1.23628657e-02 -1.93758197e-02 4.72725416e-03
      -1.25682503e-02 -3.66232172e-02 -2.17742193e-02 -7.34064542e-03
      -9.14672017e-03 -2.05024350e-02 -1.15701333e-02 -7.17225298e-03
      -2.10236218e-02 -8.91439617e-03 9.11057927e-03 1.25055211e-02
      3.57979983e-02 6.32894412e-03 1.28419802e-03 -1.99868605e-02
      -3.43268216e-02 -4.51945327e-02 -4.21826541e-02 -3.20032798e-02
      1.98099064e-03 3.09121720e-02 8.34099762e-03 1.77953439e-03
      -3.00070755e-02 -4.90494631e-02 -2.86589307e-03 -3.17866565e-03
      -1.87315363e-02 1.85232330e-03 1.67893860e-02 1.53869959e-02
      4.45692614e-03 5.01922891e-03 1.99342147e-03 -1.51059320e-02
      -3.57886776e-02 -4.69247662e-02 -2.28842217e-02 5.66582708e-03
      -2.73350463e-03 -1.17149660e-02 -1.51681732e-02 -2.01385301e-02
      -2.46930327e-02 -3.53714116e-02 -2.94668972e-02 1.43125923e-02
      5.05550280e-02 3.31905559e-02 -3.46073206e-03 -2.53752377e-02
      -3.67792770e-02 -5.15747219e-02 -6.72057196e-02 -4.28432748e-02
      1.27853462e-02 4.75265384e-02 2.44696140e-02 -1.72938332e-02
      -2.62267441e-02 -4.22295071e-02 8.01364798e-03 -1.44042913e-02
      -3.76544222e-02 1.21034053e-03 2.55893525e-02 2.83729546e-02
      -2.67758151e-03 -3.43477214e-03 8.30691028e-03 2.75668828e-03
      -2.91574039e-02 -3.89025249e-02 -3.78963072e-04 2.52238680e-02
      1.86952483e-02 -1.74465158e-03 -1.87191041e-03 5.60934329e-03
      -5.87375425e-02 -5.09220436e-02 -2.66363677e-02 3.00271548e-02
      6.04127757e-02 2.84717381e-02 -1.11779785e-02 -1.76159907e-02
      -5.31058870e-02 -7.62549192e-02 -6.28154054e-02 -4.39206436e-02
      2.67541762e-02 7.25231320e-02 3.10201328e-02 -9.17626952e-04
      -1.28681362e-02 -6.59268871e-02 1.20518459e-02 -1.70430392e-02
      -1.68487336e-02 1.83196235e-02 3.10653318e-02 1.80000160e-02
      -1.05266776e-02 -3.64907249e-03 1.63007935e-03 -1.18587585e-02
      -9.40561108e-03 -8.50574486e-03 2.07775924e-02 4.79065441e-02
      2.31700763e-02 -1.40388068e-02 -1.80429220e-02 -1.96709447e-02
      -1.02317296e-01 -7.22580552e-02 -3.24039720e-02 4.36224043e-02
      8.25243145e-02 2.63540428e-02 4.82186256e-03 -1.26790255e-02
      -7.37705454e-02 -9.09405276e-02 -6.50427416e-02 -2.99860649e-02
      3.96731198e-02 6.24075234e-02 2.26449072e-02 -1.90213956e-02
      -2.06688177e-02 -5.95765673e-02 -1.42167239e-02 -1.69843845e-02
      -8.74056295e-03 4.34546806e-02 4.90342267e-02 2.90643573e-02
      -6.91319350e-03 -8.57954752e-03 -9.70306527e-03 -2.22003870e-02
      1.59722124e-03 1.32494383e-02 4.09361012e-02 3.63928638e-02
      2.19487064e-02 -1.88706035e-03 -3.05312406e-03 -1.19044119e-02
      -8.34727660e-02 -4.37781401e-02 -1.97055601e-02 1.15758842e-02
      4.07876484e-02 -5.69715537e-03 -4.41425182e-02 -4.13382165e-02
      -6.92829564e-02 -6.05199672e-02 -2.72391289e-02 2.06035543e-02
      2.51479410e-02 3.24791670e-02 -1.12270499e-02 -4.41036001e-02
      -4.03815061e-02 -5.50528504e-02 -2.86079608e-02 -5.40912338e-03
      6.22752914e-03 1.26426667e-02 1.71617381e-02 8.78455676e-03
      -2.19955668e-02 -1.30868796e-02 -1.29532749e-02 -1.47850486e-02
      3.61622428e-03 2.65838113e-02 1.41684441e-02 1.73559319e-02
      -6.21664757e-03 -2.09491756e-02 -2.40580849e-02 -9.57544986e-03
      -7.49533027e-02 -2.56734863e-02 1.51281971e-02 2.08838973e-02
      1.60011798e-02 -2.07625423e-02 -3.89670879e-02 -4.34454307e-02
      -7.21782669e-02 -4.11447212e-02 -6.67854678e-04 3.44522037e-02
      3.02651431e-02 3.11512984e-02 -1.20826885e-02 -3.21361050e-02
      -1.83329154e-02 -4.64343205e-02 -1.84767228e-02 -2.05516606e-03
      2.63949670e-02 1.79448016e-02 1.42783476e-02 -2.21934970e-02
      -2.26791352e-02 -9.96844005e-03 -1.46410326e-02 9.46685032e-04
      4.97855246e-04 2.79413722e-02 2.21174564e-02 6.53739274e-03
      -3.19086239e-02 -1.84921548e-02 1.56719200e-02 2.84715346e-03
      -4.34990972e-02 1.56923793e-02 3.34814936e-02 3.37989368e-02
      2.15181690e-02 -1.20676076e-02 -6.96729720e-02 -3.96419242e-02
      -5.88248670e-02 -3.00926846e-02 2.77335513e-02 3.03668249e-02
      4.45505120e-02 4.87558804e-02 3.60174710e-03 -5.92899807e-02
      -4.18264344e-02 -4.40105535e-02 -6.43787859e-03 8.79531913e-03
      1.96200330e-02 2.29450613e-02 -1.39191868e-02 -3.49418782e-02
      -5.08924797e-02 -4.74176195e-04 -6.05073897e-03 4.89868876e-03
      2.56439745e-02 3.59302685e-02 5.17270789e-02 3.03449705e-02
      -4.88226023e-03 -4.77509759e-02 -3.18382750e-03 3.51183955e-03
      -3.53364497e-02 6.07135659e-03 1.11062536e-02 3.93573269e-02
      5.64746372e-02 2.57154610e-02 -5.76639771e-02 -5.75832278e-02
      -5.30779511e-02 -2.84140594e-02 3.41355219e-03 1.94872022e-02
      4.45680954e-02 6.35145158e-02 1.37480721e-02 -6.10291399e-02
      -6.52059838e-02 -3.84481326e-02 -1.33437486e-02 1.46952430e-02
      3.40245962e-02 4.91973832e-02 3.55669819e-02 3.50928446e-03
      -4.26541269e-02 -2.34041885e-02 -1.85322631e-02 -1.36341760e-02
      1.43301934e-02 3.31201516e-02 4.31433134e-02 3.47606391e-02
      -4.91751172e-03 -3.80619541e-02 -1.97320897e-02 -1.72176138e-02
      -1.31741911e-02 -5.77894505e-03 -2.35303096e-03 2.49445476e-02
      2.92416494e-02 -6.16951613e-03 -7.17552155e-02 -6.65170029e-02
      -3.16684991e-02 2.27447227e-03 -4.01304662e-03 -2.22175638e-03
      2.54706554e-02 4.12025116e-02 9.30550415e-03 -1.27293505e-02
      -1.74937267e-02 8.51709209e-03 -2.78777853e-02 4.87969117e-03
      4.88800416e-03 2.50046793e-02 1.44287013e-02 -2.82085184e-02
      -6.03203438e-02 -3.29641663e-02 -2.96570696e-02 7.91008025e-03
      2.11351383e-02 1.60862822e-02 2.40288414e-02 1.35587500e-02
      -2.13106442e-02 -2.99597420e-02 -1.57751068e-02 -2.81714112e-03
      -1.93771757e-02 -2.91415900e-02 -3.41634713e-02 -1.77819803e-02
      1.83062814e-02 8.49733781e-03 -2.65940148e-02 -3.08926906e-02
      -6.61591906e-03 8.45567696e-03 -1.58258844e-02 -3.11487801e-02
      -1.67985316e-02 3.36701423e-02 2.76772231e-02 -6.89372246e-04
      -1.43715078e-02 1.45604573e-02 -2.02007759e-02 -8.97796359e-03
      -9.55687091e-03 -2.33015008e-02 1.17770359e-02 -1.40972072e-02
      -5.06152324e-02 -5.19261993e-02 -2.55328342e-02 2.26575736e-04
      3.03445896e-03 -1.07774241e-02 -5.31304022e-03 2.15056427e-02
      7.91604724e-03 -2.05961894e-02 -4.37926501e-02 -1.83093026e-02
      1.29192462e-02 -2.51551438e-02 -4.44733948e-02 -2.99488753e-02
      1.02740573e-02 9.17828921e-03 1.62538327e-03 -2.96857841e-02
      1.84349176e-02 1.99326649e-02 -2.17815731e-02 -3.36549543e-02
      -1.59078203e-02 4.65002004e-03 -2.36862209e-02 -1.87264159e-02
      -1.65661871e-02 2.31608395e-02 2.04849360e-03 -1.69504061e-02
      -4.07321006e-02 -1.71149261e-02 9.39937122e-03 -1.46704800e-02
      -1.09678898e-02 -4.11876813e-02 -1.23577248e-02 1.77291539e-02
      -1.90641489e-02 -3.54119539e-02 -9.78815602e-04 1.04943179e-02
      -3.95865142e-02 -2.64710002e-02 -2.41601039e-02 8.45707487e-03
      1.16227604e-02 1.32670617e-02 2.53269263e-03 2.19225907e-03
      2.64879223e-02 -2.45734327e-03 -4.26007155e-03 -5.03436523e-03
      -4.96485410e-03 -4.44123754e-03 -8.39251839e-03 -4.21888661e-03
      -1.48491096e-02 1.41863269e-03 -9.28170606e-03 -4.54482716e-03
      -1.46168610e-02 -1.05408775e-02 -6.56520296e-03 -4.81384806e-03
      -1.67463217e-02 -1.07128108e-02 2.60691121e-02 8.33972637e-03
      4.64751897e-03 1.47301599e-03 -1.47816520e-02 -1.88075621e-02
      -2.83801295e-02 -3.54242623e-02 -2.93691270e-02 7.62447808e-03
      -1.19473217e-02 3.33861890e-03 1.13814501e-02 -1.36171235e-02
      1.84552055e-02 -2.29398976e-03 -2.07199738e-03 -2.76489500e-02
      -2.01062541e-02 -2.74341367e-03 7.22235814e-03 2.57603941e-03
      1.53056569e-02 4.31587268e-03 -1.61823276e-02 -1.68828107e-02
      -1.28754154e-02 -1.27927652e-02 -3.52903712e-03 4.84389393e-03
      -1.16829477e-04 -6.40901970e-03 9.48806293e-03 -1.11570209e-02
      -1.59990340e-02 -1.68147497e-02 -3.19594122e-03 -7.08753290e-03
      -9.23978921e-04 1.53948078e-02 6.74294168e-03 -2.06293873e-02
      -2.28984840e-02 -1.54476492e-02 -5.55058848e-03 -6.34304108e-03
      -4.09829756e-03 5.49035799e-03 -1.94739550e-03 -1.66941695e-02
      2.94756447e-03 -1.17256483e-02 -1.61249645e-03 8.89173069e-04
      5.01215318e-03 -8.08702316e-03 4.92540188e-03 1.11271506e-02
      2.12722225e-03 -4.10411367e-03 -1.08192880e-02 -1.34425820e-03
      1.55694305e-03 -6.91860158e-04 -1.05098002e-02 2.10394338e-03
      -4.15788410e-04 -1.49778426e-02 -2.70090476e-02 -1.67164262e-02
      -7.46789912e-04 1.71120819e-02 1.66691337e-02 1.42710470e-03
      2.22429410e-02 8.44466966e-03 -2.00109519e-02 -2.74908878e-02
      -9.13319085e-03 1.99164660e-03 -4.87360638e-03 -8.52305349e-03
      -1.15710283e-02 1.73058230e-02 7.18856556e-03 -3.38234082e-02
      3.20948358e-03 -1.61732477e-03 3.96690657e-03 5.85427647e-03
      1.91221628e-02 1.82784352e-04 -8.98526516e-03 -8.37582629e-03
      -1.42146060e-02 6.53556315e-03 5.69840055e-03 -1.20242937e-02
      -1.51258009e-03 6.69096829e-03 2.99929292e-03 -5.72534278e-03
      6.45305589e-03 -3.95824522e-04 -1.49095133e-02 1.03996822e-03
      8.35887715e-03 3.98239074e-03 -8.16546567e-03 -5.88173163e-04
      4.93803527e-03 2.13385839e-03 -1.85871199e-02 -8.99370760e-03
      2.02348898e-03 -1.32137034e-02 -1.18523706e-02 -1.07359905e-02
      -4.41560196e-03 4.33597201e-03 2.45466176e-03 -4.10756515e-03
      1.59931649e-02 4.42032795e-03 -2.36805808e-02 -6.26535201e-03
      2.97815427e-02 1.23262648e-02 -1.02240802e-03 7.27613131e-03
      1.63032655e-02 3.14555666e-03 -1.22078881e-02 -4.75024544e-02
      -3.04258689e-02 -4.24594106e-03 -8.07363261e-03 -4.23893658e-03
      -3.44466302e-03 -1.18702441e-03 8.90081283e-03 8.84341076e-03
      -2.99833231e-02 -1.93427633e-02 1.67857762e-02 2.98512424e-03
      1.30069852e-02 5.66045102e-03 1.19148148e-02 1.02440547e-02
      -1.66360429e-03 -2.53045708e-02 -2.79978346e-02 -5.89600857e-03
      -1.80207472e-02 2.05204543e-03 6.08120952e-03 2.51312763e-03
      9.76998638e-03 -2.23806035e-02 -4.80148457e-02 -2.28427816e-02
      -4.49132698e-04 -8.68185703e-03 -1.52121382e-02 -2.65829777e-03
      1.27126742e-02 2.93146446e-02 -1.13824503e-02 -4.29935791e-02
      -8.71248450e-03 1.61556564e-02 1.44907075e-03 -3.72866844e-03
      1.13789709e-02 2.75338460e-02 3.07809524e-02 1.19882850e-02
      -5.13728289e-03 -1.75105035e-02 -2.33136630e-03 -2.67134304e-03
      -2.23516781e-05 7.61527149e-03 1.80698410e-02 3.46542299e-02
      1.67060103e-02 -8.66973680e-03 -2.53468123e-03 1.51958009e-02
      1.52913993e-02 1.28152166e-02 2.44044550e-02 2.60024704e-02
      1.95679180e-02 -4.03593108e-03 -2.79461257e-02 -8.11375957e-03
      7.42231729e-03 -1.07913651e-02 -2.40331143e-02 -1.61716547e-02
      5.22973761e-03 7.80700101e-03 -2.73689488e-03 -9.60912090e-03
      -2.17106077e-03 1.41869662e-02 -2.89844237e-02 -5.46461008e-02
      -4.47973683e-02 -1.32701360e-02 2.43606623e-02 1.65784918e-02
      -8.73240817e-04 1.39590651e-02 9.66190081e-03 2.02214196e-02
      1.37853681e-03 1.02678854e-02 1.58934724e-02 2.28992384e-02
      2.08609235e-02 -3.01203853e-03 2.09316667e-02 1.67429708e-02
      -1.14317061e-02 -2.90977266e-02 -1.88912433e-02 6.66258158e-04
      2.55214516e-03 1.58668845e-04 1.13788212e-03 1.44882780e-02
      1.05477143e-02 -1.19578009e-02 -4.03524451e-02 -3.43191326e-02
      -1.19824437e-02 -8.50395672e-03 5.19303139e-03 4.58365213e-03
      1.86861567e-02 2.89766886e-03 -3.82683589e-03 -2.14140806e-02
      -1.13376603e-02 -7.53486902e-03 4.02090140e-02 1.51957395e-02
      -3.68055026e-03 2.60598753e-02 1.70020256e-02 -1.44337378e-02
      -2.15050802e-02 -7.34634977e-03 1.29118683e-02 1.96743011e-02
      1.16576282e-02 -4.20758454e-03 2.36829296e-02 1.37896212e-02
      1.19633402e-03 -1.47782518e-02 7.44572468e-03 2.21887920e-02
      -7.26938760e-03 -9.27454885e-03 -6.36772299e-03 1.66555727e-03
      -1.94306718e-03 -1.38224680e-02 -3.55868638e-02 -1.56579018e-02
      -5.91230579e-03 -1.30824232e-02 -1.02675622e-02 4.73197829e-03
      2.29706708e-03 -1.65331317e-03 -1.49775092e-02 -2.48457268e-02
      -2.16810051e-02 3.36437905e-03 2.10545249e-02 -2.70378054e-03
      -1.35051440e-02 1.45068234e-02 5.87638142e-03 -9.28983279e-03
      -1.21013373e-02 1.08579295e-02 1.94321405e-02 1.74275450e-02
      1.90597773e-02 1.69784464e-02 1.92103498e-02 1.74331218e-02
      -4.22572810e-03 -9.72130895e-03 -3.40258749e-03 1.29015986e-02
      -1.36345671e-02 1.73904002e-03 2.06632409e-02 8.40175338e-03
      1.53745210e-03 -1.52971195e-02 -2.02766042e-02 -4.41828789e-03
      9.14503075e-03 -1.05981883e-02 -4.97420272e-03 6.60376111e-03
      1.92204900e-02 -8.58969148e-03 -2.27029379e-02 -2.37502549e-02
      7.74348900e-03 9.32650920e-03 1.11164274e-02 2.19094250e-02
      1.53900338e-02 5.84454183e-03 4.41315211e-03 2.94661359e-03
      -1.70417242e-02 2.39288853e-03 1.10426210e-02 1.05480133e-02
      1.22402161e-02 2.18053851e-02 1.21910470e-02 8.07719305e-04
      -3.29156523e-03 -3.14557329e-02 1.27782188e-02 1.93468742e-02
      -1.78641863e-02 -1.02737490e-02 -4.43347637e-03 2.39066570e-03
      -1.85884479e-02 -2.71238312e-02 -3.42853107e-02 -3.01541761e-03
      -1.37209031e-03 -5.16286260e-03 5.68089169e-03 1.46622788e-02
      3.03817932e-02 1.80909839e-02 7.87183549e-03 -1.34754023e-02
      6.82639843e-03 7.17334123e-03 4.42400388e-03 -1.17306958e-03
      1.63176991e-02 1.14052072e-02 -6.81285560e-03 -1.80151239e-02
      -3.18705514e-02 3.76566802e-03 1.69575382e-02 6.81896368e-03
      1.46807991e-02 2.00652890e-02 3.45944241e-02 1.97120886e-02
      -9.76957567e-03 -7.78664369e-03 1.42831383e-02 1.06899813e-02
      -2.98660286e-02 -3.27562797e-03 1.66668762e-02 3.35971341e-02
      1.98675115e-02 -2.67500943e-03 -2.73666978e-02 -1.60914622e-02
      -2.04166286e-02 -1.15928957e-02 4.82204789e-03 1.09274201e-02
      2.40479372e-02 2.56463401e-02 -7.34845456e-03 -1.98082775e-02
      -1.28118210e-02 -1.04392432e-02 -9.96452570e-03 6.56020129e-03
      1.50177469e-02 2.72744317e-02 3.18672135e-03 -2.62055732e-02
      -2.23148502e-02 -6.64934143e-03 -5.48227923e-03 -3.08541785e-04
      3.76179256e-03 1.40367765e-02 2.60674544e-02 1.84501056e-02
      -1.15876170e-02 -1.55825624e-02 -4.00300790e-03 5.74332848e-03
      -2.27477048e-02 6.39101351e-03 9.26965196e-03 1.12770526e-02
      -3.06877802e-04 -2.56152060e-02 -3.49862911e-02 -1.43727995e-02
      -1.38714770e-02 -3.95365385e-03 2.30934191e-02 2.23557465e-02
      1.80623885e-02 -4.94842464e-03 -1.81102138e-02 -2.07914859e-02
      -1.97442919e-02 -3.72805703e-03 -3.07367370e-03 1.09421797e-02
      1.69094969e-02 1.65729560e-02 8.55114497e-03 -9.04636271e-03
      -1.41261183e-02 -6.76267501e-03 -8.75616446e-03 -6.91184821e-03
      1.71172097e-02 3.03635839e-02 1.87341906e-02 -1.04219858e-02
      -1.17168520e-02 -1.79595146e-02 -1.00843199e-02 -4.40446148e-03
      -1.74522419e-02 -5.98153705e-03 6.69513305e-04 -1.41169410e-02
      1.36912509e-03 -1.06632831e-02 -4.04066406e-02 -5.04005998e-02
      -2.27843709e-02 5.38035994e-03 3.33126844e-03 5.85283292e-03
      9.00546554e-03 2.56889295e-02 9.10623278e-03 -2.96386108e-02
      -3.70413288e-02 -7.61395972e-03 -1.85981654e-02 -6.97079580e-03
      1.27330865e-03 -5.75391995e-03 -1.59228146e-02 -6.73002610e-03
      -2.42272615e-02 -3.30236852e-02 -1.91963445e-02 1.67029854e-02
      1.23781885e-03 1.50799770e-02 2.23794896e-02 9.75300837e-03
      8.48358311e-03 -1.06160222e-02 -1.19883567e-02 1.43782916e-02
      2.07035057e-03 -7.09524285e-03 -1.54351592e-02 6.51064329e-03
      1.67339668e-02 -2.03314889e-02 -3.60179134e-02 -5.07912673e-02
      -6.66008983e-03 7.17352889e-03 -1.78402979e-02 -2.45660562e-02
      1.30257159e-02 1.32961869e-02 -2.35903207e-02 -2.41146274e-02
      -3.12714092e-02 5.86220389e-03 9.58923344e-03 -1.08649638e-02
      1.86644692e-03 1.69660170e-02 2.00653709e-02 -2.29218788e-02
      -3.28467675e-02 -3.16129141e-02 1.59933735e-02 9.76445526e-03
      -1.55285234e-02 -1.00989006e-02 1.59689430e-02 -2.56482163e-03
      -3.30872759e-02 -2.09711082e-02 -1.88154113e-02 2.04537269e-02
      2.32804962e-03 3.32655362e-03 -1.02519793e-04 2.52112350e-03
      1.52445948e-02 2.16580695e-04 5.34546748e-03 -2.38895719e-03
      -3.35622020e-03 -4.24942421e-03 -1.59216113e-02 -1.76325291e-02
      -9.04635992e-03 8.86432733e-03 -6.93491660e-03 6.11175457e-03
      4.13238164e-03 7.09007680e-03 2.45695766e-02 3.80423409e-03
      -2.19371114e-02 -2.12289598e-02 -8.73700716e-03 -1.83054488e-02
      5.33533376e-03 1.93086471e-02 2.24328749e-02 -1.06366668e-02
      -6.36609783e-03 -3.42568234e-02 -2.90276948e-02 -5.15675824e-03
      -1.38843898e-02 -3.58098070e-03 2.10281974e-03 -1.13470305e-03
      -5.07461431e-04 -1.53122935e-02 -1.26804039e-02 -8.18094239e-03
      -9.95560782e-04 6.93258503e-03 4.00446937e-04 3.61359189e-03
      2.81236647e-03 -2.06694212e-02 -2.64288504e-02 -3.97885963e-03
      7.19781173e-03 1.23907560e-02 4.01563570e-03 1.39378635e-02
      1.96254486e-03 -1.99564360e-02 3.86990653e-03 2.90569966e-03
      -1.23180980e-02 -4.49542608e-03 -1.52940128e-03 4.48821811e-03
      8.88044480e-03 9.15650185e-03 1.22681707e-02 -8.30268487e-03
      -3.48871807e-03 6.65015075e-03 1.43209817e-02 5.40574966e-03
      1.19099254e-02 1.72483772e-02 1.95242427e-02 -6.55084499e-04
      -2.92263236e-02 -1.66857652e-02 -6.39754906e-03 1.79395508e-02
      1.55883618e-02 2.68942723e-03 2.53593419e-02 1.31987007e-02
      -2.50123683e-02 -3.52498479e-02 -1.76196750e-02 -5.81019418e-03
      -5.04591176e-03 -9.25956387e-03 -6.34150300e-03 1.35542015e-02
      4.94403858e-03 -2.90942919e-02 -8.69204663e-03 -1.20700076e-02
      1.05229253e-02 3.05156633e-02 9.78396367e-03 1.18685365e-02
      1.89439189e-02 1.69302542e-02 -6.85333181e-03 -3.69336605e-02
      -2.52682790e-02 -1.75375603e-02 -1.61116030e-02 -1.67554468e-02
      1.42795464e-03 1.51398880e-02 1.09300409e-02 -2.50848532e-02
      -1.64114051e-02 1.41551660e-03 9.26231220e-03 4.42365231e-03
      -5.22465724e-03 1.03828032e-02 1.37468958e-02 1.32072251e-02
      -4.50033974e-03 -9.47171915e-03 1.45727452e-02 -1.87804289e-02
      -1.03112590e-02 -9.80684161e-03 -1.71872810e-03 -5.22899628e-03
      7.10912375e-03 3.58750834e-03 -2.41397507e-02 -2.20358535e-03
      -5.91873610e-03 -4.61246166e-03 -3.69894947e-03 1.39209325e-03
      2.59574763e-02 2.77878456e-02 -1.20637631e-02 -2.23231707e-02
      -9.57449060e-03 -3.02153286e-02 -2.90301046e-03 -1.28328968e-02
      -1.00118518e-02 -7.30698509e-03 1.44040091e-02 -8.76378641e-03
      1.25679439e-02 7.67628057e-03 -3.27379368e-02 -2.10183747e-02
      8.04016553e-03 -1.39750997e-02 -9.47630592e-03 6.68452960e-03
      1.43150249e-02 2.25324873e-02 6.91556837e-03 -2.26511601e-02
      -1.62969697e-02 3.21295019e-03 -1.72547977e-02 1.06939096e-02
      1.72481481e-02 3.42786615e-03 -3.24305310e-03 -5.48689952e-03
      -4.04874459e-02 -1.16067519e-02 -8.11052136e-03 -1.38770910e-02
      -1.10478103e-02 1.81974024e-02 8.91094655e-03 1.14887245e-02
      3.48693517e-04 -2.87680328e-02 -7.68143497e-03 7.33026318e-05
      -1.17569659e-02 1.71370301e-02 3.03066634e-02 -1.55934738e-03
      1.36028156e-02 2.40064482e-03 -9.34615545e-03 -8.49011727e-03
      -7.04696495e-03 -2.43790615e-02 -1.60792638e-02 -6.52843527e-03
      5.54011622e-03 1.37110408e-02 1.53905721e-02 -7.62390578e-03
      6.89715706e-03 9.74801648e-03 -1.90684909e-03 -9.42844804e-03
      1.32858176e-02 1.72350835e-02 -3.51177063e-04 -2.75272131e-03
      -1.07634803e-02 -1.32132163e-02 -6.34389697e-03 -1.80878248e-02
      -2.07543513e-03 4.27459041e-03 -5.67853171e-03 -5.83157176e-03
      1.53189646e-02 1.22440299e-02 1.64201967e-02 -8.86728335e-03
      -7.12199137e-04 -1.24690831e-02 5.60960360e-03 5.01363399e-03
      5.37231425e-03 4.38795937e-03 4.87012928e-03 5.25725540e-03
      6.46843249e-03 1.01411843e-03 -1.22490581e-02 -1.63344797e-02
      -4.27738205e-03 -2.17557605e-03 -1.06566399e-02 -1.79989468e-02
      -8.72419961e-03 1.65208604e-03 -1.66931823e-02 -2.56973188e-02
      -2.04828288e-02 -6.20632432e-03 -1.04238056e-02 -2.99276388e-03
      1.68378931e-03 6.66571956e-04 3.10190779e-04 1.67075370e-03
      -9.67092346e-03 -5.24378568e-03 -1.20833274e-02 2.26802286e-03
      -1.00712888e-02 -1.48207266e-02 -1.87005531e-02 -7.55850179e-03
      -5.45557030e-03 -6.68710843e-03 1.04337046e-02 1.03982622e-02
      7.64861610e-03 3.71821900e-03 -1.10175712e-02 1.29352687e-02
      2.07915157e-02 -1.49118323e-02 -2.94928458e-02 -1.19643863e-02
      8.06220341e-04 1.61262620e-02 1.48984964e-03 -7.21151708e-03
      8.48947838e-03 1.74871515e-02 -1.36798881e-02 -2.86611840e-02
      -3.00042285e-03 1.84849259e-02 1.76832508e-02 4.74886643e-03
      -1.02988789e-02 -4.39104671e-03 7.96762202e-03 1.12470062e-02
      -3.18019767e-03 1.24976095e-02 1.66074447e-02 1.03647532e-02
      9.85186733e-03 7.14771543e-03 9.62488353e-03 8.25437484e-04
      -7.40548689e-03 -1.70390718e-02 -5.56399405e-04 2.00687186e-03
      1.68732386e-02 9.20708757e-03 -6.83687674e-03 8.63931142e-03
      9.66125459e-04 -2.17061955e-02 -2.42752805e-02 3.36344674e-04
      1.21660372e-02 2.94697117e-02 2.59581115e-02 7.74730649e-03
      5.10408636e-03 7.12313317e-03 -2.29035616e-02 -1.49992509e-02
      -4.95981611e-03 2.26807222e-02 1.04902983e-02 2.10412964e-02
      9.63587034e-03 1.02238366e-02 -3.23047629e-03 -1.85117666e-02
      -1.57453511e-02 9.83521063e-03 4.01449157e-03 2.17125453e-02
      3.30185145e-02 2.12801378e-02 -4.15780907e-03 6.73133088e-03
      -2.25312319e-02 -3.22276819e-03 2.02000439e-02 2.43059322e-02
      3.08438148e-02 2.61168573e-02 1.83166433e-02 1.02670141e-03
      -5.81269292e-03 -7.66115822e-03 -2.81988923e-02 -2.15903972e-03
      3.30825858e-02 3.35671417e-02 1.91779770e-02 2.57736612e-02
      -3.48304259e-03 -5.73157519e-03 -8.19401816e-03 -2.96318121e-02
      2.81045097e-03 3.05739194e-02 3.09317876e-02 2.34344769e-02
      1.22412806e-02 -1.65220574e-02 -2.98031755e-02 -2.45565102e-02
      -1.95181929e-02 6.58965344e-03 2.86993925e-02 2.33671293e-02
      2.75297686e-02 2.36624423e-02 -1.76293347e-02 -1.62538625e-02
      -1.67802908e-02 -2.68633068e-02 2.46808422e-03 1.32887242e-02
      2.12050136e-02 1.43518969e-02 2.11362895e-02 6.47794222e-03
      -2.00557970e-02 -3.25764790e-02 -4.21712808e-02 -3.60029540e-03
      1.93920489e-02 2.47007236e-02 1.93139631e-02 2.86803301e-02
      3.73689607e-02 3.51502630e-03 -2.40771268e-02 -1.82307828e-02
      -4.37254668e-04 1.10563003e-02 7.90329929e-03 1.87478811e-02
      1.61159206e-02 -1.65560690e-03 -1.41470749e-02 -2.81064045e-02
      -4.04037200e-02 -8.05704482e-03 4.45523474e-04 1.49753913e-02
      1.35368872e-02 3.00136358e-02 3.72298807e-02 -1.37062091e-02
      -2.94956770e-02 -2.76945625e-02 4.15235700e-04 5.50346402e-03
      8.64371192e-03 8.73612333e-03 1.10368589e-02 1.79227442e-02
      -1.18829468e-02 -3.50960940e-02 -2.90744212e-02 -3.25285015e-03
      5.25278691e-03 7.19573523e-04 1.54168200e-04 5.69520658e-03
      8.06423370e-03 1.18343411e-02 -8.42282176e-03 -1.07918009e-02
      -3.46406922e-03 5.96863544e-03 3.42408847e-03 -1.36181668e-04
      3.85278184e-03 5.04074106e-03 -1.82735976e-02 -2.25211885e-02
      -2.36642826e-02 6.04473660e-03 5.05150063e-03 6.39964535e-04
      6.00640615e-03 1.78159550e-02 5.78514207e-03 1.50688076e-02
      -6.23634364e-03 3.61833343e-04 1.23335989e-02 3.55934747e-03
      -7.73543306e-03 -1.02349706e-02 3.30702472e-03 -3.76857352e-03
      -1.55781563e-02 -2.10345872e-02 -2.15715915e-02 -1.16916178e-02
      -5.68955764e-03 -4.13737172e-04 1.79946399e-03 1.08545814e-02
      9.79770534e-03 -1.47344721e-02 -2.05644146e-02 -1.36111379e-02
      1.46790477e-03 2.19537807e-03 2.05888617e-04 1.11382501e-02
      2.57696416e-02 5.51306037e-03 -1.11978706e-02 -3.05081569e-02
      -1.84428524e-02 -5.31151891e-03 -8.03796854e-03 2.60233064e-03
      9.61242616e-03 1.22986594e-02 -2.73043313e-03 -2.39402596e-02
      -3.28477286e-02 -1.90269873e-02 1.18476814e-02 1.84842180e-02
      -5.57321915e-03 -6.17508916e-03 -5.76761644e-03 -1.54067401e-03
      -1.80664547e-02 -1.87504329e-02 -2.24623475e-02 -4.54096589e-03
      5.75387152e-04 8.84677563e-03 -1.07816355e-02 -3.12340073e-03
      1.64382476e-02 2.23984309e-02 1.50833623e-02 -1.38953514e-02
      3.69757484e-03 2.66490914e-02 -2.23403573e-02 -2.21340694e-02
      -2.18439549e-02 -1.64407603e-02 -2.97671780e-02 -2.28097644e-02
      -2.24271510e-02 -3.21346382e-03 -8.60740617e-03 2.53863027e-03
      -1.86425820e-02 -4.93382569e-03 5.87853603e-03 9.99764632e-03
      -8.50439444e-03 -5.42166550e-03 5.78336883e-03 2.30457336e-02
      -7.09273620e-03 -3.24813426e-02 -1.02049364e-02 1.28277754e-02
      8.85908119e-03 -2.85303742e-02 -3.90631668e-02 -1.42003680e-02
      1.26112746e-02 9.13842395e-03 -2.06024032e-02 -2.82047759e-03
      1.08391093e-02 -4.49872809e-03 -3.00135128e-02 -1.54772801e-02
      2.09284993e-03 2.17158645e-02 -1.98301044e-03 -2.90978178e-02
      -6.61914051e-03 2.52550840e-03 -1.47952195e-02 -2.38848310e-02
      -1.79742817e-02 -2.79509521e-04 1.01164784e-02 1.49030434e-02
      -2.87166983e-03 5.02236793e-03 -7.70133687e-03 -1.35295475e-02
      -1.09167490e-02 3.26256908e-04 2.12098956e-02 2.34501809e-02
      1.68750770e-02 1.72571815e-03 -1.96639579e-02 -1.06328167e-02
      -2.25370228e-02 -9.61835124e-03 -7.34369457e-03 1.30020995e-02
      1.30105447e-02 1.45360632e-02 1.24943536e-02 -5.18638920e-03
      2.66616163e-03 -1.44502930e-02 -6.71130139e-03 -1.48839708e-02
      1.31977838e-03 -4.31653857e-03 1.51019664e-02 1.78027374e-03
      -1.02012930e-02 -1.03136832e-02 -1.60317384e-02 -1.69198476e-02
      -4.97568771e-03 7.72966025e-03 1.67484360e-03 1.00926114e-02
      1.65252723e-02 3.82702169e-03 -1.20004523e-03 -2.56500430e-02
      -1.63350981e-02 -7.14607118e-03 8.00093357e-03 -2.27382174e-03
      6.30321447e-03 -2.32670875e-03 -6.74931798e-03 1.37222046e-02
      5.69716096e-03 -1.44198188e-03 -2.73561425e-04 1.93156372e-03
      9.02229827e-03 -8.70005321e-03 -3.20131518e-02 -1.19138043e-03
      2.07357928e-02 1.81198511e-02 6.24038978e-03 1.68385189e-02
      1.99445803e-02 8.01932625e-03 -4.97126020e-04 3.57713900e-03
      -5.20542031e-03 1.44718522e-02 2.11308757e-03 2.80616060e-03
      7.43986666e-03 1.37465484e-02 6.62712147e-03 -3.19303647e-02
      -4.07315120e-02 -1.12144453e-02 1.97970122e-02 1.10235130e-02
      7.47593818e-03 1.46451499e-02 1.77847352e-02 -9.49899293e-03
      -2.37191580e-02 -2.03211661e-02 3.84875876e-03 1.99699271e-02
      2.21920274e-02 9.88289528e-03 1.58573836e-02 1.27279451e-02
      -6.77135633e-03 -3.27130295e-02 -1.37000587e-02 3.56619433e-03
      -2.47464073e-03 1.95851806e-03 1.71490964e-02 1.76726729e-02
      1.33324042e-02 -2.04058755e-02 -4.11025509e-02 -2.76015028e-02
      2.16096337e-03 1.84779167e-02 1.34954536e-02 8.93122610e-03
      1.61010250e-02 8.58485140e-03 -2.25996021e-02 -4.27430756e-02
      -1.79286525e-02 -4.95543238e-03 -1.38600301e-02 9.29492468e-04
      9.55902413e-03 9.36312228e-03 -3.41336336e-03 -3.63581032e-02
      -1.92225780e-02 -1.22148055e-03 -1.22512104e-02 -1.21116741e-02
      1.10636260e-02 1.57039072e-02 2.27987003e-02 2.56457105e-02
      -9.34811309e-04 -2.69489754e-02 -1.75981484e-02 -2.85391323e-02
      -3.38362902e-03 -3.48770269e-03 8.22570350e-04 -1.20329775e-03
      1.75968017e-02 -2.00748723e-03 -2.69931052e-02 -9.79766808e-03
      -1.49208140e-02 -1.60515495e-02 4.66181478e-03 2.19704937e-02
      2.00455301e-02 6.82851626e-03 -1.84585098e-02 -3.31087857e-02
      -3.11739426e-02 -2.14454588e-02 -7.97095429e-03 -2.10467298e-02
      -1.14176888e-02 -3.35835991e-03 1.11288705e-03 -2.11330131e-02
      -1.43830413e-02 -2.53350884e-02 -2.92612370e-02 -1.39648141e-02
      -1.33682881e-02 -1.80113707e-02 -1.32221971e-02 2.24423986e-02
      5.13658300e-03 -6.35525095e-04 -1.70545105e-03 -2.10737083e-02
      -1.13505367e-02 -5.34223253e-03 -1.15340333e-02 1.16647212e-02
      2.95550637e-02 6.46859920e-03 -1.87828969e-02 -3.44522037e-02
      -1.97163168e-02 -1.06487819e-03 -2.70722918e-02 -1.84570868e-02
      -1.04007162e-02 4.87435516e-03 -1.03462748e-02 3.59311351e-03
      -6.54929550e-03 -1.87578946e-02 4.86040814e-03 -1.89524814e-02
      -1.37926619e-02 -2.62365822e-04 1.47627443e-02 6.44927891e-03
      -7.98143167e-03 -1.10759949e-02 -2.27919035e-02 -2.23723967e-02
      -5.48730511e-03 -2.27110907e-02 -8.17187410e-03 1.05050867e-02
      4.64902679e-03 -1.57380886e-02 -1.57757364e-02 -1.16976602e-02
      -2.81901355e-03 -1.47278868e-02 -6.11329917e-03 -9.02075507e-03
      7.64448894e-03 2.67023500e-03 3.44160874e-03 -4.46389476e-03
      -2.07022764e-02 -6.22632680e-03 -1.91574320e-02 -2.70292051e-02
      -1.69217680e-02 1.00644473e-02 7.77749578e-03 -8.55136290e-03
      -1.52961211e-02 -5.63008199e-03 -3.64971161e-03 -1.52610894e-02
      -1.93642862e-02 -1.46903628e-02 1.31594241e-02 8.45716242e-03
      -1.45487934e-02 -1.23886084e-02 -1.27376765e-02 -1.10862330e-02
      -5.56767127e-03 -1.13546243e-02 -2.25491039e-02 -2.46164994e-03
      -7.10463477e-03 7.08961673e-03 -7.52870133e-03 -1.27549972e-02
      -8.60591792e-03 -8.89773073e-04 4.97425999e-03 -7.90245552e-03
      2.05580667e-02 2.07325909e-02 -2.63493359e-02 -2.17396431e-02
      -1.20342216e-02 -1.07985530e-02 -3.49597470e-03 -4.95744683e-03
      -9.60875023e-03 -5.47183072e-03 -9.74956434e-03 2.30527367e-03
      -1.53059131e-02 -2.41785273e-02 -1.79823041e-02 3.60247912e-03
      9.86239314e-03 2.05111271e-03 1.63558703e-02 1.91554818e-02
      1.69741064e-02 -9.87806544e-03 -1.12531167e-02 -1.01409061e-02
      -6.39528036e-03 -2.93760095e-03 -1.38752991e-02 8.09363928e-03
      2.09686030e-02 1.03736129e-02 5.98792452e-04 -7.69388105e-04
      1.48068211e-04 -1.70217790e-02 -2.29280125e-02 -2.94681899e-02
      -1.50283128e-02 5.30988583e-03 1.87556054e-02 -1.75373293e-02
      -2.23119240e-02 -1.19108204e-02 1.10387709e-02 3.36817163e-03
      4.21901187e-03 1.66676734e-02 2.43309606e-02 1.08112236e-02
      5.29743906e-04 1.05899274e-02 1.58363301e-02 -4.01857775e-04
      -2.19054185e-02 -1.73994508e-02 -7.40372390e-03 5.74761489e-03
      1.68102421e-03 6.90032402e-03 7.89141376e-03 6.57275133e-03
      1.05923146e-03 -1.95450056e-02 -2.74412464e-02 -4.79939766e-03
      6.73045358e-03 8.09115358e-03 2.73710061e-02 1.65428817e-02
      -9.03952308e-03 4.52002557e-03 -2.60516815e-02 -1.65885780e-02
      -4.81645064e-03 1.57002807e-02 1.27548575e-02 7.45305733e-04
      1.94270406e-02 1.85380355e-02 1.01000760e-02 1.43580721e-04
      -8.32339004e-03 -7.21218763e-03 7.86096696e-03 -2.73975194e-03
      5.65976230e-03 2.97162198e-02 1.18307667e-02 2.48285066e-02
      -8.59647430e-03 -4.59755957e-03 -2.09192676e-03 -3.34850745e-03
      2.21118182e-02 2.08309386e-02 1.85587481e-02 -1.95958535e-03
      -2.35413518e-02 -2.02612169e-02 -2.06918139e-02 5.39505947e-03
      2.70258505e-02 1.62533224e-02 2.67970469e-02 2.86178738e-02
      6.38765283e-04 -1.42309163e-02 -1.82746332e-02 -1.82108004e-02
      2.58362782e-03 1.59128681e-02 1.07990745e-02 1.37541685e-02
      3.27705741e-02 2.27574185e-02 2.06436422e-02 4.52086097e-03
      3.66425375e-03 9.23675764e-03 9.98931099e-03 4.04218491e-03
      2.20304336e-02 3.39827500e-02 1.36842169e-02 1.07481927e-02
      5.76768210e-03 -6.09345967e-03 1.89261802e-03 1.35801677e-02
      3.33066215e-03 2.76139081e-02 2.79722735e-02 4.95172571e-04
      -1.65948737e-02 -3.22177745e-02 -2.31770799e-02 -1.66401500e-03
      -3.56196822e-03 1.72410775e-02 2.69156042e-02 3.54478806e-02
      2.47543361e-02 -1.04708401e-02 -2.66087446e-02 -6.45819958e-03
      1.74822249e-02 8.92201345e-03 -1.11494528e-03 2.03528814e-02
      3.34386937e-02 9.93772410e-03 -2.73925974e-03 -1.67515129e-02
      -1.16692055e-02 4.45513520e-03 1.08238701e-02 1.86146814e-02
      2.94569675e-02 4.51602004e-02 3.09976581e-02 7.81543553e-03
      -2.39079501e-02 -1.37475331e-03 2.61674076e-02 1.87066738e-02
      7.62123661e-03 1.35889901e-02 1.05201909e-02 5.28282486e-03
      -3.43366526e-02 -3.78260724e-02 -1.29186707e-02 1.45406164e-02
      2.44717766e-03 4.77530342e-03 1.88936871e-02 2.70430930e-02
      1.35062151e-02 5.54900104e-03 -1.43118016e-02 -7.24272744e-04
      1.14106173e-02 1.46610790e-03 5.80402743e-03 7.80373253e-03
      2.45024972e-02 1.34641398e-02 -2.22868063e-02 -3.88116054e-02
      -1.93388248e-03 2.31386889e-02 1.81122788e-03 1.73957215e-03
      1.55050140e-02 3.06628868e-02 9.75640118e-03 -4.81292000e-03
      -1.88290421e-02 1.01822950e-02 2.02872492e-02 -3.37309582e-04
      -5.13495598e-03 1.69297159e-02 1.89375579e-02 5.31136757e-03
      -8.97428859e-03 -3.50461714e-02 -9.02462099e-03 3.52265034e-03
      -1.39783788e-02 -4.25803242e-03 8.52252170e-03 1.28797991e-02
      -1.95405819e-03 -1.39337583e-02 -1.60649754e-02 -1.03434594e-03
      1.17469905e-02 2.99701933e-03 5.00154356e-03 3.12235076e-02
      1.85148790e-02 -6.44759275e-03 -1.58067904e-02 -2.02325042e-02
      2.99512967e-03 3.69266025e-03 -2.73217261e-03 1.53278196e-02
      2.40122043e-02 1.44696059e-02 1.19982166e-02 -1.01873353e-02
      -9.64171626e-03 7.53176166e-03 1.11921011e-02 6.83764555e-03
      -2.09200121e-02 -1.80244334e-02 -1.62047017e-02 -1.46709112e-02
      -2.24799160e-02 -7.19832955e-03 -1.32771507e-02 6.14508474e-03
      -1.10817309e-02 1.00736087e-02 -6.72728708e-03 1.74666278e-03
      8.77168868e-03 1.53789418e-02 5.55876317e-03 -2.25064461e-03
      1.65406819e-02 1.29780658e-02 -1.30105559e-02 -3.91936209e-03
      -2.72043026e-03 4.32370976e-03 -1.19013973e-02 -1.67112648e-02
      -1.48363151e-02 2.96708499e-03 -1.65209677e-02 1.28848078e-02
      1.12876892e-02 1.66543704e-02 1.51286162e-02 6.77888980e-03
      -3.39563645e-04 -2.03690538e-03 4.02263785e-03 4.29119868e-03
      1.65939494e-03 -1.86394714e-02 1.95635436e-03 -5.61222481e-03
      -1.39571978e-02 -1.88989658e-02 -2.07038037e-02 1.10041825e-02
      9.56042111e-03 3.51798721e-02 9.75447893e-03 5.16257575e-03
      -2.30457522e-02 -2.54242700e-02 4.01643105e-03 1.23953456e-02
      3.02064978e-02 3.72647829e-02 7.09785568e-03 -7.12379464e-04
      5.03861392e-03 -2.24347822e-02 -3.36881392e-02 -2.47268118e-02
      -2.27592997e-02 -9.83397011e-03 5.81350550e-03 3.55986767e-02
      2.24099774e-02 1.18569843e-02 -2.97239292e-02 -3.16193439e-02
      -8.75131506e-03 -1.15188898e-03 1.15755918e-02 3.87376994e-02
      3.17829438e-02 2.62630749e-02 9.19898134e-03 -1.95169579e-02
      -2.16572825e-02 -8.78754631e-03 1.09614972e-02 1.28103448e-02
      2.20963247e-02 1.80655420e-02 3.02453078e-02 5.86704677e-03
      -1.07407309e-02 -1.52136004e-02 -2.99666962e-03 8.30434635e-03
      1.86214037e-02 1.40283266e-02 2.08855346e-02 4.56417054e-02
      6.82410598e-03 -1.69731695e-02 -2.35093534e-02 -6.74413750e-03
      6.16810145e-03 8.54483526e-03 8.31594691e-03 -3.32382345e-03
      3.72553739e-04 -2.20155865e-02 -3.08298972e-02 -2.92067677e-02
      -9.00058076e-04 1.83547810e-02 2.19647642e-02 -1.32031844e-03
      2.10284279e-03 7.47976359e-03 -6.89319056e-03 5.44601306e-03
      2.98900180e-03 1.87567517e-03 1.93253520e-03 8.07744078e-03
      3.78895132e-03 -1.47870146e-02 -2.82970276e-02 -1.33853089e-02
      2.58520711e-02 2.71492992e-02 1.44326231e-02 1.79699101e-02
      8.17130320e-03 -8.90060049e-03 7.44108856e-03 -6.87527005e-03
      -2.26934850e-02 -8.19748547e-03 2.74124439e-03 -6.29903842e-03
      1.69377849e-02 1.09874066e-02 1.41103007e-02 -1.13751944e-02
      -2.39076596e-02 -1.83439013e-02 -1.96686340e-03 1.81973055e-02
      1.04385912e-02 1.82367899e-02 1.03208022e-02 2.92156590e-04
      -2.28626151e-02 -2.28620190e-02 -1.27776545e-02 1.51199121e-02
      2.94255670e-02 1.20047573e-02 2.94624586e-02 9.67445318e-03
      -2.41774842e-02 -3.11089344e-02 -1.74937472e-02 -4.47221566e-03
      -9.40832682e-03 7.31787737e-03 1.93630625e-02 2.36245934e-02
      1.78224151e-03 -2.45968457e-02 -1.14964228e-02 -3.96077596e-02
      -3.10234576e-02 -5.19282476e-04 2.37430856e-02 1.72777250e-02
      4.19441424e-02 1.87275782e-02 -6.69628894e-03 -4.28770632e-02
      -4.75485846e-02 -3.49859521e-02 -1.45162474e-02 6.56648912e-03
      2.53768954e-02 3.14162560e-02 1.25921657e-02 -1.36360014e-02
      -2.37161666e-02 -1.05087925e-02 7.02844700e-03 -1.69490173e-03
      1.31115709e-02 2.62722000e-02 1.58680826e-02 1.49529136e-03
      -1.98366065e-02 -3.09078582e-02 -3.43434885e-02 2.25450750e-03
      -3.02588171e-03 -1.54896090e-02 -9.75836243e-04 -1.25095632e-03
      -9.80252400e-04 -2.31789984e-02 -2.47935466e-02 -1.94709003e-02
      -1.86347496e-02 -2.25382275e-03 9.14524775e-03 3.16023454e-02
      2.97206584e-02 1.69973392e-02 9.05398570e-04 -1.70912407e-02
      -2.53065918e-02 -6.04317291e-03 -1.40561983e-02 -1.33331539e-02
      5.98428445e-03 3.02689541e-02 1.97742358e-02 3.25989386e-04
      -2.02272553e-02 -2.92463396e-02 -8.89508147e-03 2.93788337e-03
      -1.33397309e-02 -1.07318200e-02 -5.92392962e-03 6.57179346e-03
      -1.05548939e-02 4.30824561e-03 -7.18923053e-03 -1.91315357e-02
      6.73711067e-03 -1.93826780e-02 -2.97084567e-03 5.63609181e-03
      1.84398554e-02 6.11247495e-03 -1.00572743e-02 -1.31989550e-02
      -2.09355764e-02 -1.40771093e-02 -1.27351647e-02 3.78094171e-03
      1.82827394e-02 1.46067645e-02 3.80396075e-03 5.53027401e-03
      8.46014824e-03 -1.75621305e-02 -5.03889611e-03 -1.18821366e-02
      8.81660078e-03 7.97327794e-03 1.66760739e-02 1.44017674e-02
      8.53891019e-03 -1.70003087e-03 -2.92982366e-02 -1.43787554e-02
      -2.09077690e-02 -2.12456621e-02 -1.90012306e-02 8.57029296e-03
      1.19632548e-02 5.25787380e-03 9.48572531e-03 4.47123341e-04
      -5.39505435e-03 3.59422038e-03 -7.39832036e-03 -1.67654082e-02
      1.18078915e-02 1.65077467e-02 7.01019075e-03 1.52891111e-02
      -1.05255125e-02 -1.09022483e-02 -1.86856687e-02 1.19959889e-03
      -1.04391277e-02 -1.93267351e-03 5.09746792e-03 1.14310123e-02
      2.41870284e-02 1.53140966e-02 -1.20759965e-03 -3.78560205e-03
      -6.22175727e-03 -1.22372154e-02 -1.09886914e-03 8.74766428e-03
      -5.59965800e-03 -1.72775210e-04 -2.15061125e-04 -2.52603833e-03
      5.98417595e-03 3.04062269e-03 -1.56153375e-02 -1.44244893e-03
      1.34472130e-02 1.01053901e-03 -1.55927921e-02 -2.31216568e-02
      -9.23088752e-03 8.24071839e-03 2.27267500e-02 7.43494835e-03
      1.66732129e-02 2.33855788e-02 4.40618256e-03 1.34016704e-02
      1.28076337e-02 1.74553413e-02 -1.23294385e-03 -2.93464190e-03
      -5.13504259e-03 -2.32143886e-03 1.35085862e-02 7.24241743e-03
      -4.62319702e-03 -1.41548393e-02 3.95423453e-03 6.20478718e-03
      1.60944778e-02 5.24299126e-03 5.53918071e-03 1.41041586e-02
      3.55239119e-03 -2.22975072e-02 -3.03591676e-02 -9.90256947e-03
      -2.19441741e-03 5.85046364e-04 -2.53458600e-03 3.00762663e-03
      1.77502725e-02 5.62793156e-03 -1.33480961e-02 -4.92123561e-03
      6.01601135e-03 -9.25345067e-03 -1.31490892e-02 -8.35571252e-03
      -1.10384934e-02 1.12199550e-02 2.45357724e-03 -3.03502921e-02
      -3.35858501e-02 -6.82422146e-03 5.10028098e-03 8.63326434e-03
      3.01130582e-03 5.49306255e-03 1.92197859e-02 -6.08314527e-03
      -2.71102358e-02 -6.15924038e-03 1.34377507e-02 4.94535873e-03
      1.39675773e-04 -2.24724854e-03 3.83356051e-03 9.83351097e-03
      8.32431857e-03 -7.32335635e-03 9.46981460e-03 1.49515970e-02
      -5.02910092e-03 -7.73337018e-03 -9.35313944e-03 -1.67486425e-02
      7.31446547e-03 -1.74076110e-02 -1.41871069e-02 -5.82596076e-05
      -2.91784713e-03 4.32826532e-03 -1.30845951e-02 1.59888563e-03
      -5.51992562e-03 -6.82533905e-03 -1.08507136e-02 -2.13390589e-02
      5.60557237e-03 3.14784981e-02 2.84878863e-03 3.86435911e-03
      3.15913639e-05 4.70283441e-03 7.94677809e-03 -9.09149088e-03
      -2.23158877e-02 -7.45575689e-03 -9.73421265e-04 -9.21217259e-03
      -8.09207279e-03 6.64068107e-03 1.64621528e-02 -1.02482212e-03
      -7.58325402e-03 1.54816511e-03 6.71393424e-03 4.12603421e-03
      4.82072914e-03 -2.10098922e-03 1.27216531e-02 1.07428310e-02
      -1.98976393e-03 -6.38955319e-03 -3.94974370e-04 1.22162709e-02
      1.12587046e-02 9.53790452e-03 3.84685048e-03 1.13864178e-02
      -1.73147826e-04 7.67493341e-03 8.65954254e-03 2.71015312e-03
      1.87732396e-03 -4.48521241e-05 2.28619741e-04 -7.40887225e-03
      1.99391954e-02 3.28082964e-02 1.98052693e-02 6.56445883e-03
      4.19737352e-03 2.04393882e-02 8.90152808e-03 8.99186940e-04
      -2.63731345e-03 1.59904473e-02 1.77452397e-02 1.17616337e-02
      -1.40622277e-02 9.75873973e-03 1.64005831e-02 1.32581629e-02
      1.01523902e-02 -6.07222458e-03 4.11603367e-03 7.20658572e-04
      1.06030693e-02 -1.15587702e-02 2.43769158e-02 3.13518904e-02
      2.79165376e-02 2.55974978e-02 -1.88241433e-02 4.89977049e-03
      1.50773292e-02 -2.48799939e-03 -3.30246403e-03 -9.12037957e-03
      3.42115480e-03 4.91382694e-03 9.08338092e-03 -3.50831705e-03
      1.49417436e-04 -4.18808451e-03 2.59452569e-03 -4.70767450e-03
      5.00452193e-03 2.18270551e-02 1.49267958e-02 1.56099629e-02
      -2.01218873e-02 -5.31307748e-03 -2.16263975e-03 -4.62120306e-03
      -2.38188766e-02 8.96249991e-03 2.46167779e-02 1.62946489e-02
      5.80344489e-03 -3.10264640e-02 -2.37390026e-03 8.26138631e-03
      -1.50828278e-02 -4.80845291e-03 1.44683374e-02 1.87235065e-02
      1.25589464e-02 -7.80032901e-03 6.62819308e-04 1.28756370e-02
      2.03638300e-02 -1.16555821e-02 -1.30132008e-02 -3.04804021e-03
      1.47806518e-02 2.34774966e-02 -7.75425276e-03 -1.62524115e-02
      1.66875601e-03 6.96070911e-03 -1.37547953e-02 7.07073417e-03
      1.25228921e-02 1.05198910e-02 2.36683693e-02 -3.92889092e-03
      -1.01557607e-02 1.89623162e-02 2.84530297e-02 3.50792070e-05
      -1.09810438e-02 4.37812693e-03 1.31520815e-03 -7.39324559e-03
      -3.10057886e-02 -1.39816403e-02 2.76973151e-04 7.04560662e-04
      -2.25071460e-02 1.43869752e-02 2.32062675e-02 1.51272621e-02
      -2.78959866e-03 -1.53870070e-02 -4.60770587e-03 2.57048923e-05
      1.09959589e-02 6.86415285e-03 -1.63683929e-02 6.28842879e-03
      1.28957769e-03 5.91883296e-03 -1.49977831e-02 -1.39333624e-02
      1.22018985e-03 7.02827843e-03 -1.50872786e-02 9.97065799e-04
      3.28284875e-02 3.10930330e-02 1.42609561e-02 2.01090472e-03
      9.95064247e-03 8.82921182e-03 1.67055093e-02 5.52265067e-03
      4.02995665e-03 1.65945683e-02 8.03373661e-03 -8.97156633e-03
      -1.38133289e-02 -2.07601711e-02 -1.25771174e-02 2.56183813e-03
      -1.98615482e-03 2.12724302e-02 1.44222295e-02 8.43881257e-03
      -1.04369717e-02 4.61682957e-03 3.97884566e-03 2.90573668e-03
      1.69309659e-03 7.19601940e-03 2.85510323e-03 2.73624081e-02
      9.58747696e-03 -5.01369964e-03 7.71978288e-04 -5.85531630e-03
      -1.58732347e-02 -4.97023761e-03 -1.02803353e-02 1.38585977e-02
      2.91928034e-02 2.05857884e-02 4.08826955e-03 1.47261862e-02
      1.39148207e-02 -2.67481664e-03 -4.37129196e-03 2.53495481e-03
      2.54142080e-02 4.80283145e-03 4.14707325e-03 -1.49518549e-02
      -2.97711939e-02 -9.33770742e-03 -1.14348624e-02 -1.07504576e-02
      1.35393403e-02 5.39285801e-02 2.21143253e-02 8.33734870e-03
      -2.80061979e-02 -4.26225699e-02 -4.75126086e-03 2.28712857e-02
      9.99090914e-03 4.71507907e-02 3.16896336e-03 1.26205906e-02
      1.00709181e-02 -7.42855063e-03 -1.74112469e-02 -2.44082278e-03
      -1.93178337e-02 -3.15242410e-02 -1.81785741e-04 4.16177884e-02
      1.86153483e-02 4.27304534e-03 -2.45626643e-02 -3.58312875e-02
      -1.86681247e-03 3.43691092e-03 -1.42639251e-02 3.36932763e-02
      2.07498539e-02 3.96796800e-02 1.51743265e-02 -2.35859621e-02
      -3.61610018e-02 6.98004989e-03 7.62737496e-03 1.95166524e-02
      2.16493960e-02 2.69808676e-02 2.18184572e-02 -7.56447809e-03
      -3.08979657e-02 -2.55549364e-02 1.72686335e-02 2.19093990e-02
      3.02113090e-02 3.13836150e-02 4.19012271e-02 2.93452088e-02
      6.66222116e-03 -4.64603566e-02 -5.30425496e-02 -1.12909358e-02
      7.78358663e-03 1.99511722e-02 3.39258723e-02 1.86520461e-02
      4.08679014e-03 -2.53720656e-02 -3.64564620e-02 -2.98334379e-02
      9.71829705e-03 1.82756968e-02 2.80992035e-02 2.98844986e-02
      1.70648694e-02 -3.31241079e-03 -1.45063261e-02 -8.87354743e-03
      1.11777904e-02 8.20399914e-03 1.53735327e-02 2.27649100e-02
      2.55024564e-02 -1.00938724e-02 -3.54803763e-02 -2.12173518e-02
      5.89826843e-03 2.63964180e-02 2.44756006e-02 1.12125119e-02
      1.84698850e-02 1.03344396e-02 5.54433558e-03 -1.65054239e-02
      -3.80874351e-02 -1.28889810e-02 1.22173987e-02 2.15162169e-02
      1.59665048e-02 3.27985995e-02 1.60210468e-02 -2.15783939e-02
      -5.06364591e-02 -3.28864455e-02 -2.46666698e-03 3.29351760e-02
      3.62073891e-02 1.49695389e-02 2.71243677e-02 -5.79412677e-04
      -1.97655875e-02 -3.40989232e-02 -1.46365138e-02 5.41390665e-03
      3.34729031e-02 1.92585532e-02 8.86384957e-03 1.15757622e-02
      -6.69233128e-03 -3.51290293e-02 -3.01967412e-02 -1.75736863e-02
      -1.04109058e-03 1.26680555e-02 2.78111827e-02 2.86456849e-02
      1.59966256e-02 -1.30939009e-02 -2.49004159e-02 -3.97322215e-02
      -8.54468904e-03 3.36067528e-02 4.47445884e-02 2.70265248e-02
      1.61171332e-02 1.72021911e-02 -5.40959230e-03 -1.83457024e-02
      -1.49247991e-02 -3.42791318e-03 5.67290001e-03 1.93292536e-02
      1.85579974e-02 3.58293727e-02 1.40494676e-02 -1.67256817e-02
      -1.99568234e-02 -1.89641882e-02 -2.48656496e-02 -1.64584685e-02
      9.53526236e-04 1.56117231e-02 3.21289338e-02 1.65046789e-02
      4.66158474e-03 -5.33875823e-03 -7.36678578e-03 -1.95930600e-02
      -3.68341468e-02 -1.76862609e-02 -5.57397772e-03 2.45140363e-02
      1.32298581e-02 7.56108249e-03 -1.17397134e-03 -1.05867460e-02
      -2.20807604e-02 -1.91516243e-02 3.88479303e-03 1.43555440e-02
      4.36402224e-02 1.70454103e-02 8.87742639e-03 1.18536167e-02
      -2.07661744e-03 -1.61765628e-02 -4.59251814e-02 -1.70756541e-02
      -6.78679999e-03 2.75001787e-02 1.79070383e-02 1.84099060e-02
      7.36885285e-03 1.75914972e-03 -2.76626013e-02 -4.16939668e-02
      -2.69341394e-02 -1.58415083e-02 7.62238633e-03 1.54934460e-02
      1.16529251e-02 8.70377105e-03 1.26517108e-02 -7.31925247e-03
      -9.53110692e-04 -1.33161759e-02 -1.69887505e-02 -4.38228762e-03
      1.82251874e-02 2.20114272e-02 1.14429183e-02 4.85257665e-03
      -1.80681162e-02 -2.66695525e-02 -2.58264225e-02 -1.70803796e-02
      2.03309697e-03 1.61615070e-02 1.70303211e-02 9.63218976e-03
      1.32814385e-02 3.77199706e-03 1.32794529e-02 -1.85404625e-02
      -2.53920015e-02 -8.77506007e-03 2.34754402e-02 1.75593998e-02
      6.34716777e-03 1.03275171e-02 -3.03832872e-04 -5.73966233e-03
      -1.12041915e-02 -2.05830261e-02 -2.61300150e-02 -2.36830371e-03
      8.93865153e-03 7.81434774e-03 1.70966294e-02 1.27496896e-03
      -6.35366980e-03 -9.48638376e-03 -2.82448176e-02 -2.77734287e-02
      -7.18662469e-03 8.15017335e-03 6.11830794e-04 7.35645602e-03
      -8.41195323e-03 -3.79399746e-03 -8.74358322e-03 -1.99739076e-02
      -1.80681478e-02 1.26822665e-02 2.04715542e-02 1.13921501e-02
      1.70733072e-02 -2.12067794e-02 -2.18832605e-02 -1.26830507e-02
      -1.20647168e-02 -1.59251085e-03 2.38247756e-02 2.63653658e-02
      1.47887012e-02 1.93170141e-02 8.83078948e-03 1.50181772e-02
      -4.75771027e-03 -2.49278825e-02 -2.08036620e-02 -2.42939242e-03
      1.54166706e-02 1.14724934e-02 2.86915689e-03 -1.20761609e-02
      -6.69430336e-03 5.58729563e-03 1.07021665e-03 -5.27974078e-03
      3.53414170e-03 1.34890256e-02 3.03024407e-02 2.73418278e-02
      -3.38799437e-03 -5.81494358e-04 -1.53180771e-02 -3.41978995e-03
      4.11611050e-03 2.79434230e-02 3.92998382e-02 1.29488548e-02
      3.36735218e-04 -1.00487638e-02 -5.39344037e-03 -6.53392449e-03
      -7.28180958e-03 -1.89691968e-02 5.24218101e-03 1.76491719e-02
      3.98476201e-04 -1.21681001e-02 -7.96367787e-03 -4.57621785e-03
      1.76354609e-02 -3.55275604e-03 -4.87092836e-03 9.30291228e-03
      1.88591629e-02 -1.21404706e-02 -1.37075214e-02 -7.44444085e-04
      2.23543532e-02 1.29975211e-02 7.19096884e-03 7.78074609e-03
      1.64653491e-02 1.31908879e-02 -2.19043181e-03 -2.36346554e-02
      -1.42502645e-02 -8.12322088e-03 -3.50527139e-03 -3.52699496e-02
      -1.99263338e-02 -3.97553016e-03 6.49166293e-03 1.16804866e-02
      -5.76647604e-03 -9.62820370e-03 5.93077112e-03 -1.42001603e-02
      -1.83335301e-02 -3.57355643e-03 8.41272529e-03 1.60621982e-02
      -1.12673491e-02 -1.11810286e-02 -1.01646483e-02 2.24216562e-02
      1.21387898e-03 1.39820145e-03 -3.92981246e-03 -3.94164344e-05
      7.35759223e-03 5.08540682e-03 -1.79080777e-02 -1.43480217e-02
      7.91627169e-03 -7.99562503e-03 -1.37984054e-02 -6.75065350e-03
      1.02345357e-02 1.04558980e-02 2.70720553e-02 1.01510249e-02
      -1.17837191e-02 8.33517127e-03 -2.82419752e-03 -2.29880912e-03
      2.71605793e-03 2.11348366e-02 2.65437197e-02 2.01938190e-02
      1.39136519e-02 2.17855815e-03 5.20004611e-03 -3.47856875e-03
      -2.93989503e-03 1.05694430e-02 1.32700168e-02 9.19890869e-03
      5.10654831e-03 2.78868387e-03 8.94991402e-03 2.51831003e-02
      3.00868484e-03 -4.45916783e-03 -1.44926633e-03 1.54975401e-02
      1.80219430e-02 8.22627451e-03 6.66161440e-03 1.02570038e-02
      1.81242619e-02 -8.07214528e-03 -3.89315654e-03 8.89574829e-03
      1.18378699e-02 1.70196090e-02 1.45238265e-02 7.30645657e-03
      1.84031334e-02 1.92127917e-02 1.41972387e-02 2.07472965e-02
      1.70326121e-02 5.76194329e-03 5.00532798e-03 -1.31545663e-02
      3.34347074e-04 1.04848733e-02 6.13983022e-03 -2.94238571e-02
      6.48366148e-03 1.75441038e-02 1.89277865e-02 -6.92308741e-03
      2.28335522e-03 6.69864006e-03 4.88948962e-03 1.88501067e-02
      -7.61509314e-03 -4.03874787e-03 3.76807712e-03 2.22281180e-03
      7.57826632e-03 3.64904501e-03 4.12270753e-03 1.78394448e-02
      2.39808820e-02 4.59681591e-03 -1.38391042e-02 3.23816412e-03
      -6.01272890e-03 4.10189060e-03 -2.33629979e-02 -2.30935565e-03
      3.55782267e-03 1.92427859e-02 -3.11858952e-02 -5.99766197e-03
      1.94188282e-02 1.86193120e-02 -1.42008997e-02 -6.80109765e-03
      1.00070434e-02 1.62315555e-02 3.68947573e-02 -7.39372429e-03
      -6.30216440e-03 7.46140676e-03 2.37298198e-03 1.86424504e-03
      -1.08644343e-03 5.06063737e-03 1.34679787e-02 2.62696948e-02
      -2.07513161e-02 -2.01527104e-02 -6.08934090e-03 2.95468047e-03
      -3.65519710e-03 1.34454546e-02 2.84115039e-02 2.19331272e-02
      2.24797353e-02 -6.40276494e-03 -1.36006186e-02 2.33496856e-02
      3.11941300e-02 1.07222404e-02 -7.71930162e-03 7.26248510e-03
      1.44832982e-02 1.84017103e-02 -3.03144921e-02 -1.32438801e-02
      -3.13896011e-03 -6.80464227e-03 1.85425021e-03 5.17025182e-04
      1.98942013e-02 2.39967853e-02 1.56296548e-02 -1.30008440e-02
      -1.19774556e-02 1.46575505e-02 1.26569364e-02 6.91337837e-03
      -6.27913419e-03 2.49756034e-02 2.27723364e-02 9.56309773e-03
      -5.22164023e-03 -1.16087990e-02 1.25900283e-02 1.14827752e-02
      -1.37460278e-02 -3.94943869e-03 3.89093608e-02 3.35424282e-02
      2.19950266e-02 1.70174777e-03 2.16111504e-02 1.98460538e-02
      1.19616082e-02 -1.60963763e-03 -1.69268101e-02 1.29900761e-02
      1.85195375e-02 1.68216713e-02 -1.57946385e-02 -7.93380383e-03
      3.35708586e-03 -8.71861354e-03 -2.63583940e-02 -8.27977527e-03
      1.20187029e-02 1.91527288e-02 2.61838213e-02 -6.92640839e-04
      9.16341133e-03 9.76830907e-03 -9.02490877e-03 -1.50972810e-02
      1.11292547e-03 2.30319295e-02 1.05852513e-02 1.42172240e-02
      -3.29829799e-03 6.01249002e-03 -5.50124515e-03 1.15664012e-03
      -1.51152350e-02 1.62561685e-02 1.93087254e-02 2.04134118e-02
      1.83573365e-02 2.45852340e-02 2.62801982e-02 1.42903742e-03
      -2.07104464e-03 -2.24769698e-03 -2.11494341e-02 -9.46669315e-04
      -4.31905442e-04 1.23983696e-02 9.57681099e-04 -3.58164980e-04
      -2.58880462e-02 -2.06614733e-02 -2.61377897e-02 2.65926099e-03
      1.81787126e-02 2.40472276e-02 3.27537209e-02 1.80028565e-02
      6.74843555e-03 -2.23283786e-02 -1.62474066e-02 -8.35322496e-03
      1.38726756e-02 -2.38589663e-03 5.53639047e-03 -4.78570489e-03
      -1.27408355e-02 6.09872630e-03 -1.09040756e-02 -1.69806182e-02
      -3.86875682e-03 5.26896566e-02 1.71396341e-02 1.28266746e-02
      9.61774308e-03 -8.38163961e-03 9.61526018e-03 7.94511288e-03
      2.57680938e-03 4.90563326e-02 6.88100653e-03 1.13328509e-02
      1.25577152e-02 -1.67129736e-04 -1.06097618e-02 -8.32893606e-03
      -3.46682481e-02 -1.95165873e-02 -4.21651918e-03 4.92533855e-02
      2.59716250e-02 3.23848799e-02 1.50827309e-02 -2.49693939e-03
      -2.19306932e-03 -1.42076537e-02 -1.48334110e-03 3.92962135e-02
      4.78413850e-02 2.30430793e-02 -8.80261604e-03 -3.38493437e-02
      -5.93880899e-02 -1.55008230e-02 8.93628970e-03 2.54711788e-02
      3.82371321e-02 2.83923578e-02 -1.66078168e-03 -3.79013903e-02
      -2.06592809e-02 -1.36286104e-02 1.25888241e-02 1.97857618e-02
      3.53116989e-02 3.56071927e-02 4.10384983e-02 2.19363738e-02
      -2.95198523e-02 -5.46320491e-02 -6.59140721e-02 -3.59152555e-02
      2.14034226e-02 3.10816765e-02 4.02689464e-02 3.62080932e-02
      -9.76048701e-04 -3.08760386e-02 -2.27990821e-02 -2.53993869e-02
      -1.08829318e-02 1.36703793e-02 4.06695828e-02 5.56871295e-02
      4.41022130e-04 -2.43457463e-02 -4.18540612e-02 -2.60174815e-02
      2.16460265e-02 1.43575519e-02 6.66045584e-03 1.82789881e-02
      9.65985935e-03 4.66186833e-03 -3.03135738e-02 -4.08110283e-02
      -7.79785635e-03 3.61712798e-02 3.80204469e-02 1.70489121e-02
      2.29099840e-02 1.24586076e-02 1.37460893e-02 -1.02267284e-02
      -3.74334753e-02 -2.20754091e-02 8.39382317e-03 7.44174141e-03
      -3.96464689e-04 1.70481503e-02 2.72853915e-02 8.15717224e-03
      -7.34743755e-03 -2.05242019e-02 -2.93958653e-03 3.67918126e-02
      3.88062038e-02 2.22448558e-02 2.07307264e-02 1.24963913e-02
      -6.43675961e-03 -1.86235532e-02 -1.29155042e-02 1.40195349e-02
      3.74923348e-02 2.65202392e-02 6.86171418e-03 8.06778297e-03
      3.44719482e-03 -1.64431762e-02 -1.03171961e-02 -6.56670611e-03
      -7.13241147e-03 1.41265467e-02 6.83194166e-03 1.41125545e-02
      6.42762380e-03 -1.49214221e-02 -2.86746980e-03 -5.86570008e-03
      -4.90612816e-03 2.22709472e-03 3.59774344e-02 3.56025361e-02
      2.73317769e-02 1.03587601e-02 1.30317465e-03 -7.94478226e-03
      1.04262633e-02 1.34561276e-02 -7.25804362e-03 1.63762514e-02
      6.84691919e-03 2.34877858e-02 1.13330614e-02 -1.05090374e-02
      -2.98125856e-03 -3.82185634e-03 -8.04101303e-03 -2.50862688e-02
      7.45444465e-03 2.13153623e-02 3.22331972e-02 2.07880642e-02
      -7.08086556e-03 -2.47800048e-03 -2.34978111e-03 -9.96612012e-03
      -3.52015160e-02 -6.83921482e-03 -3.46732442e-03 2.49430258e-02
      2.57392097e-02 5.58336498e-03 3.94419814e-03 2.10713260e-02
      2.19328497e-02 -2.02104561e-02 6.10411167e-03 1.01653785e-02
      1.92489494e-02 1.75488517e-02 2.67350650e-03 -1.40929809e-02
      1.88255049e-02 1.00526791e-02 -1.96082126e-02 4.76935646e-03
      -2.91349133e-03 8.02857336e-03 9.30327363e-03 -2.01105066e-02
      -4.10431623e-03 -3.08228447e-03 -1.42651079e-02 -2.11997554e-02
      -1.15465196e-02 -1.16190063e-02 -6.47168281e-03 5.78052248e-04
      -3.51115107e-03 5.67943091e-03 1.12146167e-02 5.48186759e-03
      -3.52768810e-03 -1.22543303e-02 -1.29531650e-02 -9.21484176e-03
      4.67573898e-03 8.24057683e-03 -1.70901269e-02 7.70672737e-03
      -3.42053431e-03 -1.33446753e-02 -5.88342827e-03 -1.15222512e-02
      -7.52370479e-03 -8.40608031e-03 -3.18119526e-02 7.04586925e-03
      1.96968652e-02 -1.38043170e-03 4.57727612e-04 -2.12353584e-03
      -9.90159530e-03 8.21485650e-03 1.03723463e-02 -3.39688757e-03
      -2.73494096e-03 6.17093826e-03 -1.57600287e-02 -1.54070193e-02
      5.56398230e-03 -4.43113409e-03 -1.15923444e-02 6.96866820e-03
      1.30527066e-02 1.50592141e-02 1.69186648e-02 -2.17976514e-02
      -2.76056286e-02 5.83946239e-03 5.88702923e-03 8.92415270e-03
      1.71765909e-02 1.93080883e-02 8.89995974e-03 9.11084935e-03
      -7.20322737e-03 -1.49556976e-02 -7.42428098e-03 1.61050702e-03
      2.09719758e-03 1.42126642e-02 1.52606005e-03 4.15811455e-03
      -7.46486662e-03 -1.85804050e-02 -2.54207291e-02 2.40832014e-04
      2.77290773e-03 1.57268101e-03 1.45912252e-03 9.64456529e-04
      2.57318635e-02 2.16051005e-02 2.56711850e-03 -4.28547710e-03
      1.37846237e-02 1.12143364e-02 5.36386576e-03 1.81634501e-02
      2.22832672e-02 1.04526170e-02 9.21404397e-04 -1.40510071e-02
      -5.55016659e-03 1.81023944e-02 2.67984066e-03 -9.81948338e-03
      -1.23329205e-03 1.49609018e-02 -1.06837065e-03 -6.91884197e-03
      -1.13252606e-02 -4.34874510e-03 1.52729009e-03 1.62599061e-03
      -1.19710462e-02 -5.08641778e-03 -1.24510843e-02 -2.27368996e-02
      -3.70251923e-03 -9.12853144e-03 -5.42723481e-03 2.71105138e-03
      -1.36829149e-02 -2.94203833e-02 -1.74868964e-02 -2.81558875e-02
      -2.81921891e-03 -1.23797683e-02 -1.39393117e-02 -1.01602990e-02
      8.61588866e-03 -1.50396954e-02 -2.50327457e-02 -8.72742105e-03
      7.58605311e-03 1.03433086e-02 6.70566550e-03 -4.73147398e-03
      1.93822256e-03 -1.62728375e-03 -1.43747230e-03 -2.01084116e-03
      -1.56417943e-03 1.35927396e-02 -1.23025561e-02 1.00402499e-03
      -2.88773212e-04 -5.88403502e-03 1.43513316e-02 -5.89325046e-03
      -1.86392460e-02 -9.68951453e-03 -1.34623069e-02 1.93081703e-02
      7.02015031e-03 3.54579161e-03 4.93669091e-03 1.24244997e-02
      1.40494751e-02 1.27248736e-02 1.15173971e-02 2.51808558e-02
      1.27456291e-02 8.96228850e-03 -5.11411484e-03 2.76431162e-03
      -2.61350926e-02 8.13517440e-03 -4.12000762e-03 -2.24687555e-03
      9.53205116e-03 1.30582619e-02 1.14646982e-02 -2.04817555e-03
      4.04928159e-03 -1.43456329e-02 1.32894209e-02 8.98715202e-03
      1.04728546e-02 7.97551963e-03 9.56682768e-03 -1.85397658e-02
      -1.50811132e-02 -2.78326496e-03 -1.97457913e-02 1.71336755e-02
      4.11708327e-03 2.98395404e-03 2.12696120e-02 9.00251511e-03
      -4.42556525e-03 -6.53943559e-03 6.54531270e-03 7.64224026e-03
      1.08810812e-02 1.40655758e-02 1.74318440e-02 1.64558608e-02
      2.10189447e-02 1.92644987e-02 9.38068517e-03 6.68210071e-03
      -5.23931114e-04 2.71912310e-02 1.97862070e-02 1.48772513e-02
      9.78643261e-03 -1.77841764e-02 -9.78613459e-03 -3.33258370e-03
      -1.20739145e-02 -3.67442593e-02 4.29215003e-03 4.93621174e-03
      4.90859570e-03 -1.34178679e-02 1.51884817e-02 1.19344359e-02
      8.44383799e-03 7.33207259e-03 1.00050345e-02 1.97080076e-02
      2.68780626e-02 3.56377326e-02 1.77191850e-02 -1.20091736e-02
      1.87690160e-03 4.37105214e-03 -1.02760214e-02 -2.67112534e-02
      4.05042805e-03 1.39855267e-02 2.26233844e-02 -1.45401629e-02
      -2.45337225e-02 9.12174396e-03 1.08918240e-02 2.40200050e-02
      -1.83599927e-02 1.28676314e-02 2.50252876e-02 1.18185515e-02
      -1.98650807e-02 -1.77246276e-02 2.05447134e-02 2.33725905e-02
      2.77119987e-02 1.12893491e-03 1.09904939e-02 9.88774467e-03
      -6.42308826e-03 -2.05895137e-02 -2.20918432e-02 1.25957141e-02
      5.82399359e-03 9.77454893e-03 -2.16803537e-03 1.65526979e-02
      2.56381445e-02 2.76989546e-02 -2.55227126e-02 -2.66832206e-02
      1.61139052e-02 1.21860700e-02 4.14010650e-03 1.48362964e-02
      1.42623484e-02 8.08750745e-03 1.47863757e-03 -3.86323370e-02
      -2.33610757e-02 1.47748748e-02 1.55545389e-02 1.00905662e-02
      -2.41855979e-02 -2.70354270e-04 -2.42795073e-03 -1.24503383e-02
      -1.07817464e-02 -7.66291423e-03 2.73424834e-02 3.59667204e-02
      2.65175849e-02 -1.40326200e-02 9.22510680e-03 2.29591243e-02
      7.00142048e-03 -2.19178014e-03 -2.01795436e-02 4.31734556e-03
      4.86061350e-03 1.14846730e-03 -1.91427264e-02 4.63270524e-04
      -8.95310007e-03 -1.35719469e-02 -2.94979066e-02 9.53729078e-03
      1.79360136e-02 2.47536860e-02 8.88913311e-03 -1.36195347e-02
      5.90746803e-03 1.43505819e-02 1.10755675e-02 -1.71311665e-03
      -1.73742175e-02 1.56406164e-02 3.09458002e-02 3.07321865e-02
      -1.34153897e-02 -4.55716159e-04 9.68867168e-03 -6.59567770e-03
      -2.45980378e-02 -1.10499896e-02 1.34432530e-02 2.20765267e-02
      2.62551680e-02 2.39381436e-02 1.08591728e-02 2.34688036e-02
      3.53792566e-03 -1.96097847e-02 8.83417856e-03 9.71755385e-03
      1.42321615e-02 -5.64988889e-03 -1.67553667e-02 -1.35457199e-02
      9.68195405e-03 5.51018957e-03 -8.10603797e-03 9.17830318e-03
      1.13732005e-02 9.36184637e-03 1.35795157e-02 -3.81219324e-05
      -5.84310107e-03 1.95831396e-02 1.21209761e-02 -9.45726817e-04
      -1.60716772e-02 -7.25076115e-03 -1.27570110e-03 8.34909640e-03
      2.28672568e-03 -6.60281209e-03 -8.80639534e-03 -9.99750849e-03
      -2.43458971e-02 2.03930754e-02 3.35365199e-02 3.63418758e-02
      3.30342539e-02 1.11395791e-02 5.28067257e-03 -5.70007740e-03
      -7.20053073e-03 4.31478303e-03 -6.21510949e-03 8.12729064e-04
      -1.62686675e-03 8.17397144e-03 -1.50328102e-02 -2.31236089e-02
      -8.28593690e-03 -1.32725043e-02 -1.35168238e-02 2.11278312e-02
      2.34999433e-02 2.94465516e-02 4.32938151e-02 9.25705861e-03
      1.48683169e-03 2.97999312e-03 1.07457025e-04 9.26719699e-03
      2.45347507e-02 1.60905756e-02 1.44501254e-02 -2.81830435e-03
      -2.15885192e-02 -1.59048866e-02 -1.82384867e-02 -1.80473607e-02
      1.54152401e-02 5.56318834e-02 2.45600119e-02 1.40891960e-02
      -1.91914185e-03 -2.24552788e-02 -8.23147781e-03 -9.44797881e-04
      1.46668795e-02 4.75257486e-02 1.90514829e-02 7.24516390e-03
      1.44254640e-02 6.60132943e-03 -2.51914505e-02 -1.44648422e-02
      -1.41336396e-02 -1.19767804e-02 1.17565747e-02 6.93624839e-02
      2.76077408e-02 1.45941982e-02 -5.50817652e-03 -2.60828417e-02
      -5.32169314e-03 -1.03878893e-03 1.28525542e-02 5.35422899e-02
      1.42827788e-02 1.39692146e-02 -2.97150072e-02 -4.29030806e-02
      -5.83667047e-02 -3.37284394e-02 8.77219718e-03 2.69813500e-02
      2.43831668e-02 2.61578113e-02 1.12481918e-02 -3.18252109e-02
      -2.77861916e-02 -2.64873654e-02 -4.36208956e-03 1.11525664e-02
      2.69252062e-02 4.28702869e-02 2.02647597e-02 1.91805009e-02
      -9.18565784e-03 -2.68150121e-02 -4.32572030e-02 -4.54148948e-02
      -8.38194042e-03 2.19960567e-02 2.21581701e-02 2.55853161e-02
      3.43226679e-02 -1.80597510e-03 -4.52746358e-03 -2.31370144e-02
      -2.28678156e-02 7.47683598e-03 1.56197799e-02 3.27957757e-02
      5.68003999e-03 -1.17589608e-02 -3.42223570e-02 -2.04144716e-02
      2.91746785e-03 2.52291304e-03 -5.49993478e-03 4.91977483e-03
      2.60595921e-02 -9.26430058e-03 -9.56186745e-03 -1.62754022e-02
      8.26685224e-03 3.70018631e-02 4.44185212e-02 2.11508237e-02
      4.02240548e-03 -1.29006710e-03 1.41165210e-02 1.13160238e-02
      -1.12006851e-02 -1.54492659e-02 1.71786698e-03 -1.27312066e-02
      -1.41639472e-03 6.29279809e-03 1.78724900e-02 -4.23253793e-03
      1.16335945e-02 1.32502615e-03 2.63832975e-03 2.08268389e-02
      3.02844439e-02 1.62214059e-02 2.95720156e-03 4.42114053e-03
      -1.25771295e-02 -3.13517312e-03 -4.37396299e-03 1.48511364e-03
      4.13940959e-02 3.99311632e-02 2.26168223e-02 1.38824526e-03
      -5.78618795e-03 4.43720678e-03 1.77686494e-02 1.11022405e-02
      -1.94004586e-03 6.92571606e-03 1.14308028e-02 2.70652603e-02
      9.34869237e-03 -3.31987534e-03 -1.86570417e-02 8.29446130e-03
      1.76509027e-03 -5.64164249e-03 1.60867386e-02 2.88161077e-02
      1.70294624e-02 -1.93160796e-03 -2.44045593e-02 -7.05245836e-03
      -2.79883843e-05 -1.15243124e-03 -2.35719234e-02 -3.01873568e-03
      1.43095823e-02 1.87305864e-02 2.96917674e-03 -1.75878722e-02
      1.88829117e-02 3.70062888e-02 2.74693072e-02 -1.49873774e-02
      1.75536890e-03 1.14182066e-02 1.46481078e-02 7.57104857e-03
      2.03542848e-04 9.19190235e-03 3.53958756e-02 1.68301612e-02
      -2.35163998e-02 -2.05406677e-02 -5.74714970e-04 -5.39912423e-03
      -6.29949383e-03 -2.10943203e-02 1.95603655e-03 1.38865290e-02
      -6.43209182e-03 -2.54435055e-02 -4.39530984e-03 5.33392699e-03
      2.21639462e-02 1.67525541e-02 -2.15970236e-03 1.55019043e-02
      3.16651426e-02 6.72308868e-03 -3.07505094e-02 -1.98792480e-02
      -5.25041763e-03 4.31134272e-03 1.58536099e-02 6.24603219e-03
      8.72248784e-03 2.85051931e-02 8.19620769e-03 -1.57767069e-02
      -5.27746277e-03 -1.21035008e-02 -7.26394774e-03 -6.87327655e-03
      -2.50758603e-02 1.72191150e-02 3.52664329e-02 1.35705834e-02
      7.13530183e-03 -5.08172298e-03 -1.57994833e-02 1.42470105e-02
      1.92265119e-02 -4.43999888e-03 5.49320364e-03 2.75662169e-02
      -2.57539854e-04 -2.78297178e-02 -4.82845958e-03 -2.12407671e-02
      -1.38241723e-02 2.23983498e-03 -3.66236619e-03 3.67840542e-03
      2.65385732e-02 6.12358097e-03 4.36344976e-03 -1.16686458e-02
      -2.31435485e-02 -7.27321021e-04 9.64364316e-03 -1.09728016e-02
      1.32620735e-02 1.91362537e-02 3.08732153e-03 9.87690408e-03
      -1.07535096e-02 -2.05574818e-02 3.46214697e-03 1.95650719e-02
      1.97061221e-03 8.45741946e-03 2.98672309e-03 -8.57294444e-03
      -9.89422016e-03 -6.19473914e-03 -1.66499410e-02 7.83067290e-03
      1.38577074e-02 -6.27190864e-04 6.36521028e-03 2.58381106e-02
      6.77066250e-03 3.13188625e-03 -1.22362180e-02 -3.32679711e-02
      -8.77534598e-03 1.33801922e-02 -4.44453144e-05 3.08989966e-03
      1.77506115e-02 1.41293379e-02 -5.96001558e-03 -5.21984277e-03
      -3.14890817e-02 -1.39478706e-02 1.40167996e-02 1.10456790e-03
      -7.68810930e-03 5.66890696e-04 -6.05155947e-03 -1.67584443e-03
      -7.39241345e-03 -1.38188172e-02 -1.14503121e-02 1.32489222e-04
      -1.56191830e-02 -1.02945669e-02 1.56558920e-02 -7.82052800e-03
      -1.97795080e-03 -9.76437051e-03 -1.50927426e-02 -2.16049422e-02
      -2.86401529e-03 -1.61389839e-02 -6.77131116e-03 4.01425961e-04
      -4.20476063e-05 -4.14511561e-03 1.26798265e-03 -5.76364109e-03
      -7.25000910e-03 1.40750306e-02 1.12917018e-03 4.49363608e-03
      1.26678487e-02 1.10651366e-02 7.25175720e-03 1.63660536e-03
      -1.52709577e-02 -1.37749529e-02 9.50810406e-03 1.13722598e-02
      -3.97056667e-03 1.31188408e-02 -3.33345379e-03 -8.78827588e-04
      -5.41323423e-03 -3.10682715e-03 -1.58507265e-02 7.10969092e-04
      -6.81249797e-03 1.92010142e-02 9.38443746e-03 -1.25980470e-02
      -7.97108468e-03 1.56734884e-02 8.07303656e-03 4.24536318e-03
      2.35736184e-02 1.76402889e-02 8.08138680e-03 1.79995429e-02
      8.10297579e-03 -1.25099858e-03 2.68610730e-03 -2.06547268e-02
      -2.85098404e-02 1.29348086e-03 2.07661707e-02 1.96670108e-02
      1.93362441e-02 -2.98018963e-03 -1.10076340e-02 5.10021346e-03
      -3.85712180e-03 -7.30853621e-03 1.92985516e-02 2.78268717e-02
      1.50200818e-02 -1.15546640e-02 -1.83639619e-02 -3.88847804e-03
      1.64498214e-03 3.43216956e-03 -1.38723580e-02 7.10515026e-03
      2.13586483e-02 1.88191386e-03 -1.28005743e-02 -1.63655123e-03
      1.10942433e-02 1.16897598e-02 9.02317837e-03 1.30262543e-02
      1.56614874e-02 1.71795208e-02 1.26647223e-02 2.35584681e-03
      -2.61430140e-03 -2.18275073e-03 -3.51171428e-03 -2.16544457e-02
      -1.18551599e-02 4.90197260e-03 2.07933597e-02 -5.07369870e-03
      2.42261267e-05 1.33150499e-02 1.20386854e-02 3.75875016e-03
      -8.47399607e-03 6.35246094e-03 4.11537103e-03 5.02973050e-03
      -3.29663366e-04 -2.63019232e-03 4.03641694e-04 2.52304925e-03
      3.36540700e-03 1.22041535e-02 1.50433304e-02 6.38264697e-03
      4.96408856e-03 -1.40899708e-02 -3.52962897e-03 8.85625463e-03
      4.43154480e-03 -2.08697412e-02 1.21635257e-03 2.05734419e-03
      -6.60147797e-03 -1.43838460e-02 -1.30533648e-03 -3.84664838e-03
      1.20249838e-02 1.14540644e-02 4.65956610e-03 5.44484286e-03
      1.68028008e-02 1.95416119e-02 1.22413551e-02 -1.09132482e-02
      -1.00809929e-03 1.99412499e-02 1.58891771e-02 7.92472041e-04
      1.12369731e-02 1.69719697e-03 -6.04366511e-03 -2.42921486e-02
      -2.52741817e-02 1.65278688e-02 1.10345576e-02 2.00798959e-02
      -2.98511540e-03 8.23331717e-03 6.17795717e-03 4.16987156e-03
      -3.19872312e-02 -3.66509780e-02 7.44639104e-03 2.86490144e-03
      -2.81231082e-03 -1.26976278e-02 -4.67153080e-03 -2.01436738e-03
      8.10549245e-04 -3.61636728e-02 -1.45994369e-02 1.12622781e-02
      2.68759374e-02 2.40164995e-02 1.75646730e-02 1.68712419e-02
      8.91622715e-03 4.63248556e-03 -2.87392717e-02 -1.99589208e-02
      1.19424798e-02 1.74740721e-02 1.07352389e-02 -3.38696362e-03
      1.85675472e-02 1.15504516e-02 2.34483206e-03 -2.53061708e-02
      -2.40815263e-02 3.90773639e-03 7.34938821e-03 -8.09074566e-03
      -2.87248455e-02 -7.91024417e-03 -6.07093982e-03 -1.93569911e-04
      -2.14174874e-02 4.42089839e-03 1.11213392e-02 1.67852803e-03
      -1.71970837e-02 -2.14897767e-02 5.58592239e-03 1.57624055e-02
      2.03779042e-02 4.60192049e-03 -1.74639225e-02 1.52603025e-02
      2.21425015e-02 7.93800876e-03 -8.80174339e-03 2.83187442e-02
      1.10965678e-02 1.03387777e-02 -1.79088898e-02 -1.28212208e-02
      1.20739983e-02 9.40059219e-03 -1.51419174e-02 -1.10877417e-02
      2.47819014e-02 2.05881447e-02 2.36560870e-02 -5.29291201e-03
      7.58782448e-03 1.06476648e-02 6.95227645e-05 -1.90715455e-02
      -1.54833011e-02 -4.70355293e-03 1.74556486e-02 2.42708120e-02
      2.12324318e-03 1.35716712e-02 1.23385014e-02 6.32771943e-03
      1.50348083e-03 2.43214588e-03 5.45450440e-03 1.33672915e-02
      1.64296571e-02 6.93712151e-03 -9.49866883e-03 3.86553816e-03
      -4.39074705e-04 -1.46572609e-02 -2.20765006e-02 -5.04606217e-03
      5.00148954e-03 1.42978961e-02 -1.34787643e-02 -3.30555718e-03
      -3.49043030e-03 1.87286653e-03 2.35102512e-02 1.17530543e-02
      1.80950295e-02 2.00874973e-02 1.13825342e-02 -3.06115113e-03
      -1.09165311e-02 -8.44196696e-03 -1.85741130e-02 -9.00143106e-03
      -3.55806500e-02 -8.56410526e-03 -2.58387969e-04 -1.20335789e-02
      -2.14637909e-02 8.54586810e-03 -4.68347874e-03 5.77930128e-03
      3.39582525e-02 1.28941126e-02 1.19297374e-02 2.22117621e-02
      4.77514649e-03 -5.81673114e-03 -1.68864504e-02 -8.26582499e-03
      -7.20597571e-03 1.25613874e-02 -1.84132699e-02 5.06681809e-03
      1.49750533e-02 -3.50320828e-04 -2.34960709e-02 1.03610568e-02
      1.43795973e-02 2.23020893e-02 3.56708393e-02 2.20273584e-02
      2.04664897e-02 3.25401723e-02 1.68648828e-02 -2.08051805e-03
      1.46746114e-02 -1.10224038e-02 -1.03741148e-02 3.40549625e-03
      -1.06593985e-02 1.09671173e-03 -1.51437067e-03 -9.43396334e-03
      4.65805503e-03 5.73858730e-02 7.62977172e-03 -6.17811782e-03
      -2.80033778e-02 -2.25768164e-02 7.40187825e-04 3.61346058e-03
      2.28045788e-03 4.79693860e-02 1.59917176e-02 -1.37097407e-02
      -2.56393012e-03 -9.22667980e-03 -1.81375071e-02 -6.91556372e-03
      -5.34477830e-03 -3.70385079e-03 1.14564756e-02 5.45129701e-02
      1.20346611e-02 4.62319097e-03 -8.86214897e-03 -2.92804800e-02
      -1.65624227e-02 -1.25907119e-02 1.13224480e-02 5.44849522e-02
      2.05430184e-02 3.17474641e-02 9.03165899e-03 -1.25550712e-02
      -3.19827348e-02 -4.27139848e-02 -1.77099165e-02 1.84935909e-02
      3.00233327e-02 2.89111175e-02 4.66987491e-02 1.17434729e-02
      -3.76273668e-03 -2.80734375e-02 -2.29543895e-02 -1.18672485e-02
      1.29458839e-02 2.88832504e-02 1.49625391e-02 2.50838678e-02
      1.84078161e-02 1.85666559e-03 -2.23499499e-02 -3.27666327e-02
      -2.58825603e-03 2.01684255e-02 2.63451021e-02 2.49382667e-02
      3.39185819e-02 2.10685469e-02 1.20542282e-02 -1.30032748e-02
      -2.85214093e-02 -5.17299585e-03 8.37869570e-03 3.06882355e-02
      2.97767278e-02 2.41060853e-02 7.10836193e-03 5.50802704e-03
      3.54716729e-04 -1.10147465e-02 -2.04731841e-02 -2.45479378e-03
      2.67621484e-02 2.16803921e-04 8.54229648e-03 1.17146233e-02
      9.58055723e-03 1.60108954e-02 3.03014573e-02 8.37063976e-03
      1.44119014e-03 1.44742616e-02 1.87680312e-02 1.47004453e-02
      2.35217586e-02 2.43270285e-02 1.15439948e-02 -1.56231523e-02
      -1.91439614e-02 -1.34972520e-02 9.69157089e-03 1.29255950e-02
      7.78400432e-03 1.99483242e-02 2.21276283e-02 2.36203261e-02
      3.49799497e-03 -1.03824334e-02 -2.24746298e-02 -2.00908468e-03
      3.53487907e-03 1.15723917e-02 6.81077084e-03 -1.36990217e-03
      1.38201881e-02 3.68084162e-02 4.85368213e-03 -9.01885238e-03
      5.05361846e-03 -6.43509021e-03 -9.10454328e-05 -1.10903885e-02
      -1.18024666e-02 8.86172615e-03 2.87243389e-02 7.38394540e-03
      9.56752105e-04 1.57830014e-03 3.74312699e-03 1.26825646e-02
      1.30527103e-02 9.78597254e-03 -5.63537615e-05 1.61466114e-02
      -5.68666961e-03 -1.99382473e-02 -3.01811425e-03 4.16430319e-03
      1.13388142e-02 2.18628533e-03 -9.80488025e-03 7.88213965e-03
      5.51503804e-03 -1.23438621e-02 -2.05907356e-02 9.01175663e-03
      -2.30192090e-03 5.14957123e-03 -3.48099298e-03 -5.57803130e-03
      9.11419094e-03 1.30809937e-02 1.83532797e-02 1.41271492e-02
      -2.86840857e-03 7.76600419e-03 1.92666706e-02 -1.21981248e-04
      -1.00189345e-02 -1.54516231e-02 -3.76840658e-03 8.74242280e-03
      1.75057054e-02 1.41953374e-03 -3.46740684e-03 7.23497663e-03
      6.27663918e-03 -8.18359572e-03 7.42157409e-03 -4.80095763e-03
      2.17326218e-03 -2.46226741e-03 -4.32427181e-03 3.27051198e-03
      1.24922954e-02 -6.42723171e-03 -1.54288504e-02 -1.69642922e-02
      -2.50697439e-03 2.42098118e-03 7.42112659e-03 -1.23704737e-02
      -5.99986361e-03 1.59539599e-02 -4.94399481e-03 -2.10684258e-02
      -2.70718290e-03 -1.80301964e-02 -1.44120269e-02 -4.18757612e-04
      3.46749875e-04 -9.71717853e-03 1.44819934e-02 -2.48106662e-03
      3.90267815e-03 1.11427549e-02 2.28468282e-03 -1.17188701e-02
      -2.40842416e-03 -5.76083595e-03 -4.29410813e-03 1.94760114e-02
      -7.79363513e-03 -2.69818120e-02 -2.33460334e-03 -7.33118132e-03
      6.88368129e-03 3.10294610e-03 -5.99351153e-03 -1.22645899e-04
      1.54284872e-02 -2.63691018e-03 9.46158264e-03 9.48000140e-03
      -2.94111227e-03 4.05619014e-03 6.08514901e-03 2.10662442e-03
      -4.11869586e-03 1.03261350e-02 -6.98506949e-04 -4.11796849e-03
      -5.83709497e-03 -4.43662331e-02 -2.92687379e-02 -4.63277986e-03
      6.46857405e-03 -8.20363499e-03 1.23691456e-02 1.27029875e-02
      -5.06718643e-03 6.44104835e-03 -2.75248159e-02 -3.09585240e-02
      7.55688362e-03 -7.25390343e-03 8.59707035e-03 3.04992101e-03
      4.00159555e-03 -3.74610675e-03 1.19006447e-03 -2.57317033e-02
      -8.27014633e-03 3.80822108e-03 1.92809291e-02 -3.55143379e-03
      9.52111499e-04 9.05987713e-03 1.11403447e-02 1.50160762e-02
      9.00479686e-03 -3.13335191e-03 1.85510907e-02 1.75269675e-02
      -2.42256764e-02 -1.84676833e-02 -6.05402654e-03 -1.27488486e-02
      1.35073867e-02 -1.96424592e-03 -2.18701754e-02 2.20518303e-03
      -1.03441346e-02 -8.06967076e-03 -1.57922860e-02 -7.14094797e-03
      7.70930259e-04 1.05402386e-02 -1.58837624e-02 -2.65416279e-02
      -5.82448440e-03 -3.80799687e-03 -3.54767824e-03 -1.39603435e-04
      1.64693762e-02 2.12799683e-02 1.43928975e-02 2.41230372e-02
      1.49106728e-02 2.17417516e-02 8.59316345e-03 3.60503397e-03
      1.66562514e-03 7.01337401e-03 1.88093446e-02 1.02033811e-02
      1.21002402e-02 1.52364643e-02 1.21392077e-02 9.89352353e-04
      3.27945105e-03 8.79869610e-03 1.33599958e-03 -5.74562280e-03
      2.53506973e-02 -8.98374431e-03 -2.74163038e-02 -2.73767998e-03
      1.81179959e-02 1.98968537e-02 1.41349994e-02 -6.52539497e-03
      -2.50594295e-03 7.04599265e-03 1.59736816e-03 -1.09550711e-02
      2.21914682e-03 2.39585750e-02 1.62102338e-02 9.03250743e-03
      3.89922271e-03 2.83005927e-03 1.16556827e-02 1.76711697e-02
      1.43347532e-02 1.03430804e-02 9.01949033e-03 8.89364723e-03
      1.87106170e-02 1.17685385e-02 1.17002623e-02 1.96315330e-02
      1.48992175e-02 -2.01502140e-03 7.33627053e-03 7.13986391e-03
      1.08603053e-02 1.25816660e-02 8.65968131e-03 8.81648995e-03
      3.84089467e-03 -1.67251807e-02 -9.35099181e-03 -1.11029751e-03
      1.42142028e-02 -4.38479381e-03 4.45407070e-03 1.94777176e-02
      1.28261223e-02 5.25315246e-03 -1.70839690e-02 -6.41880324e-03
      -3.00694606e-03 8.20390973e-03 1.06525756e-02 9.86762438e-03
      5.52867446e-03 9.12176538e-03 2.15791669e-02 -2.04139607e-04
      -7.29913125e-03 4.28754895e-04 1.19745014e-02 -4.47314559e-03
      1.43887091e-03 1.16472440e-02 1.18105358e-03 1.70557238e-02
      -9.35574248e-03 -1.05239507e-02 -1.81291141e-02 2.64451094e-03
      -1.74733251e-02 -3.53289791e-03 9.35376156e-03 1.37686096e-02
      1.38386218e-02 1.09484978e-03 -7.67295342e-03 2.33547715e-03
      3.27328919e-03 -2.68920511e-02 -6.18158979e-03 5.09413145e-03
      1.16128335e-02 4.93136141e-03 1.47187635e-02 -1.54596567e-02
      -1.43008651e-02 -2.04599239e-02 1.47594651e-03 8.32036790e-03
      1.03330901e-02 1.54059352e-02 2.06257813e-02 3.97047587e-03
      -1.60488393e-02 -9.83743835e-03 4.91356710e-03 -1.00518316e-02
      2.21309252e-02 1.93319973e-02 7.80542381e-03 9.17822495e-03
      9.90008470e-03 -7.12139485e-03 -4.37703915e-03 -4.60605230e-03
      -3.76725644e-02 2.06977106e-03 1.32176979e-02 4.80834488e-03
      2.42739753e-03 1.75269954e-02 -7.83145707e-03 -1.58862788e-02
      -2.91703492e-02 -3.43015678e-02 6.74904743e-03 -1.25079881e-03
      -1.42760547e-02 -6.21076766e-03 3.47518013e-03 1.06983399e-02
      -1.36736874e-02 -3.59735116e-02 4.99716867e-03 1.27021363e-02
      2.20713094e-02 1.49113452e-02 2.46910891e-03 2.32584849e-02
      1.50520196e-02 -2.11130275e-04 -1.84787938e-03 1.19151874e-03
      1.35623729e-02 -4.61743184e-04 1.16215704e-03 -2.36316957e-03
      1.41299469e-02 1.72966290e-02 -2.08026147e-03 -1.06750382e-02
      -1.85058173e-02 1.43665485e-02 1.48296524e-02 2.15325900e-03
      1.50156487e-03 1.53577216e-02 6.09976519e-03 -6.62464974e-03
      -2.13261619e-02 -1.41905248e-02 9.86602623e-03 2.53921840e-03
      -2.09887512e-02 -2.70726644e-02 7.90394843e-03 5.81197161e-03
      2.88321543e-03 -1.04604689e-02 1.69868805e-02 2.95017306e-02
      9.16884094e-03 -5.45144500e-03 -1.56792141e-02 8.24533310e-03
      2.44974717e-02 1.13297543e-02 8.82222038e-03 2.52827685e-02
      3.17125246e-02 2.26441212e-02 -1.38968099e-02 -3.79726738e-02
      8.69632140e-03 1.65994912e-02 1.67453792e-02 2.15337817e-02
      -2.78771445e-02 -1.81795133e-03 8.68552364e-03 -6.83720876e-03
      -1.99594852e-02 -4.78166528e-03 2.61464412e-03 6.33900799e-03
      -2.59191804e-02 -2.24734228e-02 -8.25843308e-03 7.33874086e-03
      1.51013713e-02 5.47612086e-03 2.52381098e-02 2.35373490e-02
      1.27030602e-02 -6.30123261e-03 -1.11503829e-03 1.89395994e-02
      2.28179730e-02 -1.56883709e-02 -3.75989154e-02 5.73131861e-03
      1.97236352e-02 2.14179084e-02 8.79711530e-04 -4.12750570e-03
      6.97381794e-03 1.76553186e-02 1.55201815e-02 -1.29261916e-03
      3.23500782e-02 2.40500104e-02 2.78078150e-02 3.84847214e-03
      -1.68775283e-02 -1.82257984e-02 -8.42119846e-03 2.61715474e-03
      -2.58474369e-02 6.69899338e-04 7.84960389e-03 2.63296347e-03
      -9.63896420e-03 1.08800754e-02 9.64500010e-03 1.27658304e-02
      1.71275847e-02 7.80119561e-03 1.69024654e-02 1.69289839e-02
      1.29583320e-02 3.56901647e-03 -1.22634750e-02 -6.17579836e-03
      -2.83953105e-03 2.30060471e-03 -2.23552827e-02 8.95756576e-03
      -3.98614909e-03 1.19735058e-02 -2.83774640e-03 3.31327990e-02
      2.13795081e-02 1.57357026e-02 1.62718091e-02 -1.12734325e-02
      1.80075057e-02 1.64002813e-02 1.78824514e-02 1.53647615e-02
      5.93186938e-04 -1.75010879e-02 -1.18315909e-02 -1.99901592e-02
      -2.20972970e-02 -4.51194821e-03 -1.21351490e-02 -7.42992340e-03
      9.42367129e-03 4.41113785e-02 7.21796090e-03 5.02751814e-03
      -7.53026083e-03 -2.92023923e-02 -1.50934272e-02 -1.41254906e-02
      1.61127858e-02 4.88670878e-02 9.35423467e-03 -2.15238798e-03
      1.38458528e-03 -4.95532248e-03 -2.96161752e-02 -8.45456496e-03
      -7.46990228e-03 2.22978240e-04 1.63603295e-02 4.24727760e-02
      2.24524867e-02 1.60621721e-02 4.02252236e-03 -1.58357993e-02
      -7.91668985e-03 -7.67016737e-03 1.68028753e-02 5.16570844e-02
      1.72993392e-02 2.65505966e-02 2.28831209e-02 1.58597268e-02
      -3.14367190e-02 -2.54910290e-02 -1.81728823e-03 2.05775369e-02
      2.43063625e-02 1.71679612e-02 1.48213543e-02 1.22954091e-02
      1.39281508e-02 -2.08777431e-02 -1.99944284e-02 7.73929339e-03
      1.29539454e-02 2.87403595e-02 9.55488533e-03 1.17095467e-02
      2.25843322e-02 1.75061524e-02 -1.24113252e-02 -2.11881530e-02
      2.16447730e-02 2.51427088e-02 1.79587658e-02 8.55920278e-03
      3.12413159e-03 2.40832139e-02 2.38782465e-02 -2.51571536e-02
      -3.49498168e-02 1.03440182e-03 4.25461493e-03 1.85263231e-02
      1.32586453e-02 9.06022359e-03 1.69019420e-02 2.96946522e-02
      2.61398833e-02 6.26680814e-03 -2.27982681e-02 -1.52356522e-02
      2.46921517e-02 1.54371606e-02 1.32304765e-02 1.69739891e-02
      3.29918265e-02 4.01662439e-02 1.21890437e-02 -2.44795717e-02
      -3.00607681e-02 1.06889764e-02 2.06039217e-03 8.12461693e-03
      1.01821013e-02 2.97186431e-02 5.39788697e-03 -3.38806934e-03
      -1.63474604e-02 -1.18188923e-02 1.61858276e-02 2.21031997e-02
      1.93885528e-02 1.25476252e-02 2.14259364e-02 2.25224495e-02
      1.44438418e-02 -2.77234856e-02 -2.50436477e-02 7.12401001e-03
      1.21450061e-02 1.68401618e-02 1.79231949e-02 3.11736818e-02
      1.93538591e-02 2.44129319e-02 -2.11790763e-02 -3.60142477e-02
      1.25526981e-02 1.19717466e-02 1.93476155e-02 1.21077634e-02
      1.16387699e-02 1.41409263e-02 1.37109472e-03 -1.59285814e-02
      -2.13685054e-02 1.38973994e-02 2.89877560e-02 2.55743898e-02
      2.42507681e-02 3.30565348e-02 2.38126796e-02 1.18789226e-02
      -3.05897072e-02 -2.98006553e-02 9.56346374e-03 1.17418049e-02
      3.28740403e-02 2.93105021e-02 2.09781174e-02 1.94190331e-02
      5.00742230e-04 -2.81916130e-02 -4.03095111e-02 -1.69896649e-03
      7.65361264e-03 1.00848321e-02 -1.12347270e-03 -9.60721727e-03
      5.97771769e-03 -5.08026395e-04 -9.51983326e-04 -9.05234367e-03
      3.57042463e-03 1.45349335e-02 1.51562411e-02 -6.47031702e-03
      -2.61598192e-02 -2.03167163e-02 1.65659189e-02 1.88296195e-02
      1.43211363e-02 9.37011279e-03 -3.94577254e-03 1.94263346e-02
      3.10896174e-03 -1.20162442e-02 1.24619610e-03 2.75574555e-03
      -9.95139405e-03 -1.07802926e-02 -5.11646271e-04 6.60988223e-03
      2.34012902e-02 -3.04915966e-03 -2.16556750e-02 -1.41309332e-02
      1.74111929e-02 1.50333596e-02 4.91152145e-03 2.52627127e-04
      8.42733495e-03 2.67151091e-02 6.73036731e-04 -2.45941933e-02
      -3.15426886e-02 -6.87955413e-03 4.99776285e-03 -1.89691503e-03
      5.47870761e-03 1.29283387e-02 2.95423642e-02 1.59613267e-02
      6.88887527e-03 -4.03630780e-03 -9.07673687e-03 1.21140936e-02
      -1.18323264e-03 7.33491359e-03 1.39501141e-02 2.24287361e-02
      -1.74381712e-03 -2.42311303e-02 -1.81059781e-02 -5.39310370e-03
      -7.19963713e-03 -9.71364137e-03 2.93407968e-04 2.13916153e-02
      2.45779026e-02 1.14890337e-02 1.09142428e-02 -5.09921787e-03
      -6.72003068e-03 6.88037695e-03 -6.03909139e-03 1.86805904e-03
      7.43634673e-03 8.07155482e-03 -7.55527290e-03 -8.80030263e-03
      -1.92667320e-02 -1.12331361e-02 -1.53363757e-02 -8.77349358e-03
      6.46922691e-03 3.00390273e-03 1.23526882e-02 9.86402156e-04
      1.03195701e-02 1.00829843e-02 1.45303039e-02 5.31902630e-03
      6.88739214e-03 8.57136678e-03 9.39208828e-03 1.39686489e-03
      -1.58996060e-02 -1.40724145e-02 -1.70148704e-02 -1.52837764e-02
      -9.70749243e-04 -4.11124714e-03 -9.30850161e-04 1.21791596e-02
      2.06922553e-03 4.26777545e-03 5.49558271e-03 -8.90800357e-03
      2.77328049e-03 1.44085400e-02 8.29224009e-03 2.59021297e-03
      -1.53532834e-03 -2.48824502e-03 -4.82453918e-03 1.59739628e-02
      -1.53067557e-03 9.11074597e-03 5.80697600e-03 7.87686557e-03
      4.82212054e-03 3.28232022e-03 7.67346378e-03 -3.98182683e-03
      7.35097751e-03 -2.83328188e-03 1.93308480e-02 2.04732940e-02
      1.36812711e-02 -7.48535385e-04 8.26605503e-03 -8.92892946e-03
      -5.19455038e-03 6.59586815e-03 -2.61973292e-02 -5.38775173e-04
      5.58276335e-03 1.01680402e-02 1.19594280e-02 1.86918676e-02
      1.73663180e-02 -5.75127592e-03 -1.09344479e-02 -1.88185871e-02
      -1.00819329e-02 6.76263077e-03 2.04222370e-02 1.88598167e-02
      1.25301871e-02 8.15293379e-03 -1.03364857e-02 -1.48606682e-02
      -5.78262610e-04 2.02974081e-02 1.78047977e-02 9.61224735e-03
      7.82208238e-03 1.87115818e-02 -3.07662762e-04 -1.78449620e-02
      -6.74249139e-03 5.36116445e-03 1.06169935e-02 -7.17677816e-04
      8.65689199e-03 2.07338165e-02 2.37203687e-02 2.04065386e-02
      -9.37544089e-03 -2.60411836e-02 -1.84110086e-02 1.18639730e-02
      1.59356277e-02 1.99575927e-02 2.73494404e-02 3.50369848e-02
      1.13260467e-02 -1.83016818e-04 -6.99301530e-03 -2.87028402e-03
      5.12321666e-03 2.02901606e-02 1.63997933e-02 3.35739739e-02
      6.97086798e-03 3.48783773e-03 -1.24077266e-02 2.84794695e-03
      3.06622242e-03 3.10504227e-03 -2.20631994e-02 -2.09459616e-03
      1.49966022e-02 -4.60750744e-04 1.53338187e-03 -2.77463882e-03
      -4.43147169e-03 1.85234305e-02 1.10111141e-03 -1.77002940e-02
      -9.59547050e-03 3.76965967e-03 1.55565152e-02 1.41488360e-02
      -1.09491814e-02 -8.87486059e-03 5.94913028e-03 1.76117604e-03
      -3.51880351e-03 3.83992656e-03 2.29643267e-02 4.22831671e-03
      2.75846608e-02 -7.90128019e-03 -9.15811583e-03 1.59453768e-02
      9.43385239e-04 -8.54333956e-03 5.04976953e-04 1.32543687e-02
      9.34899505e-03 9.33892187e-03 -2.45227525e-03 4.58002230e-03
      4.53938544e-03 -3.66720429e-04 -2.31581386e-02 -2.12487411e-02
      -4.43980377e-03 -5.03310887e-03 2.07714885e-02 1.19275665e-02
      1.97441643e-03 -1.11892270e-02 1.42380418e-02 -1.36794029e-02
      -1.19248629e-02 7.43329816e-04 2.06817109e-02 2.12312657e-02
      -6.78098248e-03 -3.04692960e-03 7.57334707e-03 2.27504130e-03
      -4.29598428e-03 1.03564914e-02 1.58343893e-02 7.61416648e-03
      9.89698060e-03 4.19724733e-03 8.49845912e-03 -5.82164270e-04
      2.10889895e-02 4.91587073e-03 -2.98465067e-03 7.27591198e-03
      -7.29113864e-03 1.43518848e-02 1.87872909e-02 9.73073766e-03
      -4.61537531e-03 1.72649249e-02 7.27133011e-04 -1.60356164e-02
      -8.19089264e-03 -7.66854873e-03 4.84087411e-03 -3.79724498e-03
      -1.39828967e-02 2.70308973e-03 1.37660280e-02 1.57423332e-04
      -1.84103381e-02 -1.22015188e-02 6.53151219e-05 3.81979370e-03
      -4.67860315e-04 -5.03755000e-04 8.24309234e-03 2.74231937e-02
      1.35009671e-02 -1.61672186e-03 -5.45211276e-03 1.08804805e-02
      5.05837321e-04 -1.46142850e-02 -1.79838538e-02 6.65371586e-03
      2.18453947e-02 1.99837256e-02 2.75048055e-03 -7.81164085e-03
      1.30613036e-02 1.28844744e-02 -3.01760156e-03 -6.97308872e-03
      -1.08271763e-02 1.06204012e-02 1.57532413e-02 -9.57662053e-03
      -5.19254385e-03 1.46434400e-02 1.65837780e-02 9.75993555e-03
      -1.94626506e-02 -1.95535589e-02 1.57167315e-02 2.31370386e-02
      4.74826340e-03 4.82692523e-03 1.56871025e-02 5.89025160e-03
      -1.01422258e-02 -2.50709169e-02 -1.85835978e-03 2.89950613e-02
      2.26084813e-02 8.38545430e-03 -3.09215998e-03 1.33258263e-02
      7.46096717e-03 -2.67714588e-03 1.61708484e-03 6.54532108e-03
      2.52350196e-02 2.20073648e-02 1.41411396e-02 6.93597877e-03
      -1.27771776e-02 -2.76715541e-03 -6.63984520e-03 -2.24980470e-02
      -4.19831276e-02 1.13400863e-02 7.99397100e-03 4.15561209e-03
      -6.37564063e-03 -1.55959465e-02 -1.46294041e-02 -1.44263376e-02
      6.73697703e-03 -1.17542986e-02 2.83266883e-02 1.96681377e-02
      1.43624181e-02 -1.54595627e-02 8.23530776e-04 -3.00058210e-03
      -6.62674149e-03 6.71611400e-04 -1.77363809e-02 2.51138080e-02
      9.74560902e-03 1.09389666e-02 -1.17260835e-03 1.50019387e-02
      6.98233256e-03 1.24866944e-02 1.52744213e-02 -6.14094501e-03
      2.50280350e-02 2.61033904e-02 9.87423491e-03 3.20069562e-03
      -1.14355311e-02 -1.61971375e-02 -2.02931464e-02 -1.64041377e-03
      -5.97662246e-03 2.08559614e-02 1.53771527e-02 7.34369503e-03
      -1.77534912e-02 2.16297265e-02 1.34080660e-03 -4.77311769e-05
      7.57508632e-03 -1.58369765e-02 2.03810949e-02 1.76758952e-02
      2.06758436e-02 7.19658751e-03 -2.42415257e-03 -2.34325114e-03
      -3.09568597e-03 7.94910081e-03 -1.07732499e-02 1.82072558e-02
      1.33792711e-02 1.06581266e-03 -6.45639701e-03 1.43839298e-02
      1.03527503e-02 8.43545888e-04 2.25117756e-03 -1.47415148e-02
      3.65369618e-02 9.53900442e-03 9.49777570e-03 6.77064667e-03
      1.43651552e-02 -1.23502295e-02 -1.05269188e-02 7.45553477e-03
      -1.99399982e-02 -5.05851721e-03 -1.16438400e-02 4.10763966e-03
      8.74165259e-03 3.06201931e-02 -4.85779019e-03 -1.01862242e-02
      2.20245449e-03 -4.19013854e-03 -1.12698413e-02 -3.42006003e-03
      1.24372412e-02 5.05321063e-02 9.50497203e-03 -1.03418743e-02
      -5.30784624e-03 4.77733463e-03 -1.54646477e-02 3.03284288e-03
      -1.11372704e-02 -4.44272504e-04 9.67887323e-03 2.89274771e-02
      -1.73268374e-02 -1.89221073e-02 -3.99651052e-03 1.17054423e-02
      3.95880872e-03 -1.99175999e-03 1.33682359e-02 3.74105275e-02
      4.36338084e-03 3.96244461e-04 7.98788853e-03 5.36987744e-03
      -1.07287010e-02 -2.52327435e-02 1.30061079e-02 1.51906712e-02
      1.15617393e-02 4.04974865e-03 5.94979106e-03 2.05820967e-02
      9.61077679e-03 -3.00313793e-02 -3.78124453e-02 -2.29417142e-02
      -1.98441371e-02 5.93574659e-04 2.38628406e-02 1.86634678e-02
      3.27351354e-02 1.56015325e-02 -5.47389034e-03 -1.21595589e-02
      1.16782011e-02 2.38753706e-02 2.70962194e-02 1.69772506e-02
      3.32542732e-02 3.14808302e-02 1.13931978e-02 -5.40537946e-03
      -2.47244388e-02 2.42295605e-03 9.30617005e-03 1.27093298e-02
      -1.25029334e-03 1.33941891e-02 1.47002637e-02 1.43595058e-02
      -7.75462948e-03 -1.26570296e-02 -2.92516872e-02 -1.77649111e-02
      4.83852299e-03 1.38382241e-02 2.36809961e-02 1.52552016e-02
      1.19085042e-02 -9.69999190e-03 3.43911059e-04 -2.42077280e-02
      -2.65040901e-02 -4.29030880e-03 -4.33695782e-03 2.71492321e-02
      2.19980627e-02 7.99739733e-03 1.00860756e-03 4.86877019e-04
      -3.97050520e-03 2.87163188e-03 -4.71695978e-03 -1.26073677e-02
      2.41002869e-02 2.25912165e-02 1.70533489e-02 -4.10186080e-03
      2.27427483e-02 1.59371062e-03 -2.58799363e-02 -1.67563185e-02
      1.07430192e-02 4.14254107e-02 2.07639337e-02 1.99610963e-02
      1.21355848e-02 1.20154079e-02 -3.43934037e-02 -3.35188620e-02
      1.11509673e-03 -5.57181146e-03 3.55631486e-02 3.01305708e-02
      1.90800522e-02 1.86361261e-02 3.81713570e-03 -3.36994156e-02
      -3.82530987e-02 -1.39271840e-02 -1.86092332e-02 3.27839665e-02
      2.50857007e-02 2.54249778e-02 1.07595520e-02 1.34797748e-02
      2.30574165e-04 -2.29468681e-02 -2.58155502e-02 -2.03626826e-02
      4.28484902e-02 2.89319307e-02 1.19898859e-02 1.04909064e-02
      -5.82369696e-03 -3.10318638e-02 -3.18113491e-02 -4.01101708e-02
      -2.22884654e-03 3.01816165e-02 2.30577532e-02 1.39301771e-03
      1.04049081e-02 8.99136998e-03 -2.00615358e-02 -2.20353026e-02
      3.53623836e-05 4.89631807e-03 3.19025405e-02 1.58683807e-02
      -9.62236617e-03 -4.09580162e-03 1.34986779e-02 7.78268976e-03
      -6.29325723e-03 -5.09866141e-03 2.25345651e-03 3.99766862e-02
      2.22266689e-02 5.90850879e-03 1.42990742e-02 -1.10786604e-02
      -2.15866882e-02 -1.86796319e-02 -1.56304184e-02 -2.58220872e-03
      2.60967351e-02 1.48875210e-02 -6.79878471e-03 7.06939260e-03
      7.04927742e-03 5.74619649e-03 -9.50520393e-03 -1.25172241e-02
      1.27564156e-02 2.21467800e-02 6.53298153e-03 -2.45703738e-02
      -1.69058777e-02 -1.27204908e-02 -4.81041335e-03 2.24540429e-03
      1.73741451e-03 2.05221064e-02 1.40458476e-02 -9.02700995e-05
      6.27120445e-03 -1.02175856e-02 -6.85620261e-03 5.67508116e-03
      1.74296144e-02 1.99468024e-02 -6.14856137e-04 1.34608820e-02
      1.84268686e-06 -1.21837659e-02 -3.56449559e-03 -7.88757391e-03
      -6.97009359e-03 1.71796593e-03 -2.96231685e-03 1.12888450e-03
      -4.64247540e-03 -1.08506428e-02 -1.32965017e-03 -1.64367203e-02
      -1.12784924e-02 -1.33846933e-02 5.72870811e-03 2.14435975e-03
      1.15625905e-02 6.06826367e-03 -9.33089573e-03 -2.99990480e-03
      -1.20225223e-02 -3.09075881e-03 6.70712115e-03 2.55485699e-02
      1.69669650e-02 1.64914038e-02 7.06086110e-04 -3.04693333e-03
      1.78332510e-03 -1.36638116e-02 5.82737103e-03 2.47344319e-02
      3.20483707e-02 2.16173660e-02 -6.71338290e-03 -1.75024811e-02
      -2.00954434e-02 -1.66356210e-02 -2.88670585e-02 -1.30824046e-02
      -3.07324599e-03 1.13124019e-02 -4.92692040e-03 -9.13216732e-03
      -1.12669142e-02 -1.57309435e-02 -9.94646829e-03 -2.13425234e-02
      6.19626138e-04 2.24151202e-02 2.34820358e-02 1.11219110e-02
      5.88672981e-03 -9.47636738e-03 -1.00513510e-02 3.73221794e-03
      -1.92990117e-02 -2.95044109e-03 5.38243493e-03 1.15800947e-02
      1.57722030e-02 2.09488682e-02 1.92545988e-02 -8.57744738e-03
      -1.27774812e-02 -1.83028746e-02 -9.36825015e-03 5.76652959e-03
      2.36354806e-02 2.61014383e-02 -2.41223536e-02 -1.13967424e-02
      -2.38896459e-02 -4.06700047e-03 -1.50190257e-02 9.24186024e-04
      8.83995369e-03 1.66587427e-03 -1.99372061e-02 -5.40869962e-03
      2.61522736e-03 -1.70693863e-02 -7.90548883e-03 -1.14841210e-02
      -5.25798649e-03 -3.27117671e-03 1.06769772e-02 -8.07967316e-03
      2.26433389e-02 7.32826442e-03 -5.75635815e-03 -3.40133645e-02
      -9.19037592e-03 2.52501410e-03 4.42735804e-03 1.94462389e-02
      3.46223265e-02 1.67447720e-02 4.88631567e-03 -7.10212393e-03
      -1.13050947e-02 1.27548147e-02 1.43926181e-02 4.86684171e-03
      5.24953939e-03 2.55310927e-02 -4.43384657e-03 3.56450124e-04
      -2.03076471e-02 -2.71646921e-02 3.70773626e-03 -2.69866362e-03
      -3.77506413e-03 1.47301871e-02 -7.75724836e-03 -1.20833544e-02
      -5.39553259e-03 -1.67578198e-02 -1.28762908e-02 1.69136142e-03
      7.15088239e-03 -4.63830959e-03 4.33515990e-03 -1.19311670e-02
      9.67680942e-03 1.53306108e-02 -1.05900166e-03 -3.65175796e-03
      1.39376065e-02 1.10495482e-02 -1.13776932e-02 -1.58350784e-02
      -2.29295413e-03 1.79174019e-03 2.58182902e-02 1.00898994e-02
      1.23664290e-02 3.15868333e-02 1.53781082e-02 -1.13999536e-02
      -7.80478539e-03 -1.42281810e-02 -2.56834943e-02 -1.25487819e-02
      -2.19790451e-02 -1.14316149e-02 1.02767264e-02 1.54412035e-02
      -7.30497204e-03 -6.93233125e-03 -2.37348247e-02 -1.81778576e-02
      -1.38860438e-02 -3.59352725e-03 -1.09006884e-03 1.01770470e-02
      1.98180247e-02 9.37649142e-03 -5.70825720e-03 -1.55498013e-02
      4.70972247e-03 2.69923136e-02 3.96298664e-03 1.42178331e-02
      4.09408547e-02 1.29528092e-02 -7.60290446e-03 5.67661738e-03
      4.32895217e-03 3.66348098e-03 1.42880324e-02 -5.16637322e-03
      8.15032609e-03 5.97459311e-03 3.39550674e-02 6.09063311e-03
      -2.00324436e-03 5.08103476e-05 -5.02138305e-03 1.49452314e-03
      -8.38248711e-03 4.83483449e-03 1.47479270e-02 1.84893869e-02
      8.29181820e-03 -1.05519816e-02 -1.38282012e-02 7.52667943e-03
      -2.84306263e-03 -2.35987082e-02 -4.88426303e-03 2.78949668e-03
      3.36819626e-02 1.45182582e-02 -5.94320241e-03 -6.86127460e-03
      -1.79691799e-03 -2.30433634e-05 -5.23878611e-04 -4.27255034e-03
      2.02012435e-02 3.07218339e-02 6.08424377e-03 -9.35683772e-03
      -1.17663741e-02 -5.46663115e-03 -2.08998751e-03 -1.78415384e-02
      -1.58547349e-02 1.26574766e-02 2.40909420e-02 1.94483958e-02
      6.40968280e-03 -8.60452279e-03 -1.74824882e-03 -2.93725030e-03
      -2.25811824e-02 -2.85700634e-02 1.09411450e-02 1.93344206e-02
      7.12974695e-03 1.75438577e-03 -4.51925350e-03 1.01283109e-02
      7.89740065e-04 -1.35028865e-02 -2.27352604e-02 2.83542760e-02
      2.57185139e-02 2.72664353e-02 1.43311974e-02 1.20634511e-02
      6.04161480e-03 5.71292127e-03 -2.36609988e-02 -3.60434465e-02
      -3.85157089e-03 1.59463752e-02 1.53078802e-03 -7.04020029e-03
      -5.25209773e-03 1.27483785e-04 1.05040446e-02 -3.57995066e-03
      -1.77956577e-02 -1.09902658e-02 1.22810602e-02 -8.09292495e-03
      -1.53432544e-02 -1.09086940e-02 1.01570087e-02 8.38887040e-03
      -4.09651641e-03 -3.70522439e-02 -3.11314873e-03 3.03280465e-02
      1.64224859e-02 5.57447970e-03 -3.36798211e-03 4.52149240e-03
      1.23953782e-02 1.00940256e-03 -1.38697652e-02 -7.35033210e-03
      2.58531142e-02 2.91500855e-02 4.94614616e-03 5.53509337e-04
      4.41432385e-05 7.74982618e-03 -4.69573075e-03 -1.48922373e-02
      -2.22391617e-02 1.38228368e-02 -3.33524542e-03 -1.05751166e-02
      -5.14953258e-03 2.13184534e-03 1.03236390e-02 2.90574273e-03
      5.10967057e-03 -5.36311837e-03 1.28910448e-02 4.74819029e-03
      -8.41015484e-03 -7.22989580e-03 -1.41798961e-03 1.53695568e-02
      -1.32550057e-02 -2.05779821e-02 -1.35581717e-02 2.60811597e-02
      2.58882456e-02 -3.58957960e-03 -9.89926886e-03 -2.19950103e-03
