<?xml version="1.0"?>
<opencv_storage>
<my_svm type_id="opencv-ml-svm">
  <svm_type>C_SVC</svm_type>
  <kernel><type>LINEAR</type></kernel>
  <C>1.0000000000000000e-02</C>
  <term_criteria><epsilon>1.1920928955078125e-07</epsilon>
    <iterations>1000</iterations></term_criteria>
  <var_all>1764</var_all>
  <var_count>1764</var_count>
  <class_count>2</class_count>
  <class_labels type_id="opencv-matrix">
    <rows>1</rows>
    <cols>2</cols>
    <dt>i</dt>
    <data>
      -1 1</data></class_labels>
  <sv_total>1</sv_total>
  <support_vectors>
    <_>
      -1.21399593e-02 -1.39458971e-02 -2.54322169e-03 1.03023406e-02
      4.66873161e-02 3.14063393e-02 5.17240129e-02 2.82473657e-02
      1.20860292e-03 -3.66152450e-02 -3.62317823e-02 -3.21646444e-02
      -2.55150441e-02 2.22058389e-02 1.96533110e-02 1.94555856e-02
      8.67266301e-03 -3.46246921e-02 -3.41235921e-02 -4.24595661e-02
      -4.97602746e-02 -1.43976770e-02 2.52784044e-02 4.23250981e-02
      5.00234552e-02 1.57406125e-02 -1.90108288e-02 -6.57530650e-02
      -6.40352964e-02 -8.16523954e-02 -5.59111647e-02 -2.41600834e-02
      4.49398644e-02 3.71672586e-02 3.04683927e-04 -6.51288405e-02
      8.64665664e-04 -5.09060500e-03 -1.99257694e-02 2.64564678e-02
      3.17696705e-02 3.90445767e-03 5.90307871e-03 2.33121980e-02
      -1.47372102e-02 1.53625952e-02 -4.14979346e-02 -1.03600442e-01
      -4.95333262e-02 -2.17164848e-02 -9.59480181e-03 4.84158192e-03
      1.48490379e-02 -3.58642009e-03 -8.21245275e-03 -3.26456279e-02
      -5.80916591e-02 -2.44950559e-02 -9.34017263e-03 -3.14527866e-03
      1.42331552e-02 1.74773745e-02 -3.42806918e-03 2.20229179e-02
      -5.24230637e-02 -9.77316648e-02 -1.12916872e-01 -8.77266675e-02
      -5.87892383e-02 -8.01465008e-03 7.17606070e-03 1.85924452e-02
      -1.52919330e-02 -6.78603053e-02 -1.24844864e-01 -2.96178889e-02
      1.45191681e-02 4.78261849e-03 -6.40929211e-03 3.08240438e-03
      -8.24827980e-03 -1.38274133e-01 -1.36789516e-01 -1.10619843e-01
      -2.09150035e-02 3.31552364e-02 9.74280387e-03 -2.72414405e-02
      -5.33647686e-02 -9.44488645e-02 7.33310655e-02 8.89675412e-03
      -4.93122451e-02 -6.71782345e-02 -4.90804724e-02 -2.75859274e-02
      5.33139147e-03 3.73646878e-02 7.06030950e-02 3.86644490e-02
      2.05184836e-02 4.42853384e-03 -8.07342492e-03 1.92864425e-02
      8.88621202e-04 2.63918890e-04 3.84778939e-02 4.51304242e-02
      -1.62723914e-01 -1.04364783e-01 -6.14537187e-02 1.84340477e-02
      8.70321468e-02 3.15863127e-03 -7.08294958e-02 -8.70518908e-02
      -1.35420442e-01 -1.45135060e-01 -7.57132918e-02 -3.06282192e-02
      3.15862484e-02 5.35367839e-02 -2.14175265e-02 -8.85532647e-02
      -9.30285901e-02 -1.19846679e-01 1.09389666e-02 3.50042954e-02
      1.22659346e-02 3.46360095e-02 5.98618276e-02 9.85842780e-04
      -2.04747450e-02 1.82612445e-02 -9.96322650e-03 1.03025381e-02
      4.51496132e-02 4.75083478e-02 3.81002761e-02 3.08426544e-02
      -2.97803245e-02 -2.38277316e-02 -9.74040665e-03 -1.70601439e-02
      -1.19396843e-01 -3.26822624e-02 -2.18222640e-03 2.49505863e-02
      3.72879207e-02 -5.40241525e-02 -9.68290344e-02 -9.41727087e-02
      -9.74299461e-02 -5.78224398e-02 2.57921983e-02 4.89008129e-02
      4.76302207e-02 3.58024798e-02 -4.64753583e-02 -7.97459558e-02
      -8.39945227e-02 -7.07975402e-02 1.01534082e-02 4.04378064e-02
      2.27107201e-02 2.70563178e-02 -1.88318714e-02 -6.28903136e-02
      -4.99791838e-02 -1.97635461e-02 -1.67350238e-03 2.65334379e-02
      5.91480918e-02 4.26299796e-02 3.33801918e-02 -1.62058286e-02
      -5.82352802e-02 -4.59486209e-02 -8.29283334e-03 2.29381286e-02
      -7.53915608e-02 2.73816455e-02 4.79032211e-02 3.85338962e-02
      2.42714826e-02 -9.02960896e-02 -1.62385434e-01 -1.20091408e-01
      -1.00021265e-01 -2.52252910e-02 5.43418191e-02 6.01516217e-02
      6.73833191e-02 4.18701656e-02 -5.57359681e-02 -1.38004318e-01
      -1.16880007e-01 -6.13985248e-02 -2.99592782e-03 5.57800457e-02
      4.11543660e-02 1.96721870e-02 -5.33912517e-03 -8.04787800e-02
      -7.74874985e-02 -2.75995936e-02 -1.15529466e-02 2.98490003e-02
      7.74956942e-02 7.11848959e-02 5.05485050e-02 -1.00143030e-02
      -5.10005094e-02 -5.65176271e-02 -6.25561411e-03 -1.80404889e-03
      -5.11774532e-02 5.30077424e-03 -3.19800666e-03 2.36263052e-02
      2.66140010e-02 -7.01776519e-02 -1.62824944e-01 -1.48051217e-01
      -9.04765427e-02 4.57433658e-03 3.64915840e-02 3.85914929e-02
      1.06565669e-01 1.04999945e-01 6.70936750e-03 -8.71791467e-02
      -8.11911076e-02 -1.85476132e-02 -2.80702319e-02 1.21495668e-02
      1.43572697e-02 1.60200261e-02 -3.89093459e-02 -9.55088660e-02
      -9.06856880e-02 -5.96365258e-02 -5.76606393e-02 6.36842242e-03
      3.06114089e-02 5.46152852e-02 8.74719396e-02 2.46096682e-02
      -5.36208600e-02 -4.11571935e-02 -1.92621369e-02 -1.12247486e-02
      -6.04525162e-03 -1.56379119e-02 -3.14238407e-02 -2.87187262e-03
      3.28397714e-02 3.70167755e-02 4.54652458e-02 2.57209968e-02
      1.43551407e-02 -5.20660728e-02 -2.82618254e-02 -3.83488648e-02
      1.93997137e-02 4.17733900e-02 7.47011080e-02 5.07421978e-02
      2.74394434e-02 -2.63705980e-02 -2.26206593e-02 -4.20321263e-02
      -5.55247925e-02 -2.51051448e-02 -4.21868730e-03 3.05330958e-02
      3.12503204e-02 1.79635622e-02 -9.39194392e-03 -1.47318944e-01
      -1.13621652e-01 -1.06330402e-01 -1.33501161e-02 3.65612097e-02
      6.00284711e-02 4.18187976e-02 1.38701247e-02 -9.61642712e-02
      -9.14299209e-03 -5.11519890e-03 -3.36616561e-02 -7.09108310e-03
      1.19830864e-02 2.77525112e-02 4.04501371e-02 3.29610296e-02
      3.03138955e-03 3.13839428e-02 8.18902999e-03 -3.13997045e-02
      -4.82919924e-02 -7.58042485e-02 -3.52639183e-02 1.12328781e-02
      2.61822622e-02 4.37732749e-02 -7.11178035e-02 -6.82319179e-02
      -8.88535231e-02 -2.28308327e-02 -8.80049833e-04 2.57899221e-02
      4.69371900e-02 2.85764318e-02 -3.16747427e-02 -1.16708530e-02
      -4.79433499e-03 -3.01206224e-02 -7.74885714e-02 -8.00620541e-02
      -4.35865633e-02 9.35867149e-03 3.44356000e-02 1.07498802e-02
      3.75250429e-02 1.67902987e-02 -2.09369939e-02 -7.34409168e-02
      -9.18907449e-02 -6.92057237e-02 -3.89008187e-02 1.02083702e-02
      4.05484848e-02 4.20592763e-02 3.96929160e-02 2.06336211e-02
      -6.81029307e-03 -2.89044362e-02 -1.77726708e-02 -1.51450457e-02
      3.52496505e-02 3.08161508e-02 1.74490437e-02 1.39533952e-02
      -1.74279790e-02 -6.84675649e-02 -9.05379578e-02 -7.33783618e-02
      -4.95335124e-02 2.17990410e-02 1.98493414e-02 3.15147936e-02
      5.02919853e-02 4.14448902e-02 7.29039637e-03 -3.40637527e-02
      -3.20967473e-02 9.71623138e-03 4.21684235e-02 3.03899422e-02
      3.62876593e-03 2.43541375e-02 1.12747140e-02 1.37209557e-02
      -2.38988036e-03 -3.59479077e-02 -6.77896813e-02 -1.44818872e-02
      -2.57660970e-02 4.10546642e-03 2.55172476e-02 7.40160374e-03
      2.65486110e-02 -7.90390931e-03 -4.80958372e-02 -7.06941560e-02
      -3.00607812e-02 -2.87909303e-02 -3.61618912e-03 1.85030978e-02
      2.07785200e-02 3.82407010e-03 7.54412543e-03 -2.06976254e-02
      -2.55661625e-02 -1.44895269e-02 -2.03684829e-02 -2.40952522e-02
      3.11280251e-03 1.22151803e-02 4.07127775e-02 2.59893816e-02
      -1.25839626e-02 -8.60744901e-03 -1.55083761e-02 -3.27934027e-02
      1.64509062e-02 2.81361733e-02 7.67603284e-03 2.38982048e-02
      -4.77461927e-02 -4.62743305e-02 -5.24421632e-02 -1.37626175e-02
      6.56617060e-03 2.38904357e-02 6.26080334e-02 5.21519035e-02
      3.41358744e-02 -2.71110311e-02 -5.21138832e-02 -4.36718017e-02
      -1.68000720e-02 2.88653541e-02 -2.41998099e-02 5.60734328e-03
      7.75283296e-03 2.70456690e-02 -6.08300278e-03 -1.60492472e-02
      -6.99730171e-03 -2.92766653e-03 -1.43838925e-02 -8.23051028e-04
      6.48463890e-02 6.59419671e-02 4.06938083e-02 2.15852796e-03
      -3.37756872e-02 -1.92042009e-03 1.54692037e-02 2.03765240e-02
      -7.83709902e-03 4.02442403e-02 3.36275883e-02 9.67893191e-03
      -2.58434378e-02 -5.79671785e-02 -5.82422242e-02 -1.16861211e-02
      -1.67899858e-03 3.19563481e-03 4.51318510e-02 4.12932262e-02
      4.31210734e-02 -2.12554578e-02 -2.71334816e-02 -8.97315051e-03
      2.52352059e-02 -9.58513352e-04 -3.20614800e-02 4.56112772e-02
      5.87099157e-02 2.21463311e-02 -1.67983696e-02 -7.32466280e-02
      -4.40863669e-02 -2.64540631e-02 -3.51576731e-02 -3.56387310e-02
      5.33178896e-02 7.33917728e-02 6.38705567e-02 -2.61514494e-03
      -4.38162573e-02 -1.38015673e-02 2.39607338e-02 -2.65392121e-02
      -1.66658890e-02 -4.88182675e-04 -2.27671873e-04 1.22787273e-02
      -6.17994778e-02 -9.66992229e-02 -6.73274770e-02 -3.25621739e-02
      -3.63019556e-02 4.71203439e-02 2.63423156e-02 3.14828865e-02
      4.47096266e-02 -1.56623907e-02 -6.67439252e-02 -9.35262535e-03
      2.65185125e-02 4.66975644e-02 -3.77888158e-02 1.39942225e-02
      1.63003039e-02 5.94398053e-03 -4.33823839e-02 -8.08945969e-02
      -6.30678236e-02 -2.66102478e-02 -4.53298129e-02 7.54638687e-02
      8.22100565e-02 7.05569610e-02 3.42722088e-02 -3.91333327e-02
      -3.54886763e-02 -6.06049132e-03 2.05613412e-02 5.77267446e-02
      2.01963857e-02 -2.29627602e-02 -6.79882690e-02 -3.43122780e-02
      -2.59742271e-02 2.12090742e-02 3.56024727e-02 3.15253548e-02
      2.32184250e-02 -6.97216988e-02 -9.34590846e-02 -9.99260098e-02
      4.59198952e-02 9.29360017e-02 7.57716820e-02 4.55643646e-02
      1.53331263e-02 -4.70277369e-02 4.96150665e-02 -5.70443645e-02
      -9.01844800e-02 -8.22594538e-02 -5.79698831e-02 -1.07368445e-02
      3.18601280e-02 4.72686961e-02 6.24538623e-02 -4.14971411e-02
      -6.58379346e-02 -5.36263771e-02 3.02851256e-02 8.38218033e-02
      8.36739317e-02 5.23598790e-02 2.29008514e-02 -3.64119373e-02
      -4.99930643e-02 -5.79895712e-02 -8.06400403e-02 -1.11226793e-02
      -4.70823608e-03 2.33790819e-02 3.21079195e-02 2.17206106e-02
      -3.58703323e-02 2.87900046e-02 5.87101514e-03 -3.08983345e-02
      -7.22826272e-02 -7.58720860e-02 -6.58838749e-02 3.73941078e-03
      4.72482741e-02 3.36299986e-02 -1.47578353e-02 -2.64559742e-02
      -3.35583352e-02 6.23980886e-04 1.12006888e-02 3.21831554e-02
      2.71781627e-02 2.59215031e-02 -1.68499593e-02 4.90319803e-02
      3.93256731e-02 1.56902038e-02 -3.87315601e-02 -4.74484302e-02
      -5.26514836e-02 1.05059920e-02 5.92403486e-02 4.62081321e-02
      3.61775383e-02 1.20025240e-02 -2.02641618e-02 -7.14267939e-02
      -9.73340720e-02 -7.67453983e-02 -4.36881445e-02 2.79360171e-02
      2.58408841e-02 3.79018597e-02 4.13763002e-02 1.91991553e-02
      -1.89425182e-02 -3.38698886e-02 -4.63790027e-03 1.03697721e-02
      3.84110510e-02 4.58154753e-02 4.97159809e-02 3.27252932e-02
      -2.78860261e-03 -5.70642389e-02 -6.97697327e-02 -5.70017099e-02
      -1.01179555e-02 2.89838109e-02 3.28491814e-02 3.65885086e-02
      2.30451394e-02 1.90147228e-04 -1.63065288e-02 -3.41479704e-02
      -5.90265496e-03 1.31478645e-02 1.85055211e-02 4.25426327e-02
      1.64329000e-02 1.51076671e-02 4.38110670e-03 -1.69861726e-02
      1.22492090e-02 -1.20153679e-02 -8.76391120e-03 9.01088119e-03
      2.34878045e-02 -1.03423139e-02 -1.43835861e-02 -2.15219893e-02
      1.16617437e-02 2.16676369e-02 4.75947512e-03 2.60772388e-02
      1.39307315e-02 -4.47771698e-03 -4.44052415e-03 -1.62166283e-02
      -2.98666377e-02 -5.16633168e-02 -1.90253500e-02 -4.19728719e-02
      -2.52009314e-02 -1.37666650e-02 1.38247926e-02 -1.56166451e-02
      -3.01232617e-02 -3.28975841e-02 -1.65762398e-02 -1.11828428e-02
      -2.40098787e-04 2.38267351e-02 6.70368737e-03 7.81614427e-03
      -1.88351180e-02 9.59443673e-03 -8.33193772e-03 1.91974100e-02
      -2.51002237e-03 5.54809626e-03 2.47363038e-02 5.98881533e-03
      -1.37031712e-02 -1.38394805e-02 5.16895242e-02 2.60416921e-02
      3.37102637e-02 -2.54096556e-02 -1.58510506e-02 1.73973683e-02
      -3.52486526e-03 -1.53282760e-02 -7.31836911e-03 -1.97882019e-02
      -1.83016509e-02 1.03300409e-02 -6.51812321e-03 4.45934385e-02
      3.49793881e-02 1.45158358e-02 -1.60768314e-03 -4.00166400e-02
      4.08902153e-04 1.12104858e-03 -1.64523823e-04 -3.58691886e-02
      -8.35694897e-04 1.39487013e-02 3.70445754e-03 -4.02251482e-02
      -3.65589596e-02 4.88268025e-02 5.91630079e-02 5.32803386e-02
      -2.83558741e-02 -3.93420868e-02 -1.77568272e-02 -2.17399700e-03
      -5.08963540e-02 -3.29768620e-02 5.35155199e-02 8.90790895e-02
      7.70529434e-02 1.88206788e-02 -4.01091995e-03 1.89422332e-02
      3.94807942e-02 -2.72912141e-02 -7.45129883e-02 -1.34184887e-03
      9.69640911e-03 1.05559193e-02 -4.34924029e-02 -3.16534936e-02
      -1.72844455e-02 -1.31819472e-02 -8.18846896e-02 -4.51425575e-02
      3.35011147e-02 6.30676299e-02 4.83321920e-02 -1.51216211e-02
      -2.07656645e-03 2.15355717e-02 1.37899546e-02 -4.41467836e-02
      -3.82395722e-02 1.56270321e-02 3.30824107e-02 1.57641508e-02
      -4.97326031e-02 -3.68861556e-02 -3.24713327e-02 -7.47091777e-04
      -4.04285081e-02 9.01311710e-02 9.43317786e-02 9.40835699e-02
      5.81208579e-02 -4.25182395e-02 1.85827576e-02 3.11018527e-02
      6.33588955e-02 7.08166510e-02 -7.71674290e-02 -9.74092074e-03
      2.45386362e-02 1.69112405e-03 -7.00209141e-02 -3.76465283e-02
      -3.16678807e-02 -4.79202606e-02 -8.44278336e-02 3.55908871e-02
      7.55189806e-02 7.94982910e-02 2.99825072e-02 -6.99984729e-02
      4.06652363e-03 1.50044896e-02 3.23797278e-02 3.23661678e-02
      5.72278500e-02 -2.21217722e-02 -6.16053343e-02 -9.87082943e-02
      -1.39572844e-01 -6.51377961e-02 2.06121430e-02 3.82734239e-02
      7.10729808e-02 -4.45673475e-03 -2.33253557e-02 -2.74023898e-02
      2.29699388e-02 4.28171717e-02 8.30371305e-02 4.85592000e-02
      2.47627217e-02 1.88790821e-02 5.66230975e-02 3.51682603e-02
      9.83154215e-03 -6.50570542e-02 -1.40064016e-01 -1.19241506e-01
      -3.34517621e-02 -2.04161205e-03 5.81608936e-02 1.78052939e-03
      2.11393591e-02 2.14901399e-02 2.64253449e-02 1.57017764e-02
      1.06906313e-02 1.87476387e-03 1.07402354e-03 -1.25489582e-03
      -1.87682379e-02 2.78097601e-03 -8.01918749e-03 -5.24968980e-03
      -2.03344747e-02 3.63552198e-02 1.50494976e-02 1.31650027e-02
      -1.45697617e-03 3.72110978e-02 2.84715146e-02 1.22619383e-02
      -3.63544822e-02 -6.67751506e-02 -5.00448942e-02 -2.95616919e-03
      3.21893878e-02 1.72815472e-02 -2.14613769e-02 2.70757917e-02
      1.18905203e-02 -5.21896826e-03 -4.50802930e-02 -2.04258133e-02
      1.07976759e-03 -1.27783767e-03 -1.57871898e-02 1.70919318e-02
      3.01936865e-02 -7.76007771e-03 -4.90767546e-02 -6.98008910e-02
      -8.23494941e-02 8.58280063e-03 2.36732308e-02 2.49286229e-03
      6.12433329e-02 3.32751498e-02 7.44746998e-03 -2.13613044e-02
      -6.41457289e-02 -6.32813722e-02 -2.11168006e-02 1.82330515e-02
      3.68062481e-02 4.09632325e-02 1.13181621e-02 2.95712356e-03
      -5.23468899e-03 -3.98407653e-02 -2.58755945e-02 -2.04698946e-02
      -1.18594884e-03 3.59215327e-02 3.91998552e-02 2.43567154e-02
      1.49991189e-04 -3.58205065e-02 -7.28607923e-02 -7.65822679e-02
      -9.90963262e-03 3.24253924e-02 2.91379727e-02 2.70454176e-02
      2.21548416e-03 1.60858706e-02 -6.36584032e-03 -5.20843305e-02
      -2.60626283e-02 -2.07404140e-02 9.69794765e-03 3.65777947e-02
      1.12506030e-02 -1.98822860e-02 -3.77578996e-02 -2.47072168e-02
      1.62444869e-03 -2.55352203e-02 -4.68436517e-02 -1.82269830e-02
      2.25666519e-02 -1.03213103e-03 -2.65964251e-02 -3.85038368e-02
      -5.95977949e-03 -4.95426171e-03 2.09795050e-02 -1.07838893e-02
      -6.14986336e-03 2.06290428e-02 1.25849647e-02 -2.10410152e-02
      -2.00178102e-02 1.38867612e-03 -4.13062377e-03 -1.06220869e-02
      -3.82612050e-02 -1.82812568e-02 2.21652221e-02 1.04960031e-03
      1.74426113e-03 1.01709086e-02 1.77777112e-02 -1.45577155e-02
      -7.03152921e-03 -3.02826259e-02 -2.79775653e-02 2.13615476e-05
      -1.80505328e-02 -1.33147249e-02 -1.89855918e-02 1.90709520e-03
      -6.58899173e-03 4.70968559e-02 1.22362422e-03 -5.92578063e-03
      -1.82631388e-02 -5.74005805e-02 -1.09549845e-02 1.40085202e-02
      1.77512411e-03 -2.53113098e-02 2.11071111e-02 2.77064135e-03
      -1.54021038e-02 -5.75557463e-02 -2.23710034e-02 2.17371993e-03
      1.01494221e-02 1.39123118e-02 -1.74842589e-02 1.56204891e-03
      -4.37933858e-03 -8.24595988e-03 -2.88405214e-02 -4.30262983e-02
      2.28530411e-02 3.96702737e-02 1.55759770e-02 -1.61193162e-02
      -2.30596936e-03 1.35470675e-02 1.24584548e-02 -5.31601645e-02
      -8.03271681e-02 -9.48248710e-03 8.10576510e-03 6.62511215e-03
      -4.29558642e-02 -2.68153101e-03 5.64820148e-05 -1.31511819e-02
      -7.87588358e-02 -4.39099148e-02 2.44421586e-02 3.47017609e-02
      3.61040719e-02 -1.98855493e-02 6.99703908e-03 2.83310879e-02
      1.43819340e-02 -3.77607793e-02 -5.79704456e-02 1.10751931e-02
      2.59550437e-02 8.61779973e-03 -4.51614037e-02 1.19887860e-02
      2.79798247e-02 1.68442018e-02 -7.29959309e-02 -4.41168211e-02
      3.63815092e-02 5.43171279e-02 2.02479921e-02 -3.72239426e-02
      3.19897868e-02 4.96443547e-02 4.26546261e-02 -3.36546451e-02
      -5.99311069e-02 -9.81342979e-03 1.58465877e-02 1.10995946e-02
      -7.54036978e-02 -8.64856131e-03 -1.99042112e-02 -2.35767104e-02
      -5.87080084e-02 4.80104126e-02 4.19356972e-02 4.63152342e-02
      2.17550304e-02 -6.02613874e-02 5.83223663e-02 4.87189554e-02
      5.06000742e-02 5.55969253e-02 -6.53531998e-02 7.96446670e-03
      2.46969089e-02 -1.22476975e-02 -7.82712847e-02 1.74616650e-02
      -2.03617755e-03 -1.04847888e-03 -4.20678072e-02 3.87780517e-02
      4.61879522e-02 4.57145534e-02 2.83430505e-04 -6.46137372e-02
      7.49021918e-02 5.67218587e-02 6.01523891e-02 6.90052062e-02
      5.48876114e-02 4.35685366e-02 3.10304426e-02 4.93189227e-03
      -8.81699547e-02 -7.25523829e-02 -6.72870800e-02 -2.17626076e-02
      5.00652157e-02 -2.34012099e-04 2.23307833e-02 3.49939093e-02
      5.63418977e-02 2.70565376e-02 1.44216884e-02 -2.53630094e-02
      -2.16421299e-02 -1.16536245e-02 3.68661843e-02 5.15922680e-02
      5.03229350e-02 9.09392908e-03 -5.09161092e-02 -7.90748894e-02
      -6.04787841e-02 -2.69867517e-02 2.43334975e-02 -4.61434498e-02
      2.35777479e-02 4.31718417e-02 7.20256940e-02 1.55865438e-02
      -3.20352451e-03 -5.95851615e-02 -6.92813173e-02 -6.68543801e-02
      -2.20913813e-02 1.72376074e-02 1.52442744e-02 2.36929785e-02
      -1.06433630e-02 -1.23579493e-02 -1.32189682e-02 -1.52628552e-02
      -2.35647205e-02 1.88004859e-02 4.16174456e-02 -2.44230987e-03
      -2.43550278e-02 -7.47712031e-02 -4.37907949e-02 2.47527324e-02
      3.58822532e-02 2.03784406e-02 -5.99231347e-02 1.02977559e-03
      8.94009974e-03 1.94389578e-02 -2.46120617e-03 -1.88545939e-02
      -4.63591442e-02 -6.45034537e-02 -6.00551032e-02 -1.06511926e-02
      2.69977078e-02 4.71045263e-03 -2.76080929e-02 -5.86289242e-02
      -5.71215041e-02 -9.47828405e-03 -4.26455634e-03 -5.15415054e-03
      3.38238180e-02 2.26611160e-02 -2.93748695e-02 -3.94409373e-02
      -9.51647460e-02 -6.84909821e-02 -6.75893505e-04 4.37779352e-02
      3.50293890e-02 4.59565111e-02 1.79070830e-02 5.50371408e-03
      4.82715759e-03 -4.68572415e-02 -1.59275401e-02 3.02824588e-03
      4.86341044e-02 5.35585172e-02 2.24495083e-02 1.28932716e-02
      -2.82712486e-02 -5.31856865e-02 -8.82575065e-02 -6.88947216e-02
      -5.27797779e-03 2.95445509e-02 2.73086391e-02 4.20495197e-02
      2.27830373e-02 -1.01709729e-02 -2.63025127e-02 -5.37530817e-02
      -1.63650773e-02 2.61111408e-02 5.28374203e-02 4.77393791e-02
      8.93572345e-03 -2.38088276e-02 -4.42336686e-02 -1.28724687e-02
      -2.44022142e-02 -1.42303789e-02 -2.32030489e-02 -3.04102944e-03
      8.40398669e-03 -7.08832219e-03 1.25976289e-02 6.59225276e-03
      8.28221533e-03 -2.25942042e-02 -5.24066016e-03 -3.55835184e-02
      -4.23607863e-02 -1.44798672e-02 1.76609326e-02 -4.53872653e-03
      -4.14872020e-02 -3.42005119e-02 -1.40998336e-02 -8.53335805e-05
      2.35407911e-02 2.90961359e-02 1.41954813e-02 -6.37315540e-03
      2.86473818e-02 2.78439326e-03 -1.55804791e-02 -1.03307320e-02
      2.50170995e-02 2.20454987e-02 -1.60157462e-04 -1.37207815e-02
      -3.56080048e-02 2.78303362e-02 2.89614275e-02 1.74898878e-02
      -1.11997221e-02 -8.71153735e-03 -2.79913824e-02 -3.11201457e-02
      -5.74800596e-02 -3.84912752e-02 2.80456357e-02 2.90419832e-02
      2.40348582e-03 -2.60102302e-02 -3.83705762e-03 6.54883974e-04
      -5.54875378e-03 -5.92663437e-02 -3.50381061e-02 3.26890089e-02
      1.72060281e-02 8.21580458e-03 2.72409082e-03 1.29269091e-02
      6.84933830e-03 -1.64709203e-02 -5.34804277e-02 -1.33412750e-02
      2.20913552e-02 1.30567057e-02 2.23148242e-03 -1.32307475e-02
      1.46607719e-02 1.87856816e-02 -6.52086572e-04 -2.70944145e-02
      -4.72494848e-02 1.43828392e-02 1.32060535e-02 -1.19663887e-02
      -6.78404048e-02 8.16617813e-03 4.88825794e-03 8.42289254e-03
      -5.87845333e-02 -4.74937297e-02 2.03235261e-02 2.91853882e-02
      7.77105941e-03 -4.53956537e-02 5.09246960e-02 3.53551991e-02
      2.23408155e-02 -3.99236828e-02 -2.63397004e-02 3.56159848e-03
      -2.10566353e-03 -1.37327872e-02 -4.35631946e-02 4.09045704e-02
      3.76324654e-02 1.96632333e-02 -4.56177145e-02 -3.98054570e-02
      1.99275501e-02 1.29301641e-02 -2.79404368e-04 -2.68088281e-02
      7.49354437e-02 5.32331727e-02 3.70570458e-02 -4.09301929e-02
      -5.83058894e-02 -8.45201593e-03 4.81823517e-04 -3.31487320e-02
      -7.34495744e-02 3.99293602e-02 1.78032201e-02 9.14975721e-03
      -4.41281945e-02 4.91347760e-02 2.20772494e-02 -9.80971381e-03
      -2.42765471e-02 -6.75031394e-02 6.62241951e-02 8.24500099e-02
      8.67801011e-02 6.97522908e-02 -2.82166507e-02 1.43163698e-02
      -2.21648905e-02 -5.10632768e-02 -6.16482347e-02 3.41961868e-02
      3.68020013e-02 1.18571119e-02 -2.03216448e-02 1.02827400e-01
      7.50580132e-02 1.31398242e-03 -5.51217236e-02 -5.03564440e-02
      5.50321490e-02 1.01271592e-01 1.00291826e-01 1.08904511e-01
      -3.44288698e-03 5.60005978e-02 7.02703372e-02 3.00516337e-02
      -3.87734771e-02 -5.50036579e-02 -6.83161095e-02 -3.53266634e-02
      -2.82319803e-02 -9.20944139e-02 2.86291186e-02 6.41215220e-02
      5.28296642e-02 1.46199567e-02 -1.54928016e-02 -6.20182753e-02
      -9.41656083e-02 -1.19279377e-01 3.84097593e-03 6.73954710e-02
      7.82879889e-02 4.76227738e-02 1.41652403e-02 -2.86184810e-02
      -5.87807037e-02 -4.11800183e-02 -4.59322408e-02 -6.27697185e-02
      4.01387922e-02 7.33095258e-02 6.22788630e-02 1.54544488e-02
      -2.10653972e-02 -6.28433377e-02 -6.64254129e-02 -9.99580771e-02
      -6.34020641e-02 1.20047927e-02 2.64118984e-02 1.37493713e-02
      8.71330127e-03 -1.45270936e-02 -5.49509488e-02 -7.00612292e-02
      -7.29990676e-02 -1.16373459e-02 1.79449134e-02 -8.07047822e-03
      -2.43207086e-02 -5.35057522e-02 -5.42247780e-02 -4.89378981e-02
      -2.22336818e-02 -6.71211444e-03 -3.13963071e-02 2.21276246e-02
      3.31337117e-02 1.37499357e-02 -3.50484136e-03 -2.63873152e-02
      -6.22019097e-02 -3.87964025e-02 -5.07139340e-02 1.86649077e-02
      3.06756306e-03 -8.10384657e-03 -3.48312221e-02 -5.92113845e-02
      -6.51993155e-02 -4.50339578e-02 8.60871375e-03 5.82025945e-03
      9.45063867e-03 -1.06505724e-02 -4.20486629e-02 -5.97330108e-02
      -9.49223861e-02 -6.39478862e-02 -3.81204709e-02 1.59526442e-03
      1.64861139e-02 3.39603946e-02 2.27276813e-02 -1.83865689e-02
      -4.93687540e-02 -5.97605221e-02 2.39388226e-03 2.78146882e-02
      3.97278816e-02 3.37516926e-02 2.34026108e-02 -1.01469867e-02
      -4.55000997e-02 -5.89152835e-02 -7.19855502e-02 -8.65636766e-02
      -3.84485982e-02 5.68294618e-03 2.01179869e-02 4.38268520e-02
      2.99975332e-02 -5.30197332e-03 -5.86408451e-02 -4.35106046e-02
      -6.31913356e-03 3.50194536e-02 2.53366008e-02 4.67165150e-02
      1.74312596e-03 -2.27706283e-02 -6.44999295e-02 -5.92829250e-02
      -1.61971990e-02 2.27950010e-02 1.43410796e-02 8.17331765e-03
      -3.83893237e-03 -2.42602285e-02 -1.90093238e-02 -5.90842441e-02
      -3.91238220e-02 1.04636047e-03 4.39936779e-02 2.52279304e-02
      1.36582635e-03 -2.88952459e-02 1.00009702e-02 -1.08652059e-02
      -5.07838763e-02 -8.50563124e-02 -4.49884832e-02 5.22675645e-03
      1.38616208e-02 1.05761839e-02 2.29300074e-02 -2.95055434e-02
      -5.23484536e-02 -5.68271168e-02 -6.69626892e-02 4.91715211e-04
      1.95597019e-02 2.89328247e-02 1.46488827e-02 -1.44393183e-02
      -4.33488116e-02 9.31889750e-03 -2.69828252e-02 -1.66912060e-02
      1.34730814e-02 3.86209190e-02 2.13801824e-02 -2.44406238e-03
      -3.45473625e-02 -2.52267905e-02 5.68404794e-03 -3.44753936e-02
      -2.14427654e-02 1.02261165e-02 4.36981991e-02 4.85611781e-02
      2.04970650e-02 -1.18483286e-02 -4.80734296e-02 -5.11149652e-02
      -8.85786861e-02 -5.79015054e-02 3.20492918e-03 2.94109583e-02
      4.62759249e-02 2.10167542e-02 -3.07416264e-02 -3.36170122e-02
      -3.63295637e-02 -8.60053599e-02 -7.02701509e-02 -8.91077891e-03
      5.03349379e-02 8.25280696e-02 5.52179702e-02 -2.31550541e-02
      -3.02898027e-02 -1.74581148e-02 -5.52962571e-02 -4.66144495e-02
      -2.20307820e-02 3.69858071e-02 4.72641401e-02 3.59904282e-02
      -2.52915528e-02 3.47642205e-03 1.89660378e-02 -4.59805019e-02
      -3.87504697e-02 2.02948018e-03 7.22191110e-02 6.33693486e-02
      5.37943691e-02 7.44707184e-03 -4.29163538e-02 -2.78642774e-02
      -9.59601626e-02 -7.16363713e-02 -1.61522012e-02 3.14767957e-02
      5.69755435e-02 4.35356759e-02 -4.00619730e-02 -8.99134483e-03
      1.36131626e-02 -6.74886331e-02 -4.46132161e-02 -4.73167689e-04
      5.00610992e-02 6.14760146e-02 4.86645512e-02 3.05219437e-03
      -1.66558810e-02 -1.59557033e-02 -9.45602506e-02 -1.01706952e-01
      -3.54629233e-02 2.28898078e-02 2.13012304e-02 1.61193609e-02
      -1.05019407e-02 8.30041319e-02 3.51933241e-02 -5.80045506e-02
      -8.48458260e-02 -3.77650820e-02 4.00177427e-02 7.47322440e-02
      8.68925154e-02 1.02613509e-01 -2.82646380e-02 -1.26307430e-02
      -1.21523991e-01 -1.10496163e-01 -3.43291275e-02 7.98891205e-03
      2.19993014e-02 3.84892826e-03 -3.05796750e-02 7.74395466e-02
      4.58478406e-02 -3.80514786e-02 -7.90157318e-02 -1.16839865e-02
      4.66655381e-02 8.27013180e-02 7.00719059e-02 8.23711529e-02
      -1.44127561e-02 4.43807505e-02 4.12132740e-02 4.16219644e-02
      1.25208199e-02 -2.13812701e-02 -8.03005323e-02 -7.64141753e-02
      -6.66962415e-02 -8.85934681e-02 9.26985405e-03 1.83289573e-02
      7.02596968e-03 -3.29542905e-02 -7.74473920e-02 -1.33948803e-01
      -1.17126115e-01 -1.24228731e-01 3.43424268e-02 6.16884865e-02
      5.69096953e-02 4.57960404e-02 2.08518393e-02 2.31837686e-02
      4.46825847e-03 3.06759379e-04 9.14194342e-03 -1.16160009e-02
      4.41961586e-02 4.64309752e-02 2.43572462e-02 -1.79202966e-02
      -3.81777734e-02 -6.22962341e-02 -6.38514683e-02 -4.05491032e-02
      -2.58967187e-02 5.00609167e-03 1.58430182e-03 5.89384639e-04
      -2.12568454e-02 -4.66033332e-02 -9.49388444e-02 -4.01378497e-02
      -3.39044854e-02 1.34071382e-02 -8.30892287e-03 -3.22143063e-02
      -4.66565043e-02 -7.35587552e-02 -8.76081064e-02 -8.85069594e-02
      -2.88637131e-02 8.02936777e-03 1.76623501e-02 5.47519848e-02
      3.55953947e-02 3.80463004e-02 -7.70737091e-03 -2.09935382e-02
      -5.62588945e-02 -4.46379632e-02 -5.29806921e-03 1.22525054e-03
      4.54723239e-02 1.50906034e-02 1.84122659e-02 -3.60396206e-02
      -4.06767875e-02 -1.17167681e-01 -8.46689269e-02 -1.98067967e-02
      5.01208156e-02 7.68019073e-03 -3.54872122e-02 -3.93278003e-02
      -4.25945595e-02 -5.91159612e-02 -6.17481209e-02 -2.93219415e-03
      4.97896560e-02 5.45724370e-02 2.79373154e-02 -9.52633470e-03
      -3.17394175e-02 -1.41404206e-02 -3.72664840e-03 -3.80467298e-03
      -1.93533211e-04 5.36945239e-02 -8.58875923e-03 1.72903594e-02
      -1.95254758e-02 -1.16472272e-02 -2.05049720e-02 -4.36781012e-02
      -1.38477445e-01 -1.03764445e-01 -4.27409187e-02 -4.77250367e-02
      -3.75727788e-02 -4.82704192e-02 -4.39121574e-02 -1.60377007e-02
      -2.72971969e-02 -1.09469548e-01 -1.49543688e-01 -1.00200556e-01
      1.72067918e-02 9.04909708e-03 -3.59012596e-02 -1.48233883e-02
      2.52471641e-02 3.52637395e-02 1.60248540e-02 1.75251663e-02
      3.22072282e-02 -1.41367894e-02 -3.13146375e-02 -6.09886386e-02
      -2.39944886e-02 4.98326197e-02 5.55315763e-02 2.50133947e-02
      1.49442358e-02 -2.08791234e-02 -1.03644609e-01 -7.36586228e-02
      -9.50238332e-02 -2.14334391e-02 3.30516323e-02 4.12262976e-02
      -5.71815223e-02 -1.02487452e-01 -1.31916806e-01 -1.19849697e-01
      -9.63710696e-02 -1.05020896e-01 -1.49046173e-02 3.28574628e-02
      8.44180211e-02 -2.64301896e-02 -7.20833391e-02 -1.15701042e-01
      -4.73857149e-02 -4.77185473e-02 -7.73022473e-02 -3.33368890e-02
      3.89051065e-02 4.69959825e-02 2.26657651e-02 2.13656458e-03
      -4.74362075e-02 -2.25907732e-02 -1.68024730e-02 -7.87725821e-02
      -3.39221172e-02 2.74723880e-02 7.74287954e-02 6.40002489e-02
      4.07431796e-02 -2.38321777e-02 -1.14434488e-01 -1.02695927e-01
      -1.03814475e-01 -3.28161679e-02 3.93857770e-02 6.77584410e-02
      2.65115267e-03 -4.26853448e-02 -1.20540731e-01 -6.20587282e-02
      -7.15816170e-02 -7.81834796e-02 -2.27118731e-02 5.01353927e-02
      1.04094386e-01 4.22166958e-02 -2.40407838e-03 -6.70838058e-02
      -4.14710231e-02 -5.13116941e-02 -1.07014000e-01 -6.11479320e-02
      1.88258123e-02 5.08622676e-02 4.37644348e-02 2.45939046e-02
      -4.70588878e-02 -8.77449661e-03 -3.93599533e-02 -1.02165721e-01
      -3.44447941e-02 2.68562902e-02 5.95842339e-02 4.24000397e-02
      2.57584136e-02 -1.06305387e-02 -7.84267634e-02 -1.21722952e-01
      -1.50449589e-01 -4.96521853e-02 4.03848998e-02 7.01141953e-02
      4.39499654e-02 7.62062473e-03 -8.29259232e-02 -4.11960706e-02
      -8.76746923e-02 -1.15833268e-01 -1.13951843e-02 5.82258627e-02
      9.46707129e-02 7.22646639e-02 4.98882830e-02 -2.82736979e-02
      -6.55870214e-02 -9.73181278e-02 -1.49686649e-01 -1.02948353e-01
      -4.38410789e-02 8.22531991e-03 -8.39054491e-03 -4.04419675e-02
      -6.50512725e-02 2.84876116e-02 -1.13511719e-02 -9.06996056e-02
      -7.87542835e-02 2.34949458e-02 7.59465173e-02 5.11269793e-02
      2.04335339e-02 3.40607278e-02 -7.57317096e-02 -1.28276691e-01
      -1.58574581e-01 -3.99614833e-02 1.24178501e-02 5.20498306e-02
      7.01006921e-03 -2.76284795e-02 -6.17860183e-02 6.57831784e-03
      -3.22786905e-02 -5.98837025e-02 1.83218420e-02 8.28297362e-02
      1.24301225e-01 5.00778705e-02 3.26109789e-02 1.87330954e-02</_></support_vectors>
  <decision_functions>
    <_>
      <sv_count>1</sv_count>
      <rho>-3.4118071928128653e+00</rho>
      <alpha>
        1.</alpha>
      <index>
        0</index></_></decision_functions></my_svm>
</opencv_storage>
